FILEHEADER = {
  magic: lCRF
  size: 1837616
  type: FOMC
  version: 100
  num_features: 0
  num_labels: 13
  num_attrs: 18436
  off_features: 0x30
  off_labels: 0x9DA30
  off_attrs: 0x9E44D
  off_labelrefs: 0x17D124
  off_attrrefs: 0x17D438
}

LABELS = {
      0: O
      1: B_Ref. Legislativa
      2: I_Ref. Legislativa
      3: B_Pessoa
      4: I_Pessoa
      5: B_Doutrina
      6: I_Doutrina
      7: B_Precedente
      8: I_Precedente
      9: B_Doutrinador
     10: I_Doutrinador
     11: FIM_ARQ
     12: INICIO_ARQ
}

ATTRIBUTES = {
      0: bias
      1: word[-3:]:ndo
      2: word[-2:]:do
      3: word.isupper()
      4: word.istitle()
      5: word.isdigit()
      6: BOS
      7: +1:word.lower(): 
      8: +1:word.istitle()
      9: +1:word.isupper()
     10: word.lower(): 
     11: word[-3:]: 
     12: word[-2:]: 
     13: -1:word.istitle()
     14: -1:word.isupper()
     15: +1:word.lower():o
     16: word.lower():o
     17: word[-3:]:o
     18: word[-2:]:o
     19: -1:word.lower(): 
     20: -1:word.lower():o
     21: +1:word.lower():art
     22: word.lower():art
     23: word[-3:]:art
     24: word[-2:]:rt
     25: +1:word.lower():.
     26: word.lower():.
     27: word[-3:]:.
     28: word[-2:]:.
     29: -1:word.lower():art
     30: -1:word.lower():.
     31: word[-3:]:320
     32: word[-2:]:20
     33: +1:word.lower():,
     34: word.lower():,
     35: word[-3:]:,
     36: word[-2:]:,
     37: -1:word.lower():,
     38: +1:word.lower():ii
     39: word.lower():ii
     40: word[-3:]:II
     41: word[-2:]:II
     42: -1:word.lower():ii
     43: +1:word.lower():do
     44: word.lower():do
     45: word[-3:]:do
     46: -1:word.lower():do
     47: +1:word.lower():cpc
     48: word.lower():cpc
     49: word[-3:]:CPC
     50: word[-2:]:PC
     51: -1:word.lower():cpc
     52: +1:word.lower():que
     53: word.lower():que
     54: word[-3:]:que
     55: word[-2:]:ue
     56: -1:word.lower():que
     57: word.lower():recusa
     58: word[-3:]:usa
     59: word[-2:]:sa
     60: -1:word.lower():recusa
     61: +1:word.lower():os
     62: word.lower():os
     63: word[-3:]:os
     64: word[-2:]:os
     65: -1:word.lower():os
     66: +1:word.lower():efeitos
     67: word.lower():efeitos
     68: word[-3:]:tos
     69: -1:word.lower():efeitos
     70: +1:word.lower():da
     71: word.lower():da
     72: word[-3:]:da
     73: word[-2:]:da
     74: -1:word.lower():da
     75: word[-3:]:lia
     76: word[-2:]:ia
     77: +1:word.lower():quando
     78: word.lower():quando
     79: -1:word.lower():quando
     80: word[-3:]:gio
     81: word[-2:]:io
     82: word[-3:]:sar
     83: word[-2:]:ar
     84: +1:word.lower():sobre
     85: word.lower():sobre
     86: word[-3:]:bre
     87: word[-2:]:re
     88: -1:word.lower():sobre
     89: +1:word.lower():direitos
     90: word.lower():direitos
     91: -1:word.lower():direitos
     92: word[-3:]:eis
     93: word[-2:]:is
     94: word[-3:]:ina
     95: word[-2:]:na
     96: +1:word.lower():eminente
     97: word.lower():eminente
     98: word[-3:]:nte
     99: word[-2:]:te
    100: -1:word.lower():eminente
    101: +1:word.lower():calmon
    102: word.lower():calmon
    103: word[-3:]:mon
    104: word[-2:]:on
    105: -1:word.lower():calmon
    106: +1:word.lower():de
    107: word.lower():de
    108: word[-3:]:de
    109: word[-2:]:de
    110: -1:word.lower():de
    111: +1:word.lower():passos
    112: word.lower():passos
    113: word[-3:]:sos
    114: -1:word.lower():passos
    115: +1:word.lower():aquilo
    116: word.lower():aquilo
    117: word[-3:]:ilo
    118: word[-2:]:lo
    119: -1:word.lower():aquilo
    120: +1:word.lower():é
    121: word.lower():é
    122: word[-3:]:é
    123: word[-2:]:é
    124: -1:word.lower():é
    125: +1:word.lower():um
    126: word.lower():um
    127: word[-3:]:um
    128: word[-2:]:um
    129: -1:word.lower():um
    130: word[-3:]:nso
    131: word[-2:]:so
    132: +1:word.lower():na
    133: word.lower():na
    134: word[-3:]:na
    135: -1:word.lower():na
    136: +1:word.lower():doutrina
    137: word.lower():doutrina
    138: -1:word.lower():doutrina
    139: +1:word.lower():e
    140: word.lower():e
    141: word[-3:]:e
    142: word[-2:]:e
    143: -1:word.lower():e
    144: +1:word.lower():jurisprudência
    145: word.lower():jurisprudência
    146: word[-3:]:cia
    147: -1:word.lower():jurisprudência
    148: +1:word.lower():ou
    149: word.lower():ou
    150: word[-3:]:ou
    151: word[-2:]:ou
    152: -1:word.lower():ou
    153: +1:word.lower():seja
    154: word.lower():seja
    155: word[-3:]:eja
    156: word[-2:]:ja
    157: -1:word.lower():seja
    158: +1:word.lower():tais
    159: word.lower():tais
    160: word[-3:]:ais
    161: -1:word.lower():tais
    162: +1:word.lower():são
    163: word.lower():são
    164: word[-3:]:são
    165: word[-2:]:ão
    166: -1:word.lower():são
    167: +1:word.lower():para
    168: word.lower():para
    169: word[-3:]:ara
    170: word[-2:]:ra
    171: -1:word.lower():para
    172: +1:word.lower():efeito
    173: word.lower():efeito
    174: word[-3:]:ito
    175: word[-2:]:to
    176: -1:word.lower():efeito
    177: +1:word.lower():disposição
    178: word.lower():disposição
    179: word[-3:]:ção
    180: -1:word.lower():disposição
    181: word.lower():estão
    182: word[-3:]:tão
    183: -1:word.lower():estão
    184: word[-3:]:dos
    185: +1:word.lower():a
    186: word.lower():a
    187: word[-3:]:a
    188: word[-2:]:a
    189: -1:word.lower():a
    190: word[-3:]:les
    191: word[-2:]:es
    192: +1:word.lower():quer
    193: word.lower():quer
    194: word[-3:]:uer
    195: word[-2:]:er
    196: -1:word.lower():quer
    197: +1:word.lower():natureza
    198: word.lower():natureza
    199: word[-3:]:eza
    200: word[-2:]:za
    201: -1:word.lower():natureza
    202: +1:word.lower():administrativa
    203: word.lower():administrativa
    204: word[-3:]:iva
    205: word[-2:]:va
    206: -1:word.lower():administrativa
    207: +1:word.lower():jurisdicional
    208: word.lower():jurisdicional
    209: word[-3:]:nal
    210: word[-2:]:al
    211: -1:word.lower():jurisdicional
    212: +1:word.lower():(
    213: word.lower():(
    214: word[-3:]:(
    215: word[-2:]:(
    216: +1:word.lower():comentários
    217: word.lower():comentários
    218: word[-3:]:ios
    219: -1:word.lower():(
    220: -1:word.lower():comentários
    221: +1:word.lower():ao
    222: word.lower():ao
    223: word[-3:]:ao
    224: word[-2:]:ao
    225: -1:word.lower():ao
    226: +1:word.lower():forense
    227: word.lower():forense
    228: word[-3:]:nse
    229: word[-2:]:se
    230: -1:word.lower():forense
    231: +1:word.lower():3ª
    232: word.lower():3ª
    233: word[-3:]:3ª
    234: word[-2:]:3ª
    235: -1:word.lower():3ª
    236: +1:word.lower():ed
    237: word.lower():ed
    238: word[-3:]:ed
    239: word[-2:]:ed
    240: -1:word.lower():ed
    241: +1:word.lower():p
    242: word.lower():p
    243: word[-3:]:p
    244: word[-2:]:p
    245: -1:word.lower():p
    246: +1:word.lower():495
    247: word.lower():495
    248: word[-3:]:495
    249: word[-2:]:95
    250: +1:word.lower():)
    251: word.lower():)
    252: word[-3:]:)
    253: word[-2:]:)
    254: -1:word.lower():495
    255: -1:word.lower():)
    256: word[-3:]:A
    257: word[-2:]:A
    258: word.lower():presença
    259: word[-3:]:nça
    260: word[-2:]:ça
    261: -1:word.lower():presença
    262: word.lower():desses
    263: word[-3:]:ses
    264: word[-3:]:rca
    265: word[-2:]:ca
    266: +1:word.lower():direito
    267: word.lower():direito
    268: -1:word.lower():direito
    269: +1:word.lower():com
    270: word.lower():com
    271: word[-3:]:com
    272: word[-2:]:om
    273: -1:word.lower():com
    274: word[-3:]:gno
    275: word[-2:]:no
    276: word[-3:]:ade
    277: +1:word.lower():ilustre
    278: word.lower():ilustre
    279: word[-3:]:tre
    280: -1:word.lower():ilustre
    281: +1:word.lower():professor
    282: word.lower():professor
    283: word[-3:]:sor
    284: word[-2:]:or
    285: -1:word.lower():professor
    286: +1:word.lower():exemplo
    287: word.lower():exemplo
    288: -1:word.lower():exemplo
    289: word[-3:]:ivo
    290: word[-2:]:vo
    291: word[-3:]:É
    292: word[-2:]:É
    293: +1:word.lower():caso
    294: word.lower():caso
    295: word[-3:]:aso
    296: -1:word.lower():caso
    297: word[-3:]:tor
    298: +1:word.lower():pode
    299: word.lower():pode
    300: word[-3:]:ode
    301: -1:word.lower():pode
    302: +1:word.lower():por
    303: word.lower():por
    304: word[-3:]:por
    305: -1:word.lower():por
    306: +1:word.lower():própria
    307: word.lower():própria
    308: word[-3:]:ria
    309: -1:word.lower():própria
    310: word[-3:]:gar
    311: +1:word.lower():imóvel
    312: word.lower():imóvel
    313: word[-3:]:vel
    314: word[-2:]:el
    315: -1:word.lower():imóvel
    316: +1:word.lower():mas
    317: word.lower():mas
    318: word[-3:]:mas
    319: word[-2:]:as
    320: -1:word.lower():mas
    321: +1:word.lower():não
    322: word.lower():não
    323: word[-3:]:não
    324: -1:word.lower():não
    325: +1:word.lower():-
    326: word.lower():-
    327: word[-3:]:-
    328: word[-2:]:-
    329: -1:word.lower():-
    330: +1:word.lower():sem
    331: word.lower():sem
    332: word[-3:]:sem
    333: word[-2:]:em
    334: -1:word.lower():sem
    335: word[-3:]:ão;
    336: word[-2:]:o;
    337: +1:word.lower():logo
    338: word.lower():logo
    339: word[-3:]:ogo
    340: word[-2:]:go
    341: -1:word.lower():logo
    342: +1:word.lower():só
    343: word.lower():só
    344: word[-3:]:só
    345: word[-2:]:só
    346: -1:word.lower():só
    347: +1:word.lower():há
    348: word.lower():há
    349: word[-3:]:há
    350: word[-2:]:há
    351: -1:word.lower():há
    352: +1:word.lower():controle
    353: word.lower():controle
    354: word[-3:]:ole
    355: word[-2:]:le
    356: -1:word.lower():controle
    357: +1:word.lower():estatal
    358: word.lower():estatal
    359: word[-3:]:tal
    360: -1:word.lower():estatal
    361: +1:word.lower():quanto
    362: word.lower():quanto
    363: word[-3:]:nto
    364: -1:word.lower():quanto
    365: +1:word.lower():à
    366: word.lower():à
    367: word[-3:]:à
    368: word[-2:]:à
    369: -1:word.lower():à
    370: +1:word.lower():vale
    371: word.lower():vale
    372: word[-3:]:ale
    373: -1:word.lower():vale
    374: word[-3:]:cer
    375: +1:word.lower():todos
    376: word.lower():todos
    377: -1:word.lower():todos
    378: +1:word.lower():demais
    379: word.lower():demais
    380: -1:word.lower():demais
    381: +1:word.lower():casos
    382: word.lower():casos
    383: -1:word.lower():casos
    384: +1:word.lower():nos
    385: word.lower():nos
    386: word[-3:]:nos
    387: -1:word.lower():nos
    388: +1:word.lower():incisos
    389: word.lower():incisos
    390: -1:word.lower():incisos
    391: +1:word.lower():i
    392: word.lower():i
    393: word[-3:]:I
    394: word[-2:]:I
    395: -1:word.lower():i
    396: +1:word.lower():82
    397: word.lower():82
    398: word[-3:]:82
    399: word[-2:]:82
    400: -1:word.lower():82
    401: +1:word.lower():no
    402: word.lower():no
    403: word[-3:]:no
    404: -1:word.lower():no
    405: +1:word.lower():próprio
    406: word.lower():próprio
    407: word[-3:]:rio
    408: -1:word.lower():próprio
    409: +1:word.lower():código
    410: word.lower():código
    411: word[-3:]:igo
    412: -1:word.lower():código
    413: +1:word.lower():legislação
    414: word.lower():legislação
    415: -1:word.lower():legislação
    416: word[-3:]:aga
    417: word[-2:]:ga
    418: +1:word.lower():fora
    419: word.lower():fora
    420: word[-3:]:ora
    421: -1:word.lower():fora
    422: +1:word.lower():dele
    423: word.lower():dele
    424: word[-3:]:ele
    425: -1:word.lower():dele
    426: +1:word.lower():

    427: word.lower():

    428: word[-3:]:

    429: word[-2:]:

    430: -1:word.lower():

    431: EOS
    432: word[-3:]:Na
    433: word[-2:]:Na
    434: +1:word.lower():ricardo
    435: word.lower():ricardo
    436: word[-3:]:rdo
    437: -1:word.lower():ricardo
    438: +1:word.lower():bechara
    439: word.lower():bechara
    440: -1:word.lower():bechara
    441: +1:word.lower():santos
    442: word.lower():santos
    443: -1:word.lower():santos
    444: +1:word.lower():traz
    445: word.lower():traz
    446: word[-3:]:raz
    447: word[-2:]:az
    448: -1:word.lower():traz
    449: word[-3:]:osa
    450: word[-3:]:gem
    451: +1:word.lower():em
    452: word.lower():em
    453: word[-3:]:em
    454: -1:word.lower():em
    455: +1:word.lower():obra
    456: word.lower():obra
    457: word[-3:]:bra
    458: -1:word.lower():obra
    459: +1:word.lower():específica
    460: word.lower():específica
    461: word[-3:]:ica
    462: -1:word.lower():específica
    463: +1:word.lower():tema
    464: word.lower():tema
    465: word[-3:]:ema
    466: word[-2:]:ma
    467: -1:word.lower():tema
    468: +1:word.lower():in
    469: word.lower():in
    470: word[-3:]:in
    471: word[-2:]:in
    472: -1:word.lower():in
    473: +1:word.lower():verbis
    474: word.lower():verbis
    475: word[-3:]:bis
    476: +1:word.lower()::
    477: word.lower()::
    478: word[-3:]::
    479: word[-2:]::
    480: -1:word.lower():verbis
    481: -1:word.lower()::
    482: +1:word.lower():defesa
    483: word.lower():defesa
    484: word[-3:]:esa
    485: -1:word.lower():defesa
    486: +1:word.lower():suposta
    487: word[-3:]:sta
    488: word[-2:]:ta
    489: -1:word.lower():suposta
    490: +1:word.lower():violação
    491: word.lower():violação
    492: -1:word.lower():violação
    493: +1:word.lower():aos
    494: word.lower():aos
    495: word[-3:]:aos
    496: -1:word.lower():aos
    497: +1:word.lower():princípios
    498: word.lower():princípios
    499: -1:word.lower():princípios
    500: +1:word.lower():contraditório
    501: word.lower():contraditório
    502: -1:word.lower():contraditório
    503: +1:word.lower():ampla
    504: word.lower():ampla
    505: word[-3:]:pla
    506: word[-2:]:la
    507: -1:word.lower():ampla
    508: +1:word.lower():dos
    509: word.lower():dos
    510: -1:word.lower():dos
    511: +1:word.lower():limites
    512: word.lower():limites
    513: word[-3:]:tes
    514: -1:word.lower():limites
    515: +1:word.lower():coisa
    516: word.lower():coisa
    517: -1:word.lower():coisa
    518: +1:word.lower():julgada
    519: word.lower():julgada
    520: word[-3:]:ada
    521: -1:word.lower():julgada
    522: +1:word.lower():devido
    523: word.lower():devido
    524: word[-3:]:ido
    525: -1:word.lower():devido
    526: +1:word.lower():processo
    527: word.lower():processo
    528: word[-3:]:sso
    529: -1:word.lower():processo
    530: +1:word.lower():legal
    531: word.lower():legal
    532: word[-3:]:gal
    533: -1:word.lower():legal
    534: +1:word.lower():julgamento
    535: word.lower():julgamento
    536: -1:word.lower():julgamento
    537: +1:word.lower():causa
    538: word.lower():causa
    539: -1:word.lower():causa
    540: word[-3:]:via
    541: +1:word.lower():análise
    542: word.lower():análise
    543: word[-3:]:ise
    544: -1:word.lower():análise
    545: +1:word.lower():adequada
    546: word.lower():adequada
    547: -1:word.lower():adequada
    548: +1:word.lower():aplicação
    549: word.lower():aplicação
    550: -1:word.lower():aplicação
    551: +1:word.lower():das
    552: word.lower():das
    553: word[-3:]:das
    554: -1:word.lower():das
    555: +1:word.lower():normas
    556: word.lower():normas
    557: -1:word.lower():normas
    558: +1:word.lower():repercussão
    559: word.lower():repercussão
    560: -1:word.lower():repercussão
    561: +1:word.lower():geral
    562: word.lower():geral
    563: word[-3:]:ral
    564: -1:word.lower():geral
    565: +1:word.lower():”
    566: word.lower():”
    567: word[-3:]:”
    568: word[-2:]:”
    569: -1:word.lower():”
    570: word[-3:]:O
    571: word[-2:]:O
    572: +1:word.lower():senhor
    573: word.lower():senhor
    574: word[-3:]:HOR
    575: word[-2:]:OR
    576: -1:word.lower():senhor
    577: +1:word.lower():ministro
    578: word.lower():ministro
    579: word[-3:]:TRO
    580: word[-2:]:RO
    581: -1:word.lower():ministro
    582: +1:word.lower():luís
    583: word.lower():luís
    584: word[-3:]:UÍS
    585: word[-2:]:ÍS
    586: -1:word.lower():luís
    587: +1:word.lower():roberto
    588: word.lower():roberto
    589: word[-3:]:RTO
    590: word[-2:]:TO
    591: -1:word.lower():roberto
    592: +1:word.lower():barroso
    593: word.lower():barroso
    594: word[-3:]:OSO
    595: word[-2:]:SO
    596: -1:word.lower():barroso
    597: +1:word.lower():presidente
    598: word.lower():presidente
    599: -1:word.lower():presidente
    600: +1:word.lower():eu
    601: word.lower():eu
    602: word[-3:]:eu
    603: word[-2:]:eu
    604: -1:word.lower():eu
    605: +1:word.lower():também
    606: word.lower():também
    607: word[-3:]:bém
    608: word[-2:]:ém
    609: -1:word.lower():também
    610: word[-3:]:uei
    611: word[-2:]:ei
    612: +1:word.lower():pela
    613: word.lower():pela
    614: word[-3:]:ela
    615: -1:word.lower():pela
    616: +1:word.lower():tese
    617: word.lower():tese
    618: word[-3:]:ese
    619: -1:word.lower():tese
    620: +1:word.lower():apresentada
    621: word.lower():apresentada
    622: -1:word.lower():apresentada
    623: word[-3:]:una
    624: +1:word.lower():posição
    625: word.lower():posição
    626: -1:word.lower():posição
    627: +1:word.lower():aqui
    628: word.lower():aqui
    629: word[-3:]:qui
    630: word[-2:]:ui
    631: -1:word.lower():aqui
    632: word[-3:]:ida
    633: +1:word.lower():pelo
    634: word.lower():pelo
    635: word[-3:]:elo
    636: -1:word.lower():pelo
    637: word[-3:]:tro
    638: word[-2:]:ro
    639: +1:word.lower():marco
    640: word.lower():marco
    641: word[-3:]:rco
    642: word[-2:]:co
    643: -1:word.lower():marco
    644: +1:word.lower():aurélio
    645: word.lower():aurélio
    646: word[-3:]:lio
    647: -1:word.lower():aurélio
    648: +1:word.lower():porém
    649: word.lower():porém
    650: word[-3:]:rém
    651: -1:word.lower():porém
    652: word[-3:]:ejo
    653: word[-2:]:jo
    654: +1:word.lower():uma
    655: word.lower():uma
    656: word[-3:]:uma
    657: -1:word.lower():uma
    658: +1:word.lower():distinção
    659: word.lower():distinção
    660: -1:word.lower():distinção
    661: -1:word.lower():técnica
    662: +1:word.lower():relevante
    663: -1:word.lower():relevante
    664: +1:word.lower():relator
    665: word.lower():relator
    666: -1:word.lower():relator
    667: +1:word.lower():seguinte
    668: word.lower():seguinte
    669: -1:word.lower():seguinte
    670: +1:word.lower():§
    671: word.lower():§
    672: word[-3:]:§
    673: word[-2:]:§
    674: -1:word.lower():§
    675: +1:word.lower():4º
    676: word.lower():4º
    677: word[-3:]:4º
    678: word[-2:]:4º
    679: -1:word.lower():4º
    680: +1:word.lower():artigo
    681: word.lower():artigo
    682: -1:word.lower():artigo
    683: +1:word.lower():44
    684: word.lower():44
    685: word[-3:]:44
    686: word[-2:]:44
    687: -1:word.lower():44
    688: +1:word.lower():cuidar
    689: word[-3:]:dar
    690: +1:word.lower():pena
    691: word.lower():pena
    692: word[-3:]:ena
    693: -1:word.lower():pena
    694: word.lower():restritiva
    695: -1:word.lower():restritiva
    696: +1:word.lower():diz
    697: word[-3:]:diz
    698: word[-2:]:iz
    699: -1:word.lower():diz
    700: word.lower():ag
    701: word[-3:]:AG
    702: word[-2:]:AG
    703: -1:word.lower():ag
    704: +1:word.lower():reg
    705: word.lower():reg
    706: word[-3:]:REG
    707: word[-2:]:EG
    708: -1:word.lower():reg
    709: word[-3:]:NO
    710: word[-2:]:NO
    711: +1:word.lower():habeas
    712: word.lower():habeas
    713: word[-3:]:EAS
    714: word[-2:]:AS
    715: -1:word.lower():habeas
    716: +1:word.lower():corpus
    717: word.lower():corpus
    718: word[-3:]:PUS
    719: word[-2:]:US
    720: -1:word.lower():corpus
    721: +1:word.lower():127.445
    722: word.lower():127.445
    723: word[-3:]:445
    724: word[-2:]:45
    725: -1:word.lower():127.445
    726: +1:word.lower():santa
    727: word.lower():santa
    728: word[-3:]:NTA
    729: word[-2:]:TA
    730: -1:word.lower():santa
    731: +1:word.lower():catarina
    732: word.lower():catarina
    733: word[-3:]:INA
    734: word[-2:]:NA
    735: -1:word.lower():catarina
    736: word.lower():adv
    737: word[-3:]:ADV
    738: word[-2:]:DV
    739: -1:word.lower():adv
    740: +1:word.lower():/
    741: word.lower():/
    742: word[-3:]:/
    743: word[-2:]:/
    744: +1:word.lower():s
    745: word.lower():s
    746: word[-3:]:S
    747: word[-2:]:S
    748: -1:word.lower():/
    749: -1:word.lower():s
    750: +1:word.lower():alexandre
    751: word.lower():alexandre
    752: word[-3:]:DRE
    753: word[-2:]:RE
    754: -1:word.lower():alexandre
    755: +1:word.lower():venzon
    756: word.lower():venzon
    757: word[-3:]:ZON
    758: word[-2:]:ON
    759: -1:word.lower():venzon
    760: word.lower():zanetti
    761: word[-3:]:TTI
    762: word[-2:]:TI
    763: -1:word.lower():zanetti
    764: +1:word.lower():intdo
    765: word.lower():intdo
    766: word[-3:]:TDO
    767: word[-2:]:DO
    768: -1:word.lower():intdo
    769: word[-3:]:NTE
    770: word[-2:]:TE
    771: word[-3:]:DA
    772: word[-2:]:DA
    773: +1:word.lower():república
    774: word.lower():república
    775: word[-3:]:ICA
    776: word[-2:]:CA
    777: -1:word.lower():república
    778: +1:word.lower():adv
    779: +1:word.lower():advogado
    780: word.lower():advogado
    781: word[-3:]:ADO
    782: -1:word.lower():advogado
    783: word[-3:]:RAL
    784: word[-2:]:AL
    785: +1:word.lower():união
    786: word.lower():união
    787: word[-3:]:IÃO
    788: word[-2:]:ÃO
    789: -1:word.lower():união
    790: +1:word.lower():congresso
    791: word.lower():congresso
    792: word[-3:]:SSO
    793: -1:word.lower():congresso
    794: +1:word.lower():nacional
    795: word.lower():nacional
    796: word[-3:]:NAL
    797: -1:word.lower():nacional
    798: +1:word.lower():am
    799: word.lower():am
    800: word[-3:]:AM
    801: word[-2:]:AM
    802: -1:word.lower():am
    803: +1:word.lower():curiae
    804: word.lower():curiae
    805: word[-3:]:IAE
    806: word[-2:]:AE
    807: -1:word.lower():curiae
    808: +1:word.lower():seguradora
    809: word.lower():seguradora
    810: word[-3:]:ORA
    811: word[-2:]:RA
    812: -1:word.lower():seguradora
    813: +1:word.lower():líder
    814: word.lower():líder
    815: word[-3:]:DER
    816: word[-2:]:ER
    817: -1:word.lower():líder
    818: word[-3:]:DOS
    819: word[-2:]:OS
    820: word[-3:]:IOS
    821: -1:word.lower():consórcios
    822: word[-3:]:DO
    823: +1:word.lower():luiz
    824: word.lower():luiz
    825: word[-3:]:UIZ
    826: word[-2:]:IZ
    827: -1:word.lower():luiz
    828: +1:word.lower():fux
    829: word.lower():fux
    830: word[-3:]:FUX
    831: word[-2:]:UX
    832: -1:word.lower():fux
    833: word[-3:]:TOR
    834: +1:word.lower():sursis
    835: word.lower():sursis
    836: word[-3:]:sis
    837: -1:word.lower():sursis
    838: +1:word.lower():ostenta
    839: word.lower():ostenta
    840: word[-3:]:nta
    841: -1:word.lower():ostenta
    842: +1:word.lower():jurídica
    843: word.lower():jurídica
    844: -1:word.lower():jurídica
    845: +1:word.lower():32
    846: word.lower():32
    847: word[-3:]:32
    848: word[-2:]:32
    849: -1:word.lower():32
    850: +1:word.lower():penal
    851: word.lower():penal
    852: -1:word.lower():penal
    853: +1:word.lower():antes
    854: word.lower():antes
    855: -1:word.lower():antes
    856: +1:word.lower():medida
    857: word.lower():medida
    858: -1:word.lower():medida
    859: +1:word.lower():alternativa
    860: word.lower():alternativa
    861: -1:word.lower():alternativa
    862: word[-2:]:a;
    863: +1:word.lower():isso
    864: word.lower():isso
    865: -1:word.lower():isso
    866: +1:word.lower():cabe
    867: word.lower():cabe
    868: word[-3:]:abe
    869: word[-2:]:be
    870: -1:word.lower():cabe
    871: word[-3:]:dir
    872: word[-2:]:ir
    873: +1:word.lower():período
    874: word.lower():período
    875: word[-3:]:odo
    876: -1:word.lower():período
    877: +1:word.lower():prova
    878: word.lower():prova
    879: word[-3:]:ova
    880: -1:word.lower():prova
    881: +1:word.lower():exigido
    882: +1:word.lower():obtenção
    883: word.lower():obtenção
    884: -1:word.lower():obtenção
    885: +1:word.lower():desse
    886: word.lower():desse
    887: word[-3:]:sse
    888: -1:word.lower():desse
    889: +1:word.lower():benefício
    890: word.lower():benefício
    891: word[-3:]:cio
    892: -1:word.lower():benefício
    893: +1:word.lower():tempo
    894: word.lower():tempo
    895: word[-3:]:mpo
    896: word[-2:]:po
    897: -1:word.lower():tempo
    898: +1:word.lower():cumprimento
    899: word.lower():cumprimento
    900: -1:word.lower():cumprimento
    901: +1:word.lower():privativa
    902: word.lower():privativa
    903: -1:word.lower():privativa
    904: +1:word.lower():liberdade
    905: word.lower():liberdade
    906: -1:word.lower():liberdade
    907: word[-3:]:çar
    908: +1:word.lower():se
    909: word.lower():se
    910: word[-3:]:se
    911: -1:word.lower():se
    912: +1:word.lower():indulto
    913: word.lower():indulto
    914: word[-3:]:lto
    915: -1:word.lower():indulto
    916: +1:word.lower():natalino
    917: word.lower():natalino
    918: word[-3:]:ino
    919: -1:word.lower():natalino
    920: +1:word.lower():extinção
    921: word.lower():extinção
    922: word.lower():punibilidade
    923: -1:word.lower():punibilidade
    924: +1:word.lower():nan
    925: word.lower():nan
    926: word[-3:]:nan
    927: word[-2:]:an
    928: -1:word.lower():nan
    929: +1:word.lower():progressão
    930: word.lower():progressão
    931: word[-3:]:SÃO
    932: -1:word.lower():progressão
    933: word[-3:]:DE
    934: word[-2:]:DE
    935: +1:word.lower():regime
    936: word.lower():regime
    937: word[-3:]:IME
    938: word[-2:]:ME
    939: -1:word.lower():regime
    940: +1:word.lower():execução
    941: word.lower():execução
    942: word[-3:]:ÇÃO
    943: -1:word.lower():execução
    944: +1:word.lower():12
    945: word.lower():12
    946: word[-3:]:12
    947: word[-2:]:12
    948: -1:word.lower():12
    949: +1:word.lower():distrito
    950: word.lower():distrito
    951: word[-3:]:ITO
    952: -1:word.lower():distrito
    953: +1:word.lower():federal
    954: word.lower():federal
    955: -1:word.lower():federal
    956: word.lower():apelação
    957: -1:word.lower():apelação
    958: word.lower():1
    959: word[-3:]:1
    960: word[-2:]:1
    961: -1:word.lower():1
    962: +1:word.lower():conversão
    963: word.lower():conversão
    964: -1:word.lower():conversão
    965: +1:word.lower():provisória
    966: word.lower():provisória
    967: -1:word.lower():provisória
    968: +1:word.lower():lei
    969: word.lower():lei
    970: word[-3:]:lei
    971: -1:word.lower():lei
    972: +1:word.lower():acerca
    973: word.lower():acerca
    974: -1:word.lower():acerca
    975: +1:word.lower():relevância
    976: word.lower():relevância
    977: -1:word.lower():relevância
    978: +1:word.lower():urgência
    979: word.lower():urgência
    980: -1:word.lower():urgência
    981: +1:word.lower():dessa
    982: word.lower():dessa
    983: word[-3:]:ssa
    984: -1:word.lower():dessa
    985: +1:word.lower():espécie
    986: word.lower():espécie
    987: word[-3:]:cie
    988: word[-2:]:ie
    989: -1:word.lower():espécie
    990: +1:word.lower():ato
    991: word.lower():ato
    992: word[-3:]:ato
    993: -1:word.lower():ato
    994: +1:word.lower():normativo
    995: word.lower():normativo
    996: -1:word.lower():normativo
    997: +1:word.lower():7
    998: word.lower():7
    999: word[-3:]:7
   1000: word[-2:]:7
   1001: -1:word.lower():7
   1002: +1:word.lower():inconstitucionalidade
   1003: word.lower():inconstitucionalidade
   1004: -1:word.lower():inconstitucionalidade
   1005: +1:word.lower():2º
   1006: word.lower():2º
   1007: word[-3:]:2º
   1008: word[-2:]:2º
   1009: -1:word.lower():2º
   1010: +1:word.lower():453
   1011: word.lower():453
   1012: word[-3:]:453
   1013: word[-2:]:53
   1014: -1:word.lower():453
   1015: +1:word.lower():consolidação
   1016: word.lower():consolidação
   1017: -1:word.lower():consolidação
   1018: +1:word.lower():leis
   1019: word.lower():leis
   1020: -1:word.lower():leis
   1021: +1:word.lower():trabalho
   1022: word.lower():trabalho
   1023: word[-3:]:lho
   1024: word[-2:]:ho
   1025: -1:word.lower():trabalho
   1026: +1:word.lower():introduzido
   1027: word.lower():introduzido
   1028: -1:word.lower():introduzido
   1029: word[-3:]:Lei
   1030: +1:word.lower():nº
   1031: word.lower():nº
   1032: word[-3:]:nº
   1033: word[-2:]:nº
   1034: -1:word.lower():nº
   1035: +1:word.lower():9.528/97
   1036: word.lower():9.528/97
   1037: word[-3:]:/97
   1038: word[-2:]:97
   1039: -1:word.lower():9.528/97
   1040: word.lower():5
   1041: word[-3:]:5
   1042: word[-2:]:5
   1043: -1:word.lower():5
   1044: +1:word.lower():reclamação
   1045: word.lower():reclamação
   1046: -1:word.lower():reclamação
   1047: +1:word.lower():procedente
   1048: word.lower():procedente
   1049: -1:word.lower():procedente
   1050: +1:word.lower():senhora
   1051: word.lower():senhora
   1052: -1:word.lower():senhora
   1053: +1:word.lower():ministra
   1054: word.lower():ministra
   1055: word[-3:]:TRA
   1056: -1:word.lower():ministra
   1057: +1:word.lower():cármen
   1058: word.lower():cármen
   1059: word[-3:]:MEN
   1060: word[-2:]:EN
   1061: -1:word.lower():cármen
   1062: +1:word.lower():lúcia
   1063: word.lower():lúcia
   1064: word[-3:]:CIA
   1065: word[-2:]:IA
   1066: -1:word.lower():lúcia
   1067: +1:word.lower():relatora
   1068: word.lower():relatora
   1069: -1:word.lower():relatora
   1070: word.lower():assim
   1071: word[-3:]:sim
   1072: word[-2:]:im
   1073: -1:word.lower():assim
   1074: +1:word.lower():entendo
   1075: word.lower():entendo
   1076: +1:word.lower():todo
   1077: word.lower():todo
   1078: -1:word.lower():todo
   1079: +1:word.lower():contexto
   1080: word.lower():contexto
   1081: word[-3:]:xto
   1082: -1:word.lower():contexto
   1083: +1:word.lower():probatório
   1084: word.lower():probatório
   1085: -1:word.lower():probatório
   1086: +1:word.lower():apresenta
   1087: word[-3:]:sto
   1088: +1:word.lower():seguro
   1089: word.lower():seguro
   1090: word[-3:]:uro
   1091: -1:word.lower():seguro
   1092: +1:word.lower():sentido
   1093: word.lower():sentido
   1094: -1:word.lower():sentido
   1095: +1:word.lower():configuração
   1096: word.lower():configuração
   1097: -1:word.lower():configuração
   1098: word.lower():delito
   1099: -1:word.lower():delito
   1100: word[-3:]:ado
   1101: -1:word.lower():imputado
   1102: word.lower():acusados
   1103: -1:word.lower():acusados
   1104: +1:word.lower():flávio
   1105: word.lower():flávio
   1106: word[-3:]:vio
   1107: -1:word.lower():flávio
   1108: +1:word.lower():coelho
   1109: word.lower():coelho
   1110: -1:word.lower():coelho
   1111: +1:word.lower():walber
   1112: word.lower():walber
   1113: word[-3:]:ber
   1114: -1:word.lower():walber
   1115: word[-3:]:uís
   1116: word[-2:]:ís
   1117: +1:word.lower():nascimento
   1118: word.lower():nascimento
   1119: -1:word.lower():nascimento
   1120: +1:word.lower():final
   1121: word.lower():final
   1122: -1:word.lower():final
   1123: word[-3:]:tar
   1124: +1:word.lower():segundo
   1125: word.lower():segundo
   1126: -1:word.lower():segundo
   1127: +1:word.lower():fundamento
   1128: word.lower():fundamento
   1129: -1:word.lower():fundamento
   1130: word[-3:]:oto
   1131: +1:word.lower():circunstância
   1132: word.lower():circunstância
   1133: -1:word.lower():circunstância
   1134: +1:word.lower():parte
   1135: word.lower():parte
   1136: word[-3:]:rte
   1137: -1:word.lower():parte
   1138: +1:word.lower():recorrida
   1139: word.lower():recorrida
   1140: -1:word.lower():recorrida
   1141: +1:word.lower():ser
   1142: word.lower():ser
   1143: word[-3:]:ser
   1144: -1:word.lower():ser
   1145: +1:word.lower():juridicamente
   1146: word.lower():juridicamente
   1147: -1:word.lower():juridicamente
   1148: +1:word.lower():como
   1149: word.lower():como
   1150: word[-3:]:omo
   1151: word[-2:]:mo
   1152: -1:word.lower():como
   1153: +1:word.lower():contribuinte
   1154: +1:word.lower():impede
   1155: word.lower():impede
   1156: word[-3:]:ede
   1157: -1:word.lower():impede
   1158: +1:word.lower():ela
   1159: word.lower():ela
   1160: -1:word.lower():ela
   1161: +1:word.lower():ainda
   1162: word.lower():ainda
   1163: word[-3:]:nda
   1164: -1:word.lower():ainda
   1165: +1:word.lower():assim
   1166: +1:word.lower():relação
   1167: word.lower():relação
   1168: -1:word.lower():relação
   1169: +1:word.lower():tributária
   1170: word.lower():tributária
   1171: -1:word.lower():tributária
   1172: word[-3:]:Com
   1173: +1:word.lower():passiva
   1174: word.lower():passiva
   1175: -1:word.lower():passiva
   1176: +1:word.lower():compreende
   1177: word.lower():compreende
   1178: word[-3:]:nde
   1179: -1:word.lower():compreende
   1180: +1:word.lower():tanto
   1181: word.lower():tanto
   1182: -1:word.lower():tanto
   1183: word.lower():requer
   1184: -1:word.lower():requer
   1185: +1:word.lower():concessão
   1186: word.lower():concessão
   1187: -1:word.lower():concessão
   1188: +1:word.lower():liminar
   1189: word.lower():liminar
   1190: word[-3:]:nar
   1191: -1:word.lower():liminar
   1192: +1:word.lower():suspensão
   1193: word.lower():suspensão
   1194: -1:word.lower():suspensão
   1195: +1:word.lower():imediata
   1196: word[-3:]:ata
   1197: +1:word.lower():decisão
   1198: word.lower():decisão
   1199: -1:word.lower():decisão
   1200: +1:word.lower():proferida
   1201: word.lower():proferida
   1202: -1:word.lower():proferida
   1203: +1:word.lower():quinta
   1204: word.lower():quinta
   1205: -1:word.lower():quinta
   1206: +1:word.lower():turma
   1207: word.lower():turma
   1208: word[-3:]:rma
   1209: -1:word.lower():turma
   1210: +1:word.lower():tribunal
   1211: word.lower():tribunal
   1212: -1:word.lower():tribunal
   1213: +1:word.lower():regional
   1214: word.lower():regional
   1215: -1:word.lower():regional
   1216: +1:word.lower():terceira
   1217: word.lower():terceira
   1218: word[-3:]:ira
   1219: -1:word.lower():terceira
   1220: +1:word.lower():região
   1221: word.lower():região
   1222: word[-3:]:ião
   1223: -1:word.lower():região
   1224: +1:word.lower():autos
   1225: word.lower():autos
   1226: -1:word.lower():autos
   1227: +1:word.lower():trabalhista
   1228: word.lower():trabalhista
   1229: -1:word.lower():trabalhista
   1230: +1:word.lower():00573-2010-050-03-00-3”
   1231: word.lower():00573-2010-050-03-00-3”
   1232: word[-3:]:-3”
   1233: word[-2:]:3”
   1234: -1:word.lower():00573-2010-050-03-00-3”
   1235: word[-3:]:No
   1236: word[-2:]:No
   1237: +1:word.lower():mérito
   1238: word.lower():mérito
   1239: -1:word.lower():mérito
   1240: +1:word.lower():requer
   1241: +1:word.lower():presente
   1242: word.lower():presente
   1243: -1:word.lower():presente
   1244: +1:word.lower():nulidade
   1245: word.lower():nulidade
   1246: -1:word.lower():nulidade
   1247: +1:word.lower():acórdão
   1248: word.lower():acórdão
   1249: word[-3:]:dão
   1250: -1:word.lower():acórdão
   1251: +1:word.lower():reclamado
   1252: word.lower():reclamado
   1253: -1:word.lower():reclamado
   1254: word.lower():emb
   1255: word[-3:]:EMB
   1256: word[-2:]:MB
   1257: -1:word.lower():emb
   1258: +1:word.lower():div
   1259: word.lower():div
   1260: word[-3:]:DIV
   1261: word[-2:]:IV
   1262: -1:word.lower():div
   1263: +1:word.lower():recurso
   1264: word.lower():recurso
   1265: word[-3:]:RSO
   1266: -1:word.lower():recurso
   1267: +1:word.lower():extraordinário
   1268: word.lower():extraordinário
   1269: word[-3:]:RIO
   1270: word[-2:]:IO
   1271: -1:word.lower():extraordinário
   1272: +1:word.lower():208.277
   1273: word.lower():208.277
   1274: word[-3:]:277
   1275: word[-2:]:77
   1276: -1:word.lower():208.277
   1277: +1:word.lower():paulo
   1278: word.lower():paulo
   1279: word[-3:]:ULO
   1280: word[-2:]:LO
   1281: -1:word.lower():paulo
   1282: word.lower():indireta
   1283: word[-3:]:eta
   1284: -1:word.lower():indireta
   1285: +1:word.lower():autoriza
   1286: word.lower():autoriza
   1287: word[-3:]:iza
   1288: -1:word.lower():autoriza
   1289: +1:word.lower():constitucional
   1290: word.lower():constitucional
   1291: -1:word.lower():constitucional
   1292: +1:word.lower():precedentes
   1293: word.lower():precedentes
   1294: -1:word.lower():precedentes
   1295: +1:word.lower():ação
   1296: word.lower():ação
   1297: -1:word.lower():ação
   1298: +1:word.lower():direta
   1299: word.lower():direta
   1300: -1:word.lower():direta
   1301: +1:word.lower():conhecida
   1302: +1:word.lower():–
   1303: word.lower():–
   1304: word[-3:]:–
   1305: word[-2:]:–
   1306: -1:word.lower():–
   1307: +1:word.lower():adi
   1308: word.lower():adi
   1309: word[-3:]:ADI
   1310: word[-2:]:DI
   1311: -1:word.lower():adi
   1312: word[-3:]:714
   1313: word[-2:]:14
   1314: +1:word.lower():df
   1315: word.lower():df
   1316: word[-3:]:DF
   1317: word[-2:]:DF
   1318: -1:word.lower():df
   1319: +1:word.lower():pleno
   1320: word.lower():pleno
   1321: word[-3:]:eno
   1322: -1:word.lower():pleno
   1323: +1:word.lower():maioria
   1324: word.lower():maioria
   1325: -1:word.lower():maioria
   1326: +1:word.lower():rel
   1327: word.lower():rel
   1328: word[-3:]:Rel
   1329: -1:word.lower():rel
   1330: +1:word.lower():min
   1331: word.lower():min
   1332: word[-3:]:Min
   1333: -1:word.lower():min
   1334: +1:word.lower():maurício
   1335: word.lower():maurício
   1336: -1:word.lower():maurício
   1337: +1:word.lower():corrêa
   1338: word.lower():corrêa
   1339: word[-3:]:rêa
   1340: word[-2:]:êa
   1341: -1:word.lower():corrêa
   1342: +1:word.lower():j
   1343: word.lower():j
   1344: word[-3:]:j
   1345: word[-2:]:j
   1346: -1:word.lower():j
   1347: word[-3:]:003
   1348: word[-2:]:03
   1349: +1:word.lower():dj
   1350: word.lower():dj
   1351: word[-3:]:DJ
   1352: word[-2:]:DJ
   1353: -1:word.lower():dj
   1354: +1:word.lower():27.02.2004
   1355: word.lower():27.02.2004
   1356: word[-3:]:004
   1357: word[-2:]:04
   1358: -1:word.lower():27.02.2004
   1359: word[-3:]:210
   1360: word[-2:]:10
   1361: +1:word.lower():11-7-1984
   1362: word.lower():11-7-1984
   1363: word[-3:]:984
   1364: word[-2:]:84
   1365: -1:word.lower():11-7-1984
   1366: +1:word.lower():11
   1367: word.lower():11
   1368: word[-3:]:11
   1369: word[-2:]:11
   1370: -1:word.lower():11
   1371: +1:word.lower():rev
   1372: word.lower():rev
   1373: word[-3:]:rev
   1374: word[-2:]:ev
   1375: -1:word.lower():rev
   1376: +1:word.lower():atual
   1377: word.lower():atual
   1378: word[-3:]:ual
   1379: -1:word.lower():atual
   1380: +1:word.lower():8
   1381: word.lower():8
   1382: word[-3:]:8
   1383: word[-2:]:8
   1384: -1:word.lower():8
   1385: +1:word.lower():reimpr
   1386: word.lower():reimpr
   1387: word[-3:]:mpr
   1388: word[-2:]:pr
   1389: -1:word.lower():reimpr
   1390: word[-3:]:São
   1391: word[-3:]:ulo
   1392: +1:word.lower():atlas
   1393: word.lower():atlas
   1394: word[-3:]:las
   1395: -1:word.lower():atlas
   1396: +1:word.lower():2008
   1397: word.lower():2008
   1398: word[-3:]:008
   1399: word[-2:]:08
   1400: -1:word.lower():2008
   1401: +1:word.lower():517
   1402: word.lower():517
   1403: word[-3:]:517
   1404: word[-2:]:17
   1405: -1:word.lower():517
   1406: +1:word.lower():idem
   1407: word.lower():idem
   1408: word[-3:]:dem
   1409: -1:word.lower():idem
   1410: +1:word.lower():518
   1411: word.lower():518
   1412: word[-3:]:518
   1413: word[-2:]:18
   1414: -1:word.lower():518
   1415: +1:word.lower():opinou
   1416: word[-3:]:nou
   1417: +1:word.lower():desprovimento
   1418: word.lower():desprovimento
   1419: -1:word.lower():desprovimento
   1420: word[-3:]:rso
   1421: +1:word.lower():expressão
   1422: word.lower():expressão
   1423: -1:word.lower():expressão
   1424: +1:word.lower():brasil
   1425: word.lower():brasil
   1426: word[-3:]:sil
   1427: word[-2:]:il
   1428: -1:word.lower():brasil
   1429: +1:word.lower():história
   1430: word.lower():história
   1431: -1:word.lower():história
   1432: word.lower():apesar
   1433: -1:word.lower():apesar
   1434: +1:word.lower():prevista
   1435: word.lower():prevista
   1436: -1:word.lower():prevista
   1437: +1:word.lower():expressamente
   1438: +1:word.lower():todas
   1439: word.lower():todas
   1440: -1:word.lower():todas
   1441: +1:word.lower():as
   1442: word.lower():as
   1443: word[-3:]:as
   1444: -1:word.lower():as
   1445: +1:word.lower():constituições
   1446: word.lower():constituições
   1447: word[-3:]:ões
   1448: -1:word.lower():constituições
   1449: +1:word.lower():desde
   1450: word.lower():desde
   1451: word[-3:]:sde
   1452: -1:word.lower():desde
   1453: word[-2:]:24
   1454: +1:word.lower():entre
   1455: word.lower():entre
   1456: -1:word.lower():entre
   1457: +1:word.lower():discurso
   1458: word.lower():discurso
   1459: -1:word.lower():discurso
   1460: +1:word.lower():oficial
   1461: word.lower():oficial
   1462: word[-3:]:ial
   1463: -1:word.lower():oficial
   1464: word.lower():comportamento
   1465: -1:word.lower():comportamento
   1466: +1:word.lower():poder
   1467: word.lower():poder
   1468: word[-3:]:der
   1469: -1:word.lower():poder
   1470: +1:word.lower():público
   1471: word.lower():público
   1472: word[-3:]:ico
   1473: -1:word.lower():público
   1474: word[-3:]:Em
   1475: word[-2:]:Em
   1476: +1:word.lower():nome
   1477: word.lower():nome
   1478: word[-3:]:ome
   1479: word[-2:]:me
   1480: -1:word.lower():nome
   1481: +1:word.lower():segurança
   1482: word.lower():segurança
   1483: -1:word.lower():segurança
   1484: +1:word.lower():pública
   1485: word.lower():pública
   1486: -1:word.lower():pública
   1487: word[-3:]:smo
   1488: +1:word.lower():moral
   1489: word.lower():moral
   1490: -1:word.lower():moral
   1491: +1:word.lower():família
   1492: word.lower():família
   1493: -1:word.lower():família
   1494: word[-3:]:ons
   1495: word[-2:]:ns
   1496: word[-3:]:mes
   1497: +1:word.lower():outros
   1498: word.lower():outros
   1499: word[-3:]:ros
   1500: -1:word.lower():outros
   1501: +1:word.lower():brasileira
   1502: word.lower():brasileira
   1503: -1:word.lower():brasileira
   1504: +1:word.lower():matéria
   1505: word.lower():matéria
   1506: -1:word.lower():matéria
   1507: +1:word.lower():tem
   1508: word.lower():tem
   1509: word[-3:]:tem
   1510: -1:word.lower():tem
   1511: +1:word.lower():sido
   1512: word.lower():sido
   1513: -1:word.lower():sido
   1514: +1:word.lower():nós
   1515: word.lower():nós
   1516: word[-3:]:nós
   1517: word[-2:]:ós
   1518: -1:word.lower():nós
   1519: word[-3:]:ase
   1520: +1:word.lower():censura
   1521: word.lower():censura
   1522: word[-3:]:ura
   1523: -1:word.lower():censura
   1524: word[-3:]:ila
   1525: word[-3:]:cho
   1526: +1:word.lower():porque
   1527: word.lower():porque
   1528: -1:word.lower():porque
   1529: +1:word.lower():sempre
   1530: word.lower():sempre
   1531: word[-3:]:pre
   1532: -1:word.lower():sempre
   1533: +1:word.lower():foi
   1534: word.lower():foi
   1535: word[-3:]:foi
   1536: word[-2:]:oi
   1537: -1:word.lower():foi
   1538: word.lower():destarte
   1539: -1:word.lower():destarte
   1540: +1:word.lower():tratar
   1541: word.lower():tratar
   1542: -1:word.lower():tratar
   1543: word.lower():institutos
   1544: -1:word.lower():institutos
   1545: +1:word.lower():penais
   1546: word.lower():penais
   1547: -1:word.lower():penais
   1548: +1:word.lower():diversos
   1549: word.lower():diversos
   1550: -1:word.lower():diversos
   1551: +1:word.lower():ter
   1552: word.lower():ter
   1553: word[-3:]:ter
   1554: -1:word.lower():ter
   1555: +1:word.lower():condicional
   1556: word.lower():condicional
   1557: -1:word.lower():condicional
   1558: word.lower():“art
   1559: word[-3:]:Art
   1560: -1:word.lower():“art
   1561: +1:word.lower():1.042
   1562: word.lower():1.042
   1563: word[-3:]:042
   1564: word[-2:]:42
   1565: -1:word.lower():1.042
   1566: +1:word.lower():agravo
   1567: word.lower():agravo
   1568: word[-3:]:avo
   1569: -1:word.lower():agravo
   1570: +1:word.lower():contra
   1571: word.lower():contra
   1572: word[-3:]:tra
   1573: -1:word.lower():contra
   1574: word.lower():vice
   1575: word[-3:]:ice
   1576: word[-2:]:ce
   1577: -1:word.lower():vice
   1578: +1:word.lower():recorrido
   1579: word.lower():recorrido
   1580: -1:word.lower():recorrido
   1581: word[-3:]:tir
   1582: +1:word.lower():especial
   1583: word.lower():especial
   1584: -1:word.lower():especial
   1585: +1:word.lower():salvo
   1586: word.lower():salvo
   1587: word[-3:]:lvo
   1588: -1:word.lower():salvo
   1589: +1:word.lower():fundada
   1590: -1:word.lower():fundada
   1591: +1:word.lower():entendimento
   1592: word.lower():entendimento
   1593: -1:word.lower():entendimento
   1594: word[-3:]:ime
   1595: +1:word.lower():recursos
   1596: word.lower():recursos
   1597: -1:word.lower():recursos
   1598: word[-3:]:vos
   1599: +1:word.lower():grifei
   1600: word.lower():grifei
   1601: word[-3:]:fei
   1602: -1:word.lower():grifei
   1603: word[-3:]:RDO
   1604: +1:word.lower():lewandowski
   1605: word.lower():lewandowski
   1606: word[-3:]:SKI
   1607: word[-2:]:KI
   1608: -1:word.lower():lewandowski
   1609: word[-3:]:Eu
   1610: word[-2:]:Eu
   1611: word[-3:]:vou
   1612: +1:word.lower():pedir
   1613: word.lower():pedir
   1614: -1:word.lower():pedir
   1615: word[-3:]:nia
   1616: +1:word.lower():divergência
   1617: word.lower():divergência
   1618: -1:word.lower():divergência
   1619: word[-3:]:cos
   1620: +1:word.lower():votos
   1621: word.lower():votos
   1622: -1:word.lower():votos
   1623: -1:word.lower():eminentes
   1624: +1:word.lower():ministros
   1625: word.lower():ministros
   1626: -1:word.lower():ministros
   1627: word[-3:]:uiz
   1628: word[-3:]:Fux
   1629: word[-2:]:ux
   1630: +1:word.lower():gilmar
   1631: word.lower():gilmar
   1632: word[-3:]:mar
   1633: -1:word.lower():gilmar
   1634: +1:word.lower():mendes
   1635: word.lower():mendes
   1636: word[-3:]:des
   1637: -1:word.lower():mendes
   1638: word.lower():manutenção
   1639: -1:word.lower():manutenção
   1640: +1:word.lower():pleito
   1641: +1:word.lower():ausência
   1642: -1:word.lower():ausência
   1643: +1:word.lower():requisitos
   1644: word.lower():requisitos
   1645: -1:word.lower():requisitos
   1646: word[-3:]:res
   1647: +1:word.lower():tutela
   1648: word.lower():tutela
   1649: -1:word.lower():tutela
   1650: +1:word.lower():cautelar
   1651: word.lower():cautelar
   1652: word[-3:]:lar
   1653: -1:word.lower():cautelar
   1654: word[-3:]:mus
   1655: word[-2:]:us
   1656: word[-3:]:oni
   1657: word[-2:]:ni
   1658: word[-3:]:ris
   1659: +1:word.lower():relatório
   1660: word.lower():relatório
   1661: -1:word.lower():relatório
   1662: word.lower():dicção
   1663: -1:word.lower():dicção
   1664: +1:word.lower():5º
   1665: word.lower():5º
   1666: word[-3:]:5º
   1667: word[-2:]:5º
   1668: -1:word.lower():5º
   1669: +1:word.lower():lxxi
   1670: word.lower():lxxi
   1671: word[-3:]:XXI
   1672: word[-2:]:XI
   1673: -1:word.lower():lxxi
   1674: +1:word.lower():magna
   1675: word.lower():magna
   1676: word[-3:]:gna
   1677: -1:word.lower():magna
   1678: +1:word.lower():carta
   1679: word.lower():carta
   1680: word[-3:]:rta
   1681: -1:word.lower():carta
   1682: +1:word.lower():"conceder
   1683: +1:word.lower():mandado
   1684: word.lower():mandado
   1685: -1:word.lower():mandado
   1686: +1:word.lower():injunção
   1687: word.lower():injunção
   1688: -1:word.lower():injunção
   1689: +1:word.lower():falta
   1690: word.lower():falta
   1691: word[-3:]:lta
   1692: -1:word.lower():falta
   1693: +1:word.lower():norma
   1694: word.lower():norma
   1695: -1:word.lower():norma
   1696: word[-2:]:ne
   1697: +1:word.lower():inviável
   1698: word.lower():inviável
   1699: -1:word.lower():inviável
   1700: +1:word.lower():exercício
   1701: word.lower():exercício
   1702: -1:word.lower():exercício
   1703: +1:word.lower():constitucionais
   1704: word.lower():constitucionais
   1705: -1:word.lower():constitucionais
   1706: word[-3:]:vas
   1707: word[-2:]:a"
   1708: +1:word.lower():destaquei
   1709: word.lower():destaquei
   1710: -1:word.lower():destaquei
   1711: word[-3:]:ADA
   1712: word[-3:]:QUE
   1713: word[-2:]:UE
   1714: +1:word.lower():determinou
   1715: word[-3:]:NOU
   1716: word[-2:]:OU
   1717: word[-3:]:RIA
   1718: +1:word.lower():publicada
   1719: word.lower():publicada
   1720: -1:word.lower():publicada
   1721: word[-3:]:EM
   1722: word[-2:]:EM
   1723: +1:word.lower():eletrônico
   1724: word.lower():eletrônico
   1725: word[-3:]:ICO
   1726: word[-2:]:CO
   1727: -1:word.lower():eletrônico
   1728: word.lower():internet
   1729: word[-3:]:NET
   1730: word[-2:]:ET
   1731: word[-3:]:ADE
   1732: +1:word.lower():imprensa
   1733: word.lower():imprensa
   1734: word[-3:]:NSA
   1735: word[-2:]:SA
   1736: -1:word.lower():imprensa
   1737: word[-3:]:E
   1738: word[-2:]:E
   1739: +1:word.lower():informação
   1740: word.lower():informação
   1741: -1:word.lower():informação
   1742: +1:word.lower():impossibilidade
   1743: word.lower():impossibilidade
   1744: -1:word.lower():impossibilidade
   1745: word[-3:]:ELO
   1746: +1:word.lower():quais
   1747: word.lower():quais
   1748: word[-3:]:AIS
   1749: word[-2:]:IS
   1750: -1:word.lower():quais
   1751: word[-3:]:ÕES
   1752: word[-2:]:ES
   1753: +1:word.lower():podem
   1754: word.lower():podem
   1755: word[-3:]:DEM
   1756: -1:word.lower():podem
   1757: word[-3:]:NÃO
   1758: word[-3:]:SER
   1759: word[-3:]:DAS
   1760: -1:word.lower():contrariedade
   1761: word[-3:]:AO
   1762: word[-2:]:AO
   1763: word.lower():assentado
   1764: -1:word.lower():assentado
   1765: word[-3:]:POR
   1766: +1:word.lower():este
   1767: word.lower():este
   1768: -1:word.lower():este
   1769: word[-3:]:NTO
   1770: +1:word.lower():adpf
   1771: word.lower():adpf
   1772: word[-3:]:DPF
   1773: word[-2:]:PF
   1774: -1:word.lower():adpf
   1775: +1:word.lower():130
   1776: word.lower():130
   1777: word[-3:]:130
   1778: word[-2:]:30
   1779: -1:word.lower():130
   1780: +1:word.lower():aderência
   1781: word.lower():aderência
   1782: word[-3:]:ITA
   1783: +1:word.lower():objeto
   1784: word.lower():objeto
   1785: word[-3:]:ETO
   1786: -1:word.lower():objeto
   1787: +1:word.lower():conteúdo
   1788: word.lower():conteúdo
   1789: -1:word.lower():conteúdo
   1790: word[-3:]:DÃO
   1791: word.lower():paradigma
   1792: word[-2:]:MA
   1793: -1:word.lower():paradigma
   1794: +1:word.lower():cujo
   1795: word.lower():cujo
   1796: word[-3:]:UJO
   1797: word[-2:]:JO
   1798: -1:word.lower():cujo
   1799: +1:word.lower():pedido
   1800: word.lower():pedido
   1801: word[-3:]:IDO
   1802: -1:word.lower():pedido
   1803: word[-3:]:SE
   1804: word[-2:]:SE
   1805: word[-2:]:GA
   1806: word.lower():4
   1807: word[-3:]:4
   1808: word[-2:]:4
   1809: -1:word.lower():4
   1810: +1:word.lower():tratando
   1811: word.lower():tratando
   1812: +1:word.lower():colaboração
   1813: word.lower():colaboração
   1814: -1:word.lower():colaboração
   1815: +1:word.lower():pessoas
   1816: word.lower():pessoas
   1817: word[-3:]:oas
   1818: -1:word.lower():pessoas
   1819: word[-3:]:sas
   1820: +1:word.lower():tendo
   1821: word.lower():tendo
   1822: -1:word.lower():tendo
   1823: +1:word.lower():termos
   1824: word.lower():termos
   1825: word[-3:]:mos
   1826: -1:word.lower():termos
   1827: +1:word.lower():declaração
   1828: word.lower():declaração
   1829: -1:word.lower():declaração
   1830: +1:word.lower():dando
   1831: +1:word.lower():origem
   1832: word.lower():origem
   1833: -1:word.lower():origem
   1834: +1:word.lower():diligências
   1835: word.lower():diligências
   1836: word[-3:]:ias
   1837: -1:word.lower():diligências
   1838: +1:word.lower():assiste
   1839: word.lower():assiste
   1840: word[-3:]:ste
   1841: -1:word.lower():assiste
   1842: +1:word.lower():determinado
   1843: word.lower():determinado
   1844: -1:word.lower():determinado
   1845: +1:word.lower():denunciado
   1846: word.lower():denunciado
   1847: -1:word.lower():denunciado
   1848: +1:word.lower():acesso
   1849: word.lower():acesso
   1850: -1:word.lower():acesso
   1851: +1:word.lower():universal
   1852: word.lower():universal
   1853: word[-3:]:sal
   1854: -1:word.lower():universal
   1855: +1:word.lower():lhe
   1856: word.lower():lhe
   1857: word[-3:]:lhe
   1858: word[-2:]:he
   1859: -1:word.lower():lhe
   1860: +1:word.lower():assegura
   1861: word.lower():assegura
   1862: +1:word.lower():elementos
   1863: word.lower():elementos
   1864: -1:word.lower():elementos
   1865: word[-2:]:am
   1866: +1:word.lower():respeito
   1867: word.lower():respeito
   1868: -1:word.lower():respeito
   1869: +1:word.lower():agravada
   1870: word.lower():agravada
   1871: -1:word.lower():agravada
   1872: +1:word.lower():teve
   1873: word.lower():teve
   1874: word[-3:]:eve
   1875: word[-2:]:ve
   1876: -1:word.lower():teve
   1877: +1:word.lower():fundamentação
   1878: word.lower():fundamentação
   1879: -1:word.lower():fundamentação
   1880: +1:word.lower():negou
   1881: word.lower():negou
   1882: word[-3:]:gou
   1883: -1:word.lower():negou
   1884: +1:word.lower():provimento
   1885: word.lower():provimento
   1886: -1:word.lower():provimento
   1887: +1:word.lower():fixação
   1888: word.lower():fixação
   1889: -1:word.lower():fixação
   1890: +1:word.lower():honorários
   1891: word.lower():honorários
   1892: -1:word.lower():honorários
   1893: +1:word.lower():recursais
   1894: word.lower():recursais
   1895: -1:word.lower():recursais
   1896: +1:word.lower():voto
   1897: word.lower():voto
   1898: -1:word.lower():voto
   1899: +1:word.lower():unânime
   1900: word.lower():unânime
   1901: -1:word.lower():unânime
   1902: word[-3:]:Não
   1903: +1:word.lower():justificadamente
   1904: word.lower():justificadamente
   1905: -1:word.lower():justificadamente
   1906: +1:word.lower():deste
   1907: word.lower():deste
   1908: -1:word.lower():deste
   1909: word[-3:]:hor
   1910: +1:word.lower():ausente
   1911: word.lower():ausente
   1912: -1:word.lower():ausente
   1913: word[-3:]:rto
   1914: word[-3:]:oso
   1915: +1:word.lower():presidência
   1916: word.lower():presidência
   1917: -1:word.lower():presidência
   1918: +1:word.lower():1ª
   1919: word.lower():1ª
   1920: word[-3:]:1ª
   1921: word[-2:]:1ª
   1922: -1:word.lower():1ª
   1923: word[-3:]:016
   1924: word[-2:]:16
   1925: +1:word.lower():invalidez
   1926: word.lower():invalidez
   1927: word[-3:]:dez
   1928: word[-2:]:ez
   1929: -1:word.lower():invalidez
   1930: +1:word.lower():permanente
   1931: word.lower():permanente
   1932: -1:word.lower():permanente
   1933: +1:word.lower():parcial
   1934: word.lower():parcial
   1935: -1:word.lower():parcial
   1936: +1:word.lower():será
   1937: word.lower():será
   1938: word[-3:]:erá
   1939: word[-2:]:rá
   1940: -1:word.lower():será
   1941: +1:word.lower():perda
   1942: word.lower():perda
   1943: -1:word.lower():perda
   1944: +1:word.lower():funcional
   1945: word.lower():funcional
   1946: -1:word.lower():funcional
   1947: +1:word.lower():forma
   1948: word.lower():forma
   1949: -1:word.lower():forma
   1950: +1:word.lower():inciso
   1951: word.lower():inciso
   1952: word[-3:]:iso
   1953: -1:word.lower():inciso
   1954: +1:word.lower():parágrafo
   1955: word.lower():parágrafo
   1956: word[-3:]:afo
   1957: word[-2:]:fo
   1958: -1:word.lower():parágrafo
   1959: +1:word.lower():seguida
   1960: word.lower():seguida
   1961: -1:word.lower():seguida
   1962: +1:word.lower():redução
   1963: word.lower():redução
   1964: -1:word.lower():redução
   1965: +1:word.lower():indenização
   1966: word.lower():indenização
   1967: -1:word.lower():indenização
   1968: +1:word.lower():cinco
   1969: word.lower():cinco
   1970: word[-3:]:nco
   1971: -1:word.lower():cinco
   1972: word.lower():cento
   1973: -1:word.lower():cento
   1974: word[-3:]:nsa
   1975: word[-2:]:0%
   1976: word[-3:]:dia
   1977: +1:word.lower():percentual
   1978: -1:word.lower():percentual
   1979: +1:word.lower():dez
   1980: word.lower():dez
   1981: -1:word.lower():dez
   1982: +1:word.lower():vítima
   1983: word.lower():vítima
   1984: word[-3:]:ima
   1985: -1:word.lower():vítima
   1986: word[-3:]:lso
   1987: +1:word.lower():valor
   1988: word.lower():valor
   1989: word[-3:]:lor
   1990: -1:word.lower():valor
   1991: +1:word.lower():até
   1992: word.lower():até
   1993: word[-3:]:até
   1994: word[-2:]:té
   1995: -1:word.lower():até
   1996: +1:word.lower():r$
   1997: word.lower():r$
   1998: word[-3:]:R$
   1999: word[-2:]:R$
   2000: -1:word.lower():r$
   2001: word[-3:]:,00
   2002: word[-2:]:00
   2003: +1:word.lower():dois
   2004: word.lower():dois
   2005: word[-3:]:ois
   2006: -1:word.lower():dois
   2007: -1:word.lower():mil
   2008: +1:word.lower():reais
   2009: -1:word.lower():reais
   2010: word.lower():previsto
   2011: -1:word.lower():previsto
   2012: +1:word.lower():iii
   2013: word.lower():iii
   2014: word[-3:]:III
   2015: -1:word.lower():iii
   2016: +1:word.lower():caput
   2017: word.lower():caput
   2018: word[-3:]:put
   2019: word[-2:]:ut
   2020: -1:word.lower():caput
   2021: word.lower():despesas
   2022: -1:word.lower():despesas
   2023: +1:word.lower():médico
   2024: word.lower():médico
   2025: -1:word.lower():médico
   2026: +1:word.lower():rede
   2027: word.lower():rede
   2028: -1:word.lower():rede
   2029: +1:word.lower():dpvat
   2030: word.lower():dpvat
   2031: word[-3:]:VAT
   2032: word[-2:]:AT
   2033: -1:word.lower():dpvat
   2034: +1:word.lower():sustenta
   2035: word.lower():sustenta
   2036: -1:word.lower():sustenta
   2037: +1:word.lower():dispositivos
   2038: word.lower():dispositivos
   2039: -1:word.lower():dispositivos
   2040: +1:word.lower():impugnados
   2041: word.lower():impugnados
   2042: -1:word.lower():impugnados
   2043: +1:word.lower():nas
   2044: word.lower():nas
   2045: word[-3:]:nas
   2046: -1:word.lower():nas
   2047: +1:word.lower():seguintes
   2048: word.lower():seguintes
   2049: -1:word.lower():seguintes
   2050: +1:word.lower():razões
   2051: word.lower():razões
   2052: -1:word.lower():razões
   2053: word[-3:]:i
   2054: word[-2:]:i
   2055: +1:word.lower():alterações
   2056: word.lower():alterações
   2057: -1:word.lower():alterações
   2058: +1:word.lower():legais
   2059: word.lower():legais
   2060: -1:word.lower():legais
   2061: word[-3:]:ram
   2062: +1:word.lower():hospitais
   2063: word.lower():hospitais
   2064: -1:word.lower():hospitais
   2065: +1:word.lower():particulares
   2066: word.lower():particulares
   2067: -1:word.lower():particulares
   2068: +1:word.lower():seu
   2069: word.lower():seu
   2070: word[-3:]:seu
   2071: -1:word.lower():seu
   2072: +1:word.lower():atendimento
   2073: word.lower():atendimento
   2074: -1:word.lower():atendimento
   2075: +1:word.lower():teria
   2076: word.lower():teria
   2077: -1:word.lower():teria
   2078: +1:word.lower():feito
   2079: word.lower():feito
   2080: -1:word.lower():feito
   2081: word[-3:]:ii
   2082: word[-2:]:ii
   2083: +1:word.lower():objetivo
   2084: word.lower():objetivo
   2085: -1:word.lower():objetivo
   2086: word[-3:]:as”
   2087: word[-2:]:s”
   2088: +1:word.lower():razão
   2089: word.lower():razão
   2090: word[-3:]:zão
   2091: -1:word.lower():razão
   2092: +1:word.lower():40
   2093: word.lower():40
   2094: word[-3:]:40
   2095: word[-2:]:40
   2096: -1:word.lower():40
   2097: -1:word.lower():salários
   2098: +1:word.lower():mínimos
   2099: +1:word.lower():qualquer
   2100: word.lower():qualquer
   2101: -1:word.lower():qualquer
   2102: +1:word.lower():índice
   2103: word.lower():índice
   2104: -1:word.lower():índice
   2105: +1:word.lower():correção
   2106: word.lower():correção
   2107: -1:word.lower():correção
   2108: +1:word.lower():monetária;
   2109: word.lower():monetária;
   2110: word[-3:]:ia;
   2111: -1:word.lower():monetária;
   2112: word[-3:]:iii
   2113: +1:word.lower():formal
   2114: word.lower():formal
   2115: word[-3:]:mal
   2116: -1:word.lower():formal
   2117: +1:word.lower():impugnadas
   2118: word.lower():impugnadas
   2119: -1:word.lower():impugnadas
   2120: +1:word.lower():descumprimento
   2121: word.lower():descumprimento
   2122: -1:word.lower():descumprimento
   2123: +1:word.lower():tratamento
   2124: word.lower():tratamento
   2125: -1:word.lower():tratamento
   2126: +1:word.lower():sede
   2127: +1:word.lower():provisória;
   2128: word.lower():provisória;
   2129: -1:word.lower():provisória;
   2130: +1:word.lower():iv
   2131: word.lower():iv
   2132: word[-3:]:iv
   2133: word[-2:]:iv
   2134: -1:word.lower():iv
   2135: +1:word.lower():tabela
   2136: word.lower():tabela
   2137: -1:word.lower():tabela
   2138: word.lower():cálculo
   2139: -1:word.lower():cálculo
   2140: +1:word.lower():obrigatório
   2141: word.lower():obrigatório
   2142: -1:word.lower():obrigatório
   2143: +1:word.lower():v
   2144: word.lower():v
   2145: word[-3:]:v
   2146: word[-2:]:v
   2147: -1:word.lower():v
   2148: +1:word.lower():inobservância
   2149: word.lower():inobservância
   2150: +1:word.lower():regra
   2151: word.lower():regra
   2152: word[-3:]:gra
   2153: -1:word.lower():regra
   2154: +1:word.lower():7º
   2155: word.lower():7º
   2156: word[-3:]:7º
   2157: word[-2:]:7º
   2158: -1:word.lower():7º
   2159: +1:word.lower():lc
   2160: word.lower():lc
   2161: word[-3:]:LC
   2162: word[-2:]:LC
   2163: -1:word.lower():lc
   2164: +1:word.lower():95/98
   2165: word.lower():95/98
   2166: word[-3:]:/98
   2167: word[-2:]:98
   2168: -1:word.lower():95/98
   2169: +1:word.lower():vista
   2170: word.lower():vista
   2171: -1:word.lower():vista
   2172: +1:word.lower():sistema
   2173: word.lower():sistema
   2174: -1:word.lower():sistema
   2175: +1:word.lower():único
   2176: word.lower():único
   2177: -1:word.lower():único
   2178: +1:word.lower():saúde
   2179: word.lower():saúde
   2180: word[-3:]:úde
   2181: -1:word.lower():saúde
   2182: +1:word.lower():caráter
   2183: word.lower():caráter
   2184: -1:word.lower():caráter
   2185: +1:word.lower():cessão
   2186: word.lower():cessão
   2187: -1:word.lower():cessão
   2188: word[-2:]:As
   2189: +1:word.lower():trata
   2190: word.lower():trata
   2191: -1:word.lower():trata
   2192: +1:word.lower():2
   2193: word.lower():2
   2194: word[-3:]:2
   2195: word[-2:]:2
   2196: -1:word.lower():2
   2197: +1:word.lower():nenhuma
   2198: word.lower():nenhuma
   2199: -1:word.lower():nenhuma
   2200: +1:word.lower():hipótese
   2201: word.lower():hipótese
   2202: -1:word.lower():hipótese
   2203: word[-3:]:rão
   2204: +1:word.lower():realizado
   2205: word.lower():realizado
   2206: -1:word.lower():realizado
   2207: +1:word.lower():sus
   2208: word.lower():sus
   2209: word[-3:]:SUS
   2210: -1:word.lower():sus
   2211: +1:word.lower():sob
   2212: word.lower():sob
   2213: word[-3:]:sob
   2214: word[-2:]:ob
   2215: -1:word.lower():sob
   2216: +1:word.lower():estabelecimento
   2217: word.lower():estabelecimento
   2218: -1:word.lower():estabelecimento
   2219: +1:word.lower():prejuízo
   2220: word.lower():prejuízo
   2221: word[-3:]:ízo
   2222: word[-2:]:zo
   2223: -1:word.lower():prejuízo
   2224: word[-3:]:tas
   2225: word.lower():nr
   2226: word[-3:]:NR
   2227: word[-2:]:NR
   2228: -1:word.lower():nr
   2229: +1:word.lower():o“art
   2230: word.lower():o“art
   2231: -1:word.lower():o“art
   2232: +1:word.lower():5
   2233: +1:word.lower():o§
   2234: word.lower():o§
   2235: word[-3:]:o§
   2236: word[-2:]:o§
   2237: -1:word.lower():o§
   2238: word[-3:]:deu
   2239: +1:word.lower():responsabilidade
   2240: word.lower():responsabilidade
   2241: -1:word.lower():responsabilidade
   2242: +1:word.lower():civil
   2243: word.lower():civil
   2244: word[-3:]:vil
   2245: -1:word.lower():civil
   2246: +1:word.lower():criado
   2247: -1:word.lower():criado
   2248: +1:word.lower():função
   2249: word.lower():função
   2250: -1:word.lower():função
   2251: +1:word.lower():dificuldades
   2252: word.lower():dificuldades
   2253: word[-3:]:dor
   2254: +1:word.lower():demonstrar
   2255: word[-3:]:rar
   2256: word.lower():culpa
   2257: word[-3:]:lpa
   2258: word[-2:]:pa
   2259: -1:word.lower():culpa
   2260: +1:word.lower():seus
   2261: word.lower():seus
   2262: word[-3:]:eus
   2263: -1:word.lower():seus
   2264: word[-3:]:ham
   2265: word.lower():emprego
   2266: word[-3:]:ego
   2267: -1:word.lower():emprego
   2268: +1:word.lower():vítimas
   2269: +1:word.lower():mais
   2270: word.lower():mais
   2271: -1:word.lower():mais
   2272: +1:word.lower():trânsito
   2273: word.lower():trânsito
   2274: -1:word.lower():trânsito
   2275: +1:word.lower():mercê
   2276: word.lower():mercê
   2277: word[-3:]:rcê
   2278: word[-2:]:cê
   2279: -1:word.lower():mercê
   2280: word[-2:]:a”
   2281: +1:word.lower():podendo
   2282: word.lower():podendo
   2283: -1:word.lower():podendo
   2284: +1:word.lower():mesmo
   2285: word.lower():mesmo
   2286: -1:word.lower():mesmo
   2287: word.lower():dano
   2288: word[-3:]:ano
   2289: -1:word.lower():dano
   2290: word[-3:]:vés
   2291: word[-2:]:és
   2292: word.lower():consórcio
   2293: -1:word.lower():consórcio
   2294: word[-3:]:ído
   2295: word[-3:]:nio
   2296: +1:word.lower():operacional
   2297: word.lower():operacional
   2298: -1:word.lower():operacional
   2299: word.lower():fenaseg
   2300: word[-3:]:SEG
   2301: -1:word.lower():fenaseg
   2302: +1:word.lower():hoje
   2303: word.lower():hoje
   2304: word[-3:]:oje
   2305: word[-2:]:je
   2306: -1:word.lower():hoje
   2307: word[-3:]:TOS
   2308: +1:word.lower():novo
   2309: word.lower():novo
   2310: word[-3:]:ovo
   2311: -1:word.lower():novo
   2312: +1:word.lower():2ª
   2313: word.lower():2ª
   2314: word[-3:]:2ª
   2315: word[-2:]:2ª
   2316: -1:word.lower():2ª
   2317: +1:word.lower():ver
   2318: word.lower():ver
   2319: word[-3:]:Ver
   2320: -1:word.lower():ver
   2321: +1:word.lower():atualizada
   2322: word.lower():atualizada
   2323: -1:word.lower():atualizada
   2324: +1:word.lower():rio
   2325: word.lower():rio
   2326: word[-3:]:Rio
   2327: -1:word.lower():rio
   2328: +1:word.lower():janeiro
   2329: word.lower():janeiro
   2330: word[-3:]:iro
   2331: -1:word.lower():janeiro
   2332: +1:word.lower():575
   2333: word.lower():575
   2334: word[-3:]:575
   2335: word[-2:]:75
   2336: -1:word.lower():575
   2337: word.lower():plenário
   2338: -1:word.lower():plenário
   2339: word.lower():neste
   2340: -1:word.lower():neste
   2341: +1:word.lower():“a
   2342: word.lower():“a
   2343: word[-3:]:“a
   2344: word[-2:]:“a
   2345: -1:word.lower():“a
   2346: +1:word.lower():maior
   2347: word.lower():maior
   2348: word[-3:]:ior
   2349: -1:word.lower():maior
   2350: +1:word.lower():porto
   2351: word.lower():porto
   2352: -1:word.lower():porto
   2353: +1:word.lower():sp
   2354: word.lower():sp
   2355: word[-3:]:SP
   2356: word[-2:]:SP
   2357: -1:word.lower():sp
   2358: +1:word.lower():vão
   2359: word.lower():vão
   2360: word[-3:]:vão
   2361: word[-3:]:os”
   2362: word[-2:]:OC
   2363: +1:word.lower():1
   2364: +1:word.lower():vez
   2365: word.lower():vez
   2366: word[-3:]:vez
   2367: -1:word.lower():vez
   2368: +1:word.lower():estes
   2369: word.lower():estes
   2370: -1:word.lower():estes
   2371: word[-3:]:tam
   2372: +1:word.lower():apenas
   2373: word.lower():apenas
   2374: -1:word.lower():apenas
   2375: +1:word.lower():virtude
   2376: word.lower():virtude
   2377: word[-3:]:ude
   2378: -1:word.lower():virtude
   2379: +1:word.lower():questão
   2380: word.lower():questão
   2381: -1:word.lower():questão
   2382: word.lower():“reclamação
   2383: -1:word.lower():“reclamação
   2384: +1:word.lower():subsidiária
   2385: word.lower():subsidiária
   2386: -1:word.lower():subsidiária
   2387: +1:word.lower():trabalhistas
   2388: word.lower():trabalhistas
   2389: -1:word.lower():trabalhistas
   2390: +1:word.lower():‘in
   2391: word[-3:]:‘in
   2392: word[-3:]:do’
   2393: word[-2:]:o’
   2394: +1:word.lower():estado
   2395: word.lower():estado
   2396: -1:word.lower():estado
   2397: +1:word.lower():configurada
   2398: word.lower():configurada
   2399: -1:word.lower():configurada
   2400: +1:word.lower():ofensa
   2401: word.lower():ofensa
   2402: -1:word.lower():ofensa
   2403: +1:word.lower():declaratória
   2404: word.lower():declaratória
   2405: -1:word.lower():declaratória
   2406: +1:word.lower():constitucionalidade
   2407: word.lower():constitucionalidade
   2408: -1:word.lower():constitucionalidade
   2409: +1:word.lower():16
   2410: word.lower():16
   2411: word[-3:]:16
   2412: -1:word.lower():16
   2413: +1:word.lower():enunciado
   2414: word.lower():enunciado
   2415: -1:word.lower():enunciado
   2416: +1:word.lower():súmula
   2417: word.lower():súmula
   2418: word[-3:]:ula
   2419: -1:word.lower():súmula
   2420: +1:word.lower():vinculante
   2421: word.lower():vinculante
   2422: -1:word.lower():vinculante
   2423: +1:word.lower():10
   2424: word.lower():10
   2425: word[-3:]:10
   2426: -1:word.lower():10
   2427: +1:word.lower():stf
   2428: word.lower():stf
   2429: word[-3:]:STF
   2430: word[-2:]:TF
   2431: -1:word.lower():stf
   2432: +1:word.lower():parecer
   2433: word.lower():parecer
   2434: -1:word.lower():parecer
   2435: +1:word.lower():improcedência
   2436: word.lower():improcedência
   2437: -1:word.lower():improcedência
   2438: +1:word.lower():edson
   2439: word.lower():edson
   2440: word[-3:]:SON
   2441: -1:word.lower():edson
   2442: +1:word.lower():fachin
   2443: word.lower():fachin
   2444: word[-3:]:HIN
   2445: word[-2:]:IN
   2446: -1:word.lower():fachin
   2447: word.lower():20
   2448: word[-3:]:20
   2449: -1:word.lower():20
   2450: +1:word.lower():aliás
   2451: word.lower():aliás
   2452: word[-3:]:iás
   2453: word[-2:]:ás
   2454: -1:word.lower():aliás
   2455: +1:word.lower():remuneração
   2456: word.lower():remuneração
   2457: -1:word.lower():remuneração
   2458: +1:word.lower():atividade
   2459: word.lower():atividade
   2460: -1:word.lower():atividade
   2461: +1:word.lower():plenário
   2462: +1:word.lower():desta
   2463: word.lower():desta
   2464: -1:word.lower():desta
   2465: +1:word.lower():corte
   2466: word.lower():corte
   2467: -1:word.lower():corte
   2468: +1:word.lower():manifestou
   2469: word.lower():manifestou
   2470: word[-3:]:tou
   2471: -1:word.lower():manifestou
   2472: +1:word.lower():deve
   2473: word.lower():deve
   2474: -1:word.lower():deve
   2475: +1:word.lower():parcialmente
   2476: word.lower():parcialmente
   2477: -1:word.lower():parcialmente
   2478: +1:word.lower():fim
   2479: word.lower():fim
   2480: word[-3:]:fim
   2481: -1:word.lower():fim
   2482: +1:word.lower():permitir
   2483: word.lower():permitir
   2484: -1:word.lower():permitir
   2485: +1:word.lower():divulgação
   2486: word.lower():divulgação
   2487: -1:word.lower():divulgação
   2488: +1:word.lower():valores
   2489: word.lower():valores
   2490: -1:word.lower():valores
   2491: +1:word.lower():cada
   2492: word.lower():cada
   2493: -1:word.lower():cada
   2494: +1:word.lower():agente
   2495: word.lower():agente
   2496: -1:word.lower():agente
   2497: word[-3:]:RCO
   2498: word[-3:]:LIO
   2499: +1:word.lower():anterior
   2500: word.lower():anterior
   2501: +1:word.lower():preliminar
   2502: word.lower():preliminar
   2503: -1:word.lower():preliminar
   2504: +1:word.lower():considerado
   2505: word.lower():considerado
   2506: +1:word.lower():carlos
   2507: word.lower():carlos
   2508: word[-3:]:los
   2509: -1:word.lower():carlos
   2510: +1:word.lower():ayres
   2511: word.lower():ayres
   2512: -1:word.lower():ayres
   2513: +1:word.lower():britto
   2514: word.lower():britto
   2515: word[-3:]:tto
   2516: -1:word.lower():britto
   2517: +1:word.lower():qual
   2518: word.lower():qual
   2519: -1:word.lower():qual
   2520: +1:word.lower():impõe
   2521: word.lower():impõe
   2522: word[-3:]:põe
   2523: word[-2:]:õe
   2524: -1:word.lower():impõe
   2525: +1:word.lower():[
   2526: word.lower():[
   2527: word[-3:]:[
   2528: word[-2:]:[
   2529: -1:word.lower():[
   2530: +1:word.lower():]
   2531: word.lower():]
   2532: word[-3:]:]
   2533: word[-2:]:]
   2534: -1:word.lower():]
   2535: word[-3:]:V
   2536: word[-2:]:V
   2537: +1:word.lower():t
   2538: word.lower():t
   2539: word[-3:]:T
   2540: word[-2:]:T
   2541: -1:word.lower():t
   2542: +1:word.lower():social
   2543: word.lower():social
   2544: -1:word.lower():social
   2545: word[-3:]:rre
   2546: +1:word.lower():requerente
   2547: word.lower():requerente
   2548: -1:word.lower():requerente
   2549: +1:word.lower():pois
   2550: word.lower():pois
   2551: -1:word.lower():pois
   2552: +1:word.lower():crédito
   2553: word.lower():crédito
   2554: -1:word.lower():crédito
   2555: +1:word.lower():impugnada
   2556: word.lower():impugnada
   2557: -1:word.lower():impugnada
   2558: word.lower():longo
   2559: word[-3:]:ngo
   2560: -1:word.lower():longo
   2561: +1:word.lower():está
   2562: word.lower():está
   2563: word[-3:]:stá
   2564: word[-2:]:tá
   2565: -1:word.lower():está
   2566: +1:word.lower():sendo
   2567: word.lower():sendo
   2568: -1:word.lower():sendo
   2569: +1:word.lower():interesse
   2570: word.lower():interesse
   2571: -1:word.lower():interesse
   2572: +1:word.lower():jurídico
   2573: word.lower():jurídico
   2574: -1:word.lower():jurídico
   2575: word.lower():cns
   2576: word[-3:]:CNS
   2577: word[-2:]:NS
   2578: -1:word.lower():cns
   2579: +1:word.lower():alegações
   2580: word.lower():alegações
   2581: -1:word.lower():alegações
   2582: word[-3:]:Seu
   2583: word[-3:]:cas
   2584: word[-3:]:ago
   2585: +1:word.lower():pelas
   2586: word.lower():pelas
   2587: -1:word.lower():pelas
   2588: word[-3:]:ras
   2589: +1:word.lower():certo
   2590: word.lower():certo
   2591: -1:word.lower():certo
   2592: +1:word.lower():vedação
   2593: word.lower():vedação
   2594: -1:word.lower():vedação
   2595: +1:word.lower():contrato
   2596: word.lower():contrato
   2597: -1:word.lower():contrato
   2598: +1:word.lower():consoante
   2599: word.lower():consoante
   2600: -1:word.lower():consoante
   2601: word.lower():adverte
   2602: -1:word.lower():adverte
   2603: word.lower():titular
   2604: +1:word.lower():uerj
   2605: word.lower():uerj
   2606: word[-3:]:ERJ
   2607: word[-2:]:RJ
   2608: -1:word.lower():uerj
   2609: +1:word.lower():prof
   2610: word.lower():prof
   2611: word[-3:]:rof
   2612: word[-2:]:of
   2613: -1:word.lower():prof
   2614: +1:word.lower():gustavo
   2615: word.lower():gustavo
   2616: -1:word.lower():gustavo
   2617: +1:word.lower():tepedino
   2618: word.lower():tepedino
   2619: -1:word.lower():tepedino
   2620: +1:word.lower():consagrada
   2621: word.lower():consagrada
   2622: -1:word.lower():consagrada
   2623: word.lower():“agravo
   2624: word[-3:]:AVO
   2625: word[-2:]:VO
   2626: -1:word.lower():“agravo
   2627: +1:word.lower():regimental
   2628: word.lower():regimental
   2629: word[-3:]:TAL
   2630: -1:word.lower():regimental
   2631: +1:word.lower():instrumento
   2632: word.lower():instrumento
   2633: -1:word.lower():instrumento
   2634: +1:word.lower():controvérsia
   2635: word[-3:]:ARA
   2636: +1:word.lower():alegação
   2637: word.lower():alegação
   2638: -1:word.lower():alegação
   2639: word[-3:]:ISO
   2640: +1:word.lower():lv
   2641: word.lower():lv
   2642: word[-3:]:LV
   2643: word[-2:]:LV
   2644: -1:word.lower():lv
   2645: word[-3:]:ART
   2646: word[-2:]:RT
   2647: word[-3:]:GNA
   2648: word[-3:]:RTA
   2649: +1:word.lower():inexistência
   2650: word.lower():inexistência
   2651: -1:word.lower():inexistência
   2652: +1:word.lower():infraconstitucional
   2653: word.lower():infraconstitucional
   2654: -1:word.lower():infraconstitucional
   2655: +1:word.lower():apreciação
   2656: word.lower():apreciação
   2657: -1:word.lower():apreciação
   2658: word[-3:]:do”
   2659: word[-2:]:o”
   2660: +1:word.lower():ai
   2661: word.lower():ai
   2662: word[-3:]:AI
   2663: word[-2:]:AI
   2664: -1:word.lower():ai
   2665: word[-3:]:713
   2666: word[-2:]:13
   2667: +1:word.lower():agr
   2668: word.lower():agr
   2669: word[-3:]:AgR
   2670: word[-2:]:gR
   2671: -1:word.lower():agr
   2672: +1:word.lower():primeira
   2673: word.lower():primeira
   2674: -1:word.lower():primeira
   2675: +1:word.lower():dje
   2676: word.lower():dje
   2677: word[-3:]:DJe
   2678: word[-2:]:Je
   2679: -1:word.lower():dje
   2680: word[-3:]:009
   2681: word[-2:]:09
   2682: -1:word.lower():24.4.2009
   2683: word[-3:]:eto
   2684: +1:word.lower():presentes
   2685: word.lower():presentes
   2686: -1:word.lower():presentes
   2687: +1:word.lower():embargos
   2688: word.lower():embargos
   2689: word[-3:]:gos
   2690: -1:word.lower():embargos
   2691: +1:word.lower():declaratórios
   2692: word.lower():declaratórios
   2693: -1:word.lower():declaratórios
   2694: word.lower():essa
   2695: -1:word.lower():essa
   2696: +1:word.lower():gravidade
   2697: word.lower():gravidade
   2698: -1:word.lower():concreta
   2699: +1:word.lower():subtraído
   2700: word.lower():subtraído
   2701: +1:word.lower():prestação
   2702: word.lower():prestação
   2703: -1:word.lower():prestação
   2704: +1:word.lower():serviços
   2705: word.lower():serviços
   2706: word[-3:]:ços
   2707: -1:word.lower():serviços
   2708: +1:word.lower():diante
   2709: word.lower():diante
   2710: -1:word.lower():diante
   2711: +1:word.lower():número
   2712: word.lower():número
   2713: word[-3:]:ero
   2714: -1:word.lower():número
   2715: +1:word.lower():operações
   2716: word.lower():operações
   2717: -1:word.lower():operações
   2718: +1:word.lower():jurídicas
   2719: word.lower():jurídicas
   2720: -1:word.lower():jurídicas
   2721: word.lower():associação
   2722: -1:word.lower():associação
   2723: +1:word.lower():organização
   2724: word.lower():organização
   2725: -1:word.lower():organização
   2726: +1:word.lower():criminosa
   2727: word.lower():criminosa
   2728: -1:word.lower():criminosa
   2729: +1:word.lower():sim
   2730: word.lower():sim
   2731: word[-3:]:Sim
   2732: -1:word.lower():sim
   2733: +1:word.lower():dúvida
   2734: word.lower():dúvida
   2735: -1:word.lower():dúvida
   2736: word[-3:]:De
   2737: word[-2:]:De
   2738: +1:word.lower():fato
   2739: word.lower():fato
   2740: -1:word.lower():fato
   2741: +1:word.lower():xxxiv
   2742: word.lower():xxxiv
   2743: word[-3:]:XIV
   2744: -1:word.lower():xxxiv
   2745: +1:word.lower():“b”
   2746: word.lower():“b”
   2747: word[-3:]:“b”
   2748: word[-2:]:b”
   2749: -1:word.lower():“b”
   2750: +1:word.lower():constituição
   2751: word.lower():constituição
   2752: -1:word.lower():constituição
   2753: +1:word.lower():estabelece
   2754: word.lower():estabelece
   2755: word[-3:]:ece
   2756: -1:word.lower():estabelece
   2757: +1:word.lower():posse
   2758: word.lower():posse
   2759: -1:word.lower():posse
   2760: word[-2:]:ua
   2761: +1:word.lower():imposto
   2762: -1:word.lower():imposto
   2763: +1:word.lower():título
   2764: word.lower():título
   2765: -1:word.lower():título
   2766: +1:word.lower():22.328
   2767: word.lower():22.328
   2768: word[-3:]:328
   2769: word[-2:]:28
   2770: -1:word.lower():22.328
   2771: word[-3:]:IRO
   2772: +1:word.lower():teori
   2773: word.lower():teori
   2774: word[-3:]:ORI
   2775: word[-2:]:RI
   2776: -1:word.lower():teori
   2777: +1:word.lower():zavascki
   2778: word.lower():zavascki
   2779: word[-3:]:CKI
   2780: -1:word.lower():zavascki
   2781: word[-3:]:gia
   2782: word[-3:]:eia
   2783: word.lower():finalidade
   2784: -1:word.lower():finalidade
   2785: +1:word.lower():força
   2786: word.lower():força
   2787: word[-3:]:rça
   2788: -1:word.lower():força
   2789: +1:word.lower():interpretação
   2790: word.lower():interpretação
   2791: -1:word.lower():interpretação
   2792: +1:word.lower():sistemática
   2793: word.lower():sistemática
   2794: -1:word.lower():sistemática
   2795: word.lower():prisional
   2796: -1:word.lower():prisional
   2797: +1:word.lower():pagamento
   2798: word.lower():pagamento
   2799: -1:word.lower():pagamento
   2800: +1:word.lower():multa
   2801: -1:word.lower():multa
   2802: +1:word.lower():princípio
   2803: word.lower():princípio
   2804: word[-3:]:pio
   2805: -1:word.lower():princípio
   2806: +1:word.lower():legalidade
   2807: word.lower():legalidade
   2808: -1:word.lower():legalidade
   2809: +1:word.lower():cf
   2810: word.lower():cf
   2811: word[-3:]:CF
   2812: word[-2:]:CF
   2813: -1:word.lower():cf
   2814: +1:word.lower():argumento
   2815: word.lower():argumento
   2816: +1:word.lower():112
   2817: word.lower():112
   2818: word[-3:]:112
   2819: -1:word.lower():112
   2820: +1:word.lower():esse
   2821: word.lower():esse
   2822: -1:word.lower():esse
   2823: word.lower():requisito
   2824: -1:word.lower():requisito
   2825: +1:word.lower():sul
   2826: word.lower():sul
   2827: word[-3:]:Sul
   2828: word[-2:]:ul
   2829: -1:word.lower():sul
   2830: +1:word.lower():às
   2831: word.lower():às
   2832: word[-3:]:às
   2833: word[-2:]:às
   2834: -1:word.lower():às
   2835: +1:word.lower():norte
   2836: word.lower():norte
   2837: -1:word.lower():norte
   2838: +1:word.lower():centro
   2839: +1:word.lower():espírito
   2840: word.lower():espírito
   2841: -1:word.lower():espírito
   2842: +1:word.lower():santo
   2843: word.lower():santo
   2844: -1:word.lower():santo
   2845: +1:word.lower():ns
   2846: word.lower():ns
   2847: word[-3:]:ns
   2848: -1:word.lower():ns
   2849: +1:word.lower():serão
   2850: word.lower():serão
   2851: word[-3:]:UAL
   2852: word[-3:]:VIL
   2853: word[-2:]:IL
   2854: word[-3:]:GOS
   2855: word[-3:]:EIS
   2856: word[-3:]:ASO
   2857: +1:word.lower():prazo
   2858: word.lower():prazo
   2859: -1:word.lower():prazo
   2860: +1:word.lower():interposição
   2861: word.lower():interposição
   2862: -1:word.lower():interposição
   2863: +1:word.lower():intempestividade
   2864: word.lower():intempestividade
   2865: -1:word.lower():intempestividade
   2866: word[-3:]:TES
   2867: word[-3:]:015
   2868: word[-2:]:15
   2869: word[-3:]:IRA
   2870: word[-3:]:RMA
   2871: word.lower():cezar
   2872: word[-3:]:zar
   2873: -1:word.lower():cezar
   2874: +1:word.lower():peluso
   2875: word.lower():peluso
   2876: word[-3:]:uso
   2877: -1:word.lower():peluso
   2878: +1:word.lower():12.3
   2879: word.lower():12.3
   2880: word[-3:]:2.3
   2881: word[-2:]:.3
   2882: -1:word.lower():12.3
   2883: +1:word.lower():.2004;
   2884: word.lower():.2004;
   2885: word[-3:]:04;
   2886: word[-2:]:4;
   2887: -1:word.lower():.2004;
   2888: +1:word.lower():ms
   2889: word.lower():ms
   2890: word[-3:]:MS
   2891: word[-2:]:MS
   2892: -1:word.lower():ms
   2893: +1:word.lower():23
   2894: word.lower():23
   2895: word[-3:]:23
   2896: word[-2:]:23
   2897: -1:word.lower():23
   2898: word[-3:]:975
   2899: word.lower():“o
   2900: -1:word.lower():“o
   2901: +1:word.lower():desrespeito
   2902: word.lower():desrespeito
   2903: -1:word.lower():desrespeito
   2904: +1:word.lower():processual
   2905: word.lower():processual
   2906: -1:word.lower():processual
   2907: +1:word.lower():conclusão
   2908: word.lower():conclusão
   2909: -1:word.lower():conclusão
   2910: +1:word.lower():inovação
   2911: word.lower():inovação
   2912: -1:word.lower():inovação
   2913: +1:word.lower():acusação
   2914: word.lower():acusação
   2915: -1:word.lower():acusação
   2916: +1:word.lower():réu
   2917: word.lower():réu
   2918: word[-3:]:réu
   2919: word[-2:]:éu
   2920: -1:word.lower():réu
   2921: +1:word.lower():novas
   2922: word.lower():novas
   2923: -1:word.lower():novas
   2924: +1:word.lower():ministério
   2925: word.lower():ministério
   2926: -1:word.lower():ministério
   2927: word[-3:]:Por
   2928: +1:word.lower():bem
   2929: word.lower():bem
   2930: word[-3:]:bem
   2931: -1:word.lower():bem
   2932: +1:word.lower():condições
   2933: word.lower():condições
   2934: -1:word.lower():condições
   2935: +1:word.lower():acusado
   2936: word.lower():acusado
   2937: -1:word.lower():acusado
   2938: +1:word.lower():inicial
   2939: word.lower():inicial
   2940: -1:word.lower():inicial
   2941: +1:word.lower():semiaberto
   2942: word.lower():semiaberto
   2943: -1:word.lower():semiaberto
   2944: +1:word.lower():entretanto
   2945: word.lower():entretanto
   2946: -1:word.lower():entretanto
   2947: +1:word.lower():alterado
   2948: word.lower():alterado
   2949: -1:word.lower():alterado
   2950: +1:word.lower():rosa
   2951: word.lower():rosa
   2952: word[-3:]:OSA
   2953: -1:word.lower():rosa
   2954: +1:word.lower():weber
   2955: word.lower():weber
   2956: word[-3:]:BER
   2957: -1:word.lower():weber
   2958: +1:word.lower():me
   2959: word.lower():me
   2960: word[-3:]:me
   2961: -1:word.lower():me
   2962: word[-3:]:rou
   2963: +1:word.lower():agravante
   2964: word.lower():agravante
   2965: -1:word.lower():agravante
   2966: +1:word.lower():então
   2967: word.lower():então
   2968: -1:word.lower():então
   2969: +1:word.lower():par
   2970: word.lower():par
   2971: word[-3:]:par
   2972: -1:word.lower():par
   2973: +1:word.lower():meu
   2974: word[-3:]:meu
   2975: +1:word.lower():juízo
   2976: word.lower():juízo
   2977: -1:word.lower():juízo
   2978: +1:word.lower():quem
   2979: word.lower():quem
   2980: word[-3:]:uem
   2981: -1:word.lower():quem
   2982: +1:word.lower():acompanho
   2983: word.lower():acompanho
   2984: word[-3:]:nho
   2985: -1:word.lower():acompanho
   2986: +1:word.lower():destaco
   2987: word.lower():destaco
   2988: word[-3:]:aco
   2989: -1:word.lower():destaco
   2990: +1:word.lower():fez
   2991: word.lower():fez
   2992: word[-3:]:fez
   2993: +1:word.lower():sua
   2994: word.lower():sua
   2995: word[-3:]:Sua
   2996: -1:word.lower():sua
   2997: +1:word.lower():excelência
   2998: word.lower():excelência
   2999: -1:word.lower():excelência
   3000: +1:word.lower():teor
   3001: word.lower():teor
   3002: word[-3:]:eor
   3003: -1:word.lower():teor
   3004: +1:word.lower():118
   3005: word.lower():118
   3006: word[-3:]:118
   3007: -1:word.lower():118
   3008: word.lower():3
   3009: word[-3:]:3
   3010: word[-2:]:3
   3011: -1:word.lower():3
   3012: word[-2:]:eg
   3013: +1:word.lower():eficácia
   3014: word.lower():eficácia
   3015: -1:word.lower():eficácia
   3016: +1:word.lower():37
   3017: word.lower():37
   3018: word[-3:]:37
   3019: word[-2:]:37
   3020: -1:word.lower():37
   3021: +1:word.lower():inc
   3022: word.lower():inc
   3023: word[-3:]:inc
   3024: word[-2:]:nc
   3025: -1:word.lower():inc
   3026: +1:word.lower():l
   3027: word.lower():l
   3028: word[-3:]:L
   3029: word[-2:]:L
   3030: -1:word.lower():l
   3031: +1:word.lower():merc'ce
   3032: +1:word.lower():supremo
   3033: word.lower():supremo
   3034: word[-3:]:emo
   3035: -1:word.lower():supremo
   3036: word[-3:]:sua
   3037: +1:word.lower():integral
   3038: word.lower():integral
   3039: -1:word.lower():integral
   3040: +1:word.lower():menos
   3041: word.lower():menos
   3042: -1:word.lower():menos
   3043: word.lower():publicado
   3044: -1:word.lower():publicado
   3045: +1:word.lower():revisão
   3046: word.lower():revisão
   3047: -1:word.lower():revisão
   3048: word.lower():contudo
   3049: word[-3:]:udo
   3050: -1:word.lower():contudo
   3051: word.lower():atribuição
   3052: -1:word.lower():atribuição
   3053: +1:word.lower():exame
   3054: word.lower():exame
   3055: word[-3:]:ame
   3056: -1:word.lower():exame
   3057: +1:word.lower():gerais
   3058: word.lower():gerais
   3059: -1:word.lower():gerais
   3060: word[-3:]:cal
   3061: +1:word.lower():ademais
   3062: word.lower():ademais
   3063: -1:word.lower():ademais
   3064: +1:word.lower():registro
   3065: word.lower():registro
   3066: -1:word.lower():registro
   3067: +1:word.lower():recorrente
   3068: word.lower():recorrente
   3069: -1:word.lower():recorrente
   3070: word.lower():tenha
   3071: word[-3:]:nha
   3072: word[-2:]:ha
   3073: -1:word.lower():tenha
   3074: +1:word.lower():interposto
   3075: word.lower():interposto
   3076: -1:word.lower():interposto
   3077: word[-3:]:ver
   3078: +1:word.lower():iptu
   3079: word.lower():iptu
   3080: word[-3:]:PTU
   3081: word[-2:]:TU
   3082: -1:word.lower():iptu
   3083: +1:word.lower():tributário
   3084: word.lower():tributário
   3085: -1:word.lower():tributário
   3086: +1:word.lower():ordinário
   3087: word.lower():ordinário
   3088: -1:word.lower():ordinário
   3089: word[-3:]:eas
   3090: word[-3:]:pus
   3091: +1:word.lower():requerimento
   3092: word.lower():requerimento
   3093: -1:word.lower():requerimento
   3094: +1:word.lower():silva
   3095: word.lower():silva
   3096: word[-3:]:LVA
   3097: word[-2:]:VA
   3098: -1:word.lower():silva
   3099: word[-3:]:MIN
   3100: +1:word.lower():fachinreqte
   3101: word.lower():fachinreqte
   3102: word[-3:]:QTE
   3103: -1:word.lower():fachinreqte
   3104: +1:word.lower():reinaldo
   3105: word.lower():reinaldo
   3106: word[-3:]:LDO
   3107: -1:word.lower():reinaldo
   3108: +1:word.lower():azambuja
   3109: word.lower():azambuja
   3110: word[-2:]:JA
   3111: -1:word.lower():azambuja
   3112: +1:word.lower():passarelli
   3113: word.lower():passarelli
   3114: word[-3:]:LLI
   3115: word[-2:]:LI
   3116: -1:word.lower():passarelli
   3117: +1:word.lower():reqdo
   3118: word.lower():reqdo
   3119: word[-3:]:QDO
   3120: -1:word.lower():reqdo
   3121: +1:word.lower():proc
   3122: word.lower():proc
   3123: word[-3:]:ROC
   3124: -1:word.lower():proc
   3125: +1:word.lower():es
   3126: word.lower():es
   3127: word[-3:]:ES
   3128: -1:word.lower():es
   3129: +1:word.lower():procurador
   3130: word.lower():procurador
   3131: word[-3:]:DOR
   3132: -1:word.lower():procurador
   3133: +1:word.lower():6º
   3134: word.lower():6º
   3135: word[-3:]:6º
   3136: word[-2:]:6º
   3137: -1:word.lower():6º
   3138: +1:word.lower():9.469/97
   3139: word.lower():9.469/97
   3140: -1:word.lower():9.469/97
   3141: +1:word.lower():dispositivo
   3142: word.lower():dispositivo
   3143: -1:word.lower():dispositivo
   3144: +1:word.lower():acordo
   3145: word.lower():acordo
   3146: -1:word.lower():acordo
   3147: +1:word.lower():possibilidade
   3148: word.lower():possibilidade
   3149: -1:word.lower():possibilidade
   3150: +1:word.lower():fruto
   3151: word.lower():fruto
   3152: word[-3:]:uto
   3153: -1:word.lower():fruto
   3154: +1:word.lower():condenação
   3155: word.lower():condenação
   3156: -1:word.lower():condenação
   3157: +1:word.lower():julgado
   3158: word.lower():julgado
   3159: -1:word.lower():julgado
   3160: word[-3:]:oca
   3161: +1:word.lower():garantia
   3162: word.lower():garantia
   3163: word[-3:]:tia
   3164: -1:word.lower():garantia
   3165: +1:word.lower():xxxvi
   3166: word.lower():xxxvi
   3167: word[-3:]:XVI
   3168: word[-2:]:VI
   3169: -1:word.lower():xxxvi
   3170: +1:word.lower():além
   3171: word.lower():além
   3172: word[-3:]:lém
   3173: -1:word.lower():além
   3174: +1:word.lower():isonomia
   3175: word.lower():isonomia
   3176: word[-3:]:mia
   3177: -1:word.lower():isonomia
   3178: word[-3:]:iar
   3179: +1:word.lower():parcela
   3180: +1:word.lower():correspondente
   3181: word.lower():correspondente
   3182: -1:word.lower():correspondente
   3183: +1:word.lower():verba
   3184: word.lower():verba
   3185: word[-3:]:rba
   3186: word[-2:]:ba
   3187: word[-3:]:Da
   3188: word[-2:]:Da
   3189: +1:word.lower():minha
   3190: word.lower():minha
   3191: -1:word.lower():minha
   3192: +1:word.lower():lavra
   3193: word.lower():lavra
   3194: word[-3:]:vra
   3195: -1:word.lower():lavra
   3196: +1:word.lower():hc
   3197: word.lower():hc
   3198: word[-3:]:HC
   3199: word[-2:]:HC
   3200: -1:word.lower():hc
   3201: +1:word.lower():108.390
   3202: word.lower():108.390
   3203: word[-3:]:390
   3204: word[-2:]:90
   3205: -1:word.lower():108.390
   3206: +1:word.lower():competência
   3207: word.lower():competência
   3208: -1:word.lower():competência
   3209: +1:word.lower():julgar
   3210: word.lower():julgar
   3211: -1:word.lower():julgar
   3212: +1:word.lower():popular
   3213: word.lower():popular
   3214: -1:word.lower():popular
   3215: +1:word.lower():autoridade
   3216: word.lower():autoridade
   3217: -1:word.lower():autoridade
   3218: +1:word.lower():via
   3219: word.lower():via
   3220: -1:word.lower():via
   3221: +1:word.lower():primeiro
   3222: word.lower():primeiro
   3223: -1:word.lower():primeiro
   3224: +1:word.lower():grau
   3225: word.lower():grau
   3226: word[-3:]:rau
   3227: word[-2:]:au
   3228: -1:word.lower():grau
   3229: +1:word.lower():…
   3230: word.lower():…
   3231: word[-3:]:…
   3232: word[-2:]:…
   3233: -1:word.lower():…
   3234: +1:word.lower():859
   3235: word.lower():859
   3236: word[-3:]:859
   3237: word[-2:]:59
   3238: -1:word.lower():859
   3239: +1:word.lower():qo
   3240: word.lower():qo
   3241: word[-3:]:QO
   3242: word[-2:]:QO
   3243: -1:word.lower():qo
   3244: +1:word.lower():ap
   3245: word.lower():ap
   3246: word[-3:]:AP
   3247: word[-2:]:AP
   3248: -1:word.lower():ap
   3249: +1:word.lower():red
   3250: word.lower():red
   3251: word[-3:]:Red
   3252: -1:word.lower():red
   3253: word[-3:]:CIO
   3254: word.lower():vistos
   3255: -1:word.lower():vistos
   3256: word.lower():cuida
   3257: -1:word.lower():cuida
   3258: +1:word.lower():eletrônica
   3259: word.lower():eletrônica
   3260: -1:word.lower():eletrônica
   3261: word.lower():ajuizada
   3262: -1:word.lower():ajuizada
   3263: +1:word.lower():minas
   3264: word.lower():minas
   3265: word[-3:]:NAS
   3266: -1:word.lower():minas
   3267: +1:word.lower():face
   3268: word.lower():face
   3269: word[-3:]:ace
   3270: -1:word.lower():face
   3271: word[-3:]:LHO
   3272: word[-2:]:HO
   3273: +1:word.lower():00573-2010-050-03-00-3
   3274: word.lower():00573-2010-050-03-00-3
   3275: word[-3:]:0-3
   3276: word[-2:]:-3
   3277: -1:word.lower():00573-2010-050-03-00-3
   3278: +1:word.lower():cuja
   3279: word.lower():cuja
   3280: word[-3:]:uja
   3281: -1:word.lower():cuja
   3282: +1:word.lower():adc
   3283: word.lower():adc
   3284: word[-3:]:ADC
   3285: word[-2:]:DC
   3286: -1:word.lower():adc
   3287: +1:word.lower():ônus
   3288: word.lower():ônus
   3289: word[-3:]:nus
   3290: -1:word.lower():ônus
   3291: word[-3:]:cro
   3292: -1:word.lower():fulcro
   3293: +1:word.lower():102
   3294: word.lower():102
   3295: word[-3:]:102
   3296: word[-2:]:02
   3297: -1:word.lower():102
   3298: +1:word.lower():3º
   3299: word.lower():3º
   3300: word[-3:]:3º
   3301: word[-2:]:3º
   3302: -1:word.lower():3º
   3303: +1:word.lower():932
   3304: word.lower():932
   3305: word[-3:]:932
   3306: -1:word.lower():932
   3307: +1:word.lower():conheço
   3308: word.lower():conheço
   3309: word[-3:]:eço
   3310: word[-2:]:ço
   3311: -1:word.lower():conheço
   3312: word.lower():id
   3313: word[-3:]:id
   3314: word[-2:]:id
   3315: -1:word.lower():id
   3316: word[-2:]:26
   3317: +1:word.lower():ementa
   3318: word.lower():ementa
   3319: -1:word.lower():ementa
   3320: word[-3:]:NÇA
   3321: word[-2:]:ÇA
   3322: word[-3:]:ATO
   3323: word[-3:]:ERE
   3324: +1:word.lower():documentos
   3325: word.lower():documentos
   3326: -1:word.lower():documentos
   3327: +1:word.lower():verbas
   3328: word.lower():verbas
   3329: -1:word.lower():verbas
   3330: +1:word.lower():públicas
   3331: word.lower():públicas
   3332: word[-3:]:CAS
   3333: -1:word.lower():públicas
   3334: +1:word.lower():sigilo
   3335: word.lower():sigilo
   3336: -1:word.lower():sigilo
   3337: +1:word.lower():ordem
   3338: word.lower():ordem
   3339: -1:word.lower():ordem
   3340: word[-3:]:Nas
   3341: word.lower():demonstração
   3342: -1:word.lower():demonstração
   3343: +1:word.lower():existência
   3344: word.lower():existência
   3345: -1:word.lower():existência
   3346: +1:word.lower():síntese
   3347: -1:word.lower():síntese
   3348: +1:word.lower():esta
   3349: word.lower():esta
   3350: -1:word.lower():esta
   3351: +1:word.lower():idêntico
   3352: word.lower():idêntico
   3353: -1:word.lower():idêntico
   3354: word[-3:]:285
   3355: word[-2:]:85
   3356: word[-3:]:son
   3357: word[-3:]:hin
   3358: word.lower():7.10.2016
   3359: -1:word.lower():7.10.2016
   3360: +1:word.lower():aduz
   3361: word.lower():aduz
   3362: word[-3:]:duz
   3363: word[-2:]:uz
   3364: -1:word.lower():aduz
   3365: +1:word.lower():gratificação
   3366: word.lower():gratificação
   3367: -1:word.lower():gratificação
   3368: -1:word.lower():salarial
   3369: +1:word.lower():cargos
   3370: word.lower():cargos
   3371: -1:word.lower():cargos
   3372: +1:word.lower():maneira
   3373: +1:word.lower():possui
   3374: word.lower():possui
   3375: word[-3:]:sui
   3376: -1:word.lower():possui
   3377: word.lower():econômico
   3378: -1:word.lower():econômico
   3379: +1:word.lower():suficiente
   3380: word.lower():suficiente
   3381: -1:word.lower():suficiente
   3382: +1:word.lower():conhecimento
   3383: word.lower():conhecimento
   3384: -1:word.lower():conhecimento
   3385: +1:word.lower():22
   3386: word.lower():22
   3387: word[-3:]:22
   3388: word[-2:]:22
   3389: -1:word.lower():22
   3390: word[-3:]:4-5
   3391: word[-2:]:-5
   3392: +1:word.lower():supra
   3393: word.lower():supra
   3394: word[-3:]:pra
   3395: -1:word.lower():supra
   3396: +1:word.lower():transcritos
   3397: word.lower():transcritos
   3398: -1:word.lower():transcritos
   3399: +1:word.lower():vigor
   3400: word.lower():vigor
   3401: word[-3:]:gor
   3402: -1:word.lower():vigor
   3403: +1:word.lower():regras
   3404: word.lower():regras
   3405: -1:word.lower():regras
   3406: +1:word.lower():fechado
   3407: word.lower():fechado
   3408: -1:word.lower():fechado
   3409: +1:word.lower():laboral
   3410: word.lower():laboral
   3411: -1:word.lower():laboral
   3412: +1:word.lower():ocorre
   3413: word.lower():ocorre
   3414: -1:word.lower():ocorre
   3415: +1:word.lower():aberto
   3416: -1:word.lower():aberto
   3417: +1:word.lower():condição
   3418: word.lower():condição
   3419: -1:word.lower():condição
   3420: +1:word.lower():propósito
   3421: word.lower():propósito
   3422: -1:word.lower():propósito
   3423: word.lower():portanto
   3424: -1:word.lower():portanto
   3425: +1:word.lower():neste
   3426: +1:word.lower():patrimônio
   3427: word.lower():patrimônio
   3428: -1:word.lower():patrimônio
   3429: +1:word.lower():consta
   3430: word.lower():consta
   3431: +1:word.lower():fazenda
   3432: word.lower():fazenda
   3433: -1:word.lower():fazenda
