FILEHEADER = {
  magic: lCRF
  size: 1234816
  type: FOMC
  version: 100
  num_features: 0
  num_labels: 11
  num_attrs: 12642
  off_features: 0x30
  off_labels: 0x68574
  off_attrs: 0x68F3D
  off_labelrefs: 0xFFE20
  off_attrrefs: 0x100044
}

LABELS = {
      0: O
      1: B_Ref. Legislativa
      2: I_Ref. Legislativa
      3: B_Precedente
      4: I_Precedente
      5: B_Pessoa
      6: I_Pessoa
      7: B_Doutrina
      8: I_Doutrina
      9: FIM_ARQ
     10: INICIO_ARQ
}

ATTRIBUTES = {
      0: bias
      1: word.lower():cuida
      2: word[-3:]:ida
      3: word[-2:]:da
      4: word.isupper()
      5: word.istitle()
      6: word.isdigit()
      7: BOS
      8: +1:word.lower():-
      9: +1:word.istitle()
     10: +1:word.isupper()
     11: word.lower():-
     12: word[-3:]:-
     13: word[-2:]:-
     14: -1:word.istitle()
     15: -1:word.isupper()
     16: +1:word.lower():se
     17: word.lower():se
     18: word[-3:]:se
     19: word[-2:]:se
     20: -1:word.lower():-
     21: +1:word.lower(): 
     22: word.lower(): 
     23: word[-3:]: 
     24: word[-2:]: 
     25: -1:word.lower():se
     26: +1:word.lower():de
     27: word.lower():de
     28: word[-3:]:de
     29: word[-2:]:de
     30: -1:word.lower(): 
     31: -1:word.lower():de
     32: +1:word.lower():reclamação
     33: word.lower():reclamação
     34: word[-3:]:ção
     35: word[-2:]:ão
     36: -1:word.lower():reclamação
     37: +1:word.lower():constitucional
     38: word.lower():constitucional
     39: word[-3:]:nal
     40: word[-2:]:al
     41: +1:word.lower():,
     42: word.lower():,
     43: word[-3:]:,
     44: word[-2:]:,
     45: -1:word.lower():constitucional
     46: -1:word.lower():,
     47: +1:word.lower():com
     48: word.lower():com
     49: word[-3:]:com
     50: word[-2:]:om
     51: -1:word.lower():com
     52: +1:word.lower():pedido
     53: word.lower():pedido
     54: word[-3:]:ido
     55: word[-2:]:do
     56: -1:word.lower():pedido
     57: +1:word.lower():liminar
     58: word.lower():liminar
     59: word[-3:]:nar
     60: word[-2:]:ar
     61: -1:word.lower():liminar
     62: +1:word.lower():l
     63: word.lower():l
     64: word[-3:]:l
     65: word[-2:]:l
     66: -1:word.lower():l
     67: word[-3:]:ada
     68: +1:word.lower():pelo
     69: word.lower():pelo
     70: word[-3:]:elo
     71: word[-2:]:lo
     72: -1:word.lower():pelo
     73: +1:word.lower():ministério
     74: word.lower():ministério
     75: word[-3:]:rio
     76: word[-2:]:io
     77: -1:word.lower():ministério
     78: +1:word.lower():público
     79: word.lower():público
     80: word[-3:]:ico
     81: word[-2:]:co
     82: -1:word.lower():público
     83: +1:word.lower():do
     84: word.lower():do
     85: word[-3:]:do
     86: -1:word.lower():do
     87: +1:word.lower():distrito
     88: word.lower():distrito
     89: word[-3:]:ito
     90: word[-2:]:to
     91: -1:word.lower():distrito
     92: +1:word.lower():federal
     93: word.lower():federal
     94: word[-3:]:ral
     95: -1:word.lower():federal
     96: +1:word.lower():e
     97: word.lower():e
     98: word[-3:]:e
     99: word[-2:]:e
    100: -1:word.lower():e
    101: word[-3:]:ios
    102: word[-2:]:os
    103: +1:word.lower():em
    104: word.lower():em
    105: word[-3:]:em
    106: word[-2:]:em
    107: -1:word.lower():em
    108: +1:word.lower():face
    109: word.lower():face
    110: word[-3:]:ace
    111: word[-2:]:ce
    112: -1:word.lower():face
    113: +1:word.lower():governador
    114: word.lower():governador
    115: word[-3:]:dor
    116: word[-2:]:or
    117: -1:word.lower():governador
    118: +1:word.lower():razão
    119: word.lower():razão
    120: word[-3:]:zão
    121: -1:word.lower():razão
    122: +1:word.lower():da
    123: word.lower():da
    124: word[-3:]:da
    125: -1:word.lower():da
    126: +1:word.lower():decreto
    127: word.lower():decreto
    128: word[-3:]:eto
    129: -1:word.lower():decreto
    130: +1:word.lower():nº
    131: word.lower():nº
    132: word[-3:]:nº
    133: word[-2:]:nº
    134: -1:word.lower():nº
    135: +1:word.lower():32.751/2011
    136: word.lower():32.751/2011
    137: word[-3:]:011
    138: word[-2:]:11
    139: -1:word.lower():32.751/2011
    140: word[-3:]:nta
    141: word[-2:]:ta
    142: +1:word.lower():à
    143: word.lower():à
    144: word[-3:]:à
    145: word[-2:]:à
    146: -1:word.lower():à
    147: word[-3:]:ade
    148: +1:word.lower():supremo
    149: word.lower():supremo
    150: word[-3:]:emo
    151: word[-2:]:mo
    152: -1:word.lower():supremo
    153: +1:word.lower():tribunal
    154: word.lower():tribunal
    155: -1:word.lower():tribunal
    156: +1:word.lower():eficácia
    157: word.lower():eficácia
    158: word[-3:]:cia
    159: word[-2:]:ia
    160: -1:word.lower():eficácia
    161: +1:word.lower():súmula
    162: word.lower():súmula
    163: word[-3:]:ula
    164: word[-2:]:la
    165: -1:word.lower():súmula
    166: +1:word.lower():vinculante
    167: word.lower():vinculante
    168: word[-3:]:nte
    169: word[-2:]:te
    170: -1:word.lower():vinculante
    171: +1:word.lower():13
    172: word.lower():13
    173: word[-3:]:13
    174: word[-2:]:13
    175: +1:word.lower():.
    176: word.lower():.
    177: word[-3:]:.
    178: word[-2:]:.
    179: -1:word.lower():13
    180: -1:word.lower():.
    181: EOS
    182: word.lower():11
    183: word[-3:]:11
    184: -1:word.lower():11
    185: +1:word.lower():ausência
    186: word.lower():ausência
    187: -1:word.lower():ausência
    188: word[-3:]:nto
    189: word[-3:]:ivo
    190: word[-2:]:vo
    191: +1:word.lower():ao
    192: word.lower():ao
    193: word[-3:]:ao
    194: word[-2:]:ao
    195: -1:word.lower():ao
    196: +1:word.lower():número
    197: word.lower():número
    198: word[-3:]:ero
    199: word[-2:]:ro
    200: -1:word.lower():número
    201: word[-3:]:imo
    202: word[-3:]:tro
    203: +1:word.lower():pessoas
    204: word.lower():pessoas
    205: word[-2:]:as
    206: -1:word.lower():pessoas
    207: +1:word.lower():para
    208: word.lower():para
    209: word[-3:]:ara
    210: word[-2:]:ra
    211: -1:word.lower():para
    212: +1:word.lower():crime
    213: word.lower():crime
    214: word[-3:]:ime
    215: word[-2:]:me
    216: -1:word.lower():crime
    217: +1:word.lower():art
    218: word.lower():art
    219: word[-3:]:art
    220: word[-2:]:rt
    221: -1:word.lower():art
    222: +1:word.lower():288
    223: word.lower():288
    224: word[-3:]:288
    225: word[-2:]:88
    226: -1:word.lower():288
    227: +1:word.lower():código
    228: word.lower():código
    229: word[-3:]:igo
    230: word[-2:]:go
    231: -1:word.lower():código
    232: +1:word.lower():penal
    233: word.lower():penal
    234: -1:word.lower():penal
    235: word.lower():as
    236: word[-3:]:As
    237: word[-2:]:As
    238: -1:word.lower():as
    239: word[-3:]:ões
    240: word[-2:]:es
    241: +1:word.lower():não
    242: word.lower():não
    243: word[-3:]:não
    244: -1:word.lower():não
    245: word[-2:]:am
    246: word[-2:]:ir
    247: +1:word.lower():normas
    248: word.lower():normas
    249: word[-3:]:mas
    250: -1:word.lower():normas
    251: +1:word.lower():constitucionais
    252: word.lower():constitucionais
    253: word[-3:]:ais
    254: word[-2:]:is
    255: -1:word.lower():constitucionais
    256: word[-3:]:das
    257: word[-3:]:sas
    258: +1:word.lower():hipóteses
    259: word.lower():hipóteses
    260: word[-3:]:ses
    261: -1:word.lower():hipóteses
    262: +1:word.lower():porém
    263: word[-2:]:ém
    264: +1:word.lower():inexiste
    265: word[-3:]:ste
    266: +1:word.lower():ordem
    267: word.lower():ordem
    268: word[-3:]:dem
    269: -1:word.lower():ordem
    270: +1:word.lower():formal
    271: word.lower():formal
    272: word[-3:]:mal
    273: -1:word.lower():formal
    274: +1:word.lower():que
    275: word.lower():que
    276: word[-3:]:que
    277: word[-2:]:ue
    278: -1:word.lower():que
    279: +1:word.lower():o
    280: word.lower():o
    281: word[-3:]:o
    282: word[-2:]:o
    283: -1:word.lower():o
    284: word[-3:]:ise
    285: +1:word.lower():uma
    286: word.lower():uma
    287: word[-3:]:uma
    288: word[-2:]:ma
    289: -1:word.lower():uma
    290: +1:word.lower():vez
    291: word.lower():vez
    292: word[-3:]:vez
    293: word[-2:]:ez
    294: -1:word.lower():vez
    295: +1:word.lower():mais
    296: word.lower():mais
    297: -1:word.lower():mais
    298: +1:word.lower():a
    299: word.lower():a
    300: word[-3:]:a
    301: word[-2:]:a
    302: -1:word.lower():a
    303: word[-3:]:pal
    304: word[-3:]:nda
    305: +1:word.lower():reconhecimento
    306: word.lower():reconhecimento
    307: -1:word.lower():reconhecimento
    308: +1:word.lower():princípio
    309: word.lower():princípio
    310: word[-3:]:pio
    311: -1:word.lower():princípio
    312: word.lower():subsidiariedade
    313: +1:word.lower():no
    314: word.lower():no
    315: word[-3:]:no
    316: word[-2:]:no
    317: -1:word.lower():no
    318: +1:word.lower():direito
    319: word.lower():direito
    320: -1:word.lower():direito
    321: +1:word.lower():brasileiro
    322: word.lower():brasileiro
    323: word[-3:]:iro
    324: +1:word.lower()::
    325: word.lower()::
    326: word[-3:]::
    327: word[-2:]::
    328: -1:word.lower():brasileiro
    329: -1:word.lower()::
    330: +1:word.lower():inconstitucionalidade
    331: word.lower():inconstitucionalidade
    332: -1:word.lower():inconstitucionalidade
    333: +1:word.lower():estaduais
    334: +1:word.lower():ou
    335: word.lower():ou
    336: word[-3:]:ou
    337: word[-2:]:ou
    338: -1:word.lower():ou
    339: +1:word.lower():por
    340: word.lower():por
    341: word[-3:]:por
    342: -1:word.lower():por
    343: +1:word.lower():competência
    344: word.lower():competência
    345: -1:word.lower():competência
    346: +1:word.lower():união
    347: word.lower():união
    348: word[-3:]:ião
    349: -1:word.lower():união
    350: +1:word.lower():só
    351: word.lower():só
    352: word[-3:]:só
    353: word[-2:]:só
    354: -1:word.lower():só
    355: +1:word.lower():ocorre
    356: word[-3:]:rre
    357: word[-2:]:re
    358: +1:word.lower():norma
    359: word.lower():norma
    360: word[-3:]:rma
    361: -1:word.lower():norma
    362: +1:word.lower():impugnada
    363: word.lower():impugnada
    364: word[-3:]:lar
    365: +1:word.lower():forma
    366: word.lower():forma
    367: -1:word.lower():forma
    368: word[-3:]:oma
    369: +1:word.lower():sobre
    370: word.lower():sobre
    371: word[-3:]:bre
    372: -1:word.lower():sobre
    373: +1:word.lower():matéria
    374: word.lower():matéria
    375: word[-3:]:ria
    376: word[-3:]:ica
    377: word[-2:]:ca
    378: word[-2:]:Se
    379: word.lower():exercício
    380: word[-3:]:cio
    381: -1:word.lower():exercício
    382: +1:word.lower():decorrer
    383: word[-3:]:rer
    384: word[-2:]:er
    385: +1:word.lower():(
    386: word.lower():(
    387: word[-3:]:(
    388: word[-2:]:(
    389: -1:word.lower():(
    390: +1:word.lower():24
    391: word.lower():24
    392: word[-3:]:24
    393: word[-2:]:24
    394: -1:word.lower():24
    395: +1:word.lower():constituição
    396: word.lower():constituição
    397: -1:word.lower():constituição
    398: +1:word.lower():)
    399: word.lower():)
    400: word[-3:]:)
    401: word[-2:]:)
    402: -1:word.lower():)
    403: +1:word.lower():23
    404: word.lower():23
    405: word[-3:]:23
    406: word[-2:]:23
    407: -1:word.lower():23
    408: word.lower():violação
    409: -1:word.lower():violação
    410: +1:word.lower():exige
    411: word[-3:]:ige
    412: word[-2:]:ge
    413: +1:word.lower():ofensa
    414: word.lower():ofensa
    415: word[-3:]:nsa
    416: word[-2:]:sa
    417: -1:word.lower():ofensa
    418: word[-3:]:Não
    419: +1:word.lower():é
    420: word.lower():é
    421: word[-3:]:é
    422: word[-2:]:é
    423: -1:word.lower():é
    424: word[-3:]:sso
    425: word[-2:]:so
    426: word[-3:]:via
    427: +1:word.lower():cuida
    428: +1:word.lower():dos
    429: word.lower():dos
    430: word[-3:]:dos
    431: -1:word.lower():dos
    432: +1:word.lower():autos
    433: word.lower():autos
    434: word[-3:]:tos
    435: -1:word.lower():autos
    436: +1:word.lower():essa
    437: word.lower():essa
    438: word[-3:]:ssa
    439: -1:word.lower():essa
    440: word[-3:]:sta
    441: +1:word.lower():há
    442: word.lower():há
    443: word[-3:]:há
    444: word[-2:]:há
    445: word[-3:]:De
    446: word[-2:]:De
    447: +1:word.lower():outro
    448: word.lower():outro
    449: -1:word.lower():outro
    450: word[-3:]:ado
    451: word[-2:]:ne
    452: +1:word.lower():desrespeito
    453: word.lower():desrespeito
    454: word[-3:]:riz
    455: word[-2:]:iz
    456: +1:word.lower():resultante
    457: +1:word.lower():10
    458: word.lower():10
    459: word[-3:]:10
    460: word[-2:]:10
    461: +1:word.lower():/
    462: word.lower():/
    463: word[-3:]:/
    464: word[-2:]:/
    465: -1:word.lower():10
    466: +1:word.lower():stf
    467: word.lower():stf
    468: word[-3:]:STF
    469: word[-2:]:TF
    470: -1:word.lower():/
    471: -1:word.lower():stf
    472: +1:word.lower():verifico
    473: word.lower():verifico
    474: +1:word.lower():na
    475: word.lower():na
    476: word[-3:]:na
    477: word[-2:]:na
    478: -1:word.lower():na
    479: +1:word.lower():decisão
    480: word.lower():decisão
    481: word[-3:]:são
    482: -1:word.lower():decisão
    483: +1:word.lower():ora
    484: word.lower():ora
    485: word[-3:]:ora
    486: -1:word.lower():ora
    487: word[-3:]:ama
    488: +1:word.lower():qualquer
    489: word.lower():qualquer
    490: word[-3:]:uer
    491: -1:word.lower():qualquer
    492: word.lower():juízo
    493: word[-3:]:ízo
    494: word[-2:]:zo
    495: -1:word.lower():juízo
    496: +1:word.lower():71
    497: word.lower():71
    498: word[-3:]:71
    499: word[-2:]:71
    500: -1:word.lower():71
    501: +1:word.lower():lei
    502: word.lower():lei
    503: word[-3:]:Lei
    504: word[-2:]:ei
    505: -1:word.lower():lei
    506: +1:word.lower():8.666/1993
    507: word.lower():8.666/1993
    508: word[-3:]:993
    509: word[-2:]:93
    510: -1:word.lower():8.666/1993
    511: word.lower():relatora
    512: -1:word.lower():relatora
    513: +1:word.lower():07/11/2013
    514: word.lower():07/11/2013
    515: word[-3:]:013
    516: -1:word.lower():07/11/2013
    517: +1:word.lower():plenário
    518: word.lower():plenário
    519: word[-3:]:RIO
    520: word[-2:]:IO
    521: -1:word.lower():plenário
    522: word[-3:]:O
    523: word[-2:]:O
    524: +1:word.lower():seguro
    525: word.lower():seguro
    526: word[-3:]:uro
    527: -1:word.lower():seguro
    528: word[-3:]:ndo
    529: +1:word.lower():dpvat
    530: word.lower():dpvat
    531: word[-3:]:VAT
    532: word[-2:]:AT
    533: -1:word.lower():dpvat
    534: +1:word.lower():um
    535: word.lower():um
    536: word[-3:]:um
    537: word[-2:]:um
    538: -1:word.lower():um
    539: word[-3:]:/67
    540: word[-2:]:67
    541: -1:word.lower():61.867/67
    542: +1:word.lower():pela
    543: word.lower():pela
    544: word[-3:]:ela
    545: -1:word.lower():pela
    546: +1:word.lower():6.194/74
    547: word.lower():6.194/74
    548: word[-3:]:/74
    549: word[-2:]:74
    550: -1:word.lower():6.194/74
    551: +1:word.lower():indeniza
    552: word[-3:]:iza
    553: word[-2:]:za
    554: +1:word.lower():as
    555: word[-3:]:as
    556: word[-3:]:tes
    557: word.lower():veículos
    558: word[-3:]:los
    559: word[-3:]:ias
    560: word[-3:]:res
    561: +1:word.lower():acordo
    562: word.lower():acordo
    563: word[-3:]:rdo
    564: -1:word.lower():acordo
    565: +1:word.lower():análise
    566: word.lower():análise
    567: -1:word.lower():análise
    568: +1:word.lower():arthur
    569: word.lower():arthur
    570: word[-3:]:hur
    571: word[-2:]:ur
    572: -1:word.lower():arthur
    573: +1:word.lower():barreto
    574: word.lower():barreto
    575: -1:word.lower():barreto
    576: word.lower():v
    577: word[-3:]:V
    578: word[-2:]:V
    579: -1:word.lower():v
    580: +1:word.lower():t
    581: word.lower():t
    582: word[-3:]:T
    583: word[-2:]:T
    584: -1:word.lower():t
    585: word[-2:]:Ao
    586: +1:word.lower():decidir
    587: word.lower():decidir
    588: word[-3:]:dir
    589: -1:word.lower():decidir
    590: +1:word.lower():os
    591: word.lower():os
    592: word[-3:]:os
    593: -1:word.lower():os
    594: +1:word.lower():embargos
    595: word.lower():embargos
    596: word[-3:]:gos
    597: -1:word.lower():embargos
    598: word[-3:]:vos
    599: +1:word.lower():"a
    600: word.lower():"a
    601: -1:word.lower():"a
    602: +1:word.lower():medida
    603: word.lower():medida
    604: -1:word.lower():medida
    605: +1:word.lower():provisória
    606: word.lower():provisória
    607: -1:word.lower():provisória
    608: +1:word.lower():30
    609: word.lower():30
    610: word[-3:]:30
    611: word[-2:]:30
    612: -1:word.lower():30
    613: +1:word.lower():dias
    614: word.lower():dias
    615: -1:word.lower():dias
    616: word[-2:]:o]
    617: +1:word.lower():convertida
    618: word.lower():convertida
    619: -1:word.lower():convertida
    620: +1:word.lower():fl
    621: word.lower():fl
    622: word[-3:]:fl
    623: word[-2:]:fl
    624: -1:word.lower():fl
    625: +1:word.lower():26
    626: word.lower():26
    627: word[-3:]:26
    628: word[-2:]:26
    629: -1:word.lower():26
    630: +1:word.lower():assim
    631: word.lower():assim
    632: word[-3:]:sim
    633: word[-2:]:im
    634: -1:word.lower():assim
    635: +1:word.lower():pelas
    636: word.lower():pelas
    637: word[-3:]:las
    638: -1:word.lower():pelas
    639: +1:word.lower():razões
    640: word.lower():razões
    641: word[-3:]:tas
    642: word[-3:]:eço
    643: word[-2:]:ço
    644: +1:word.lower():presente
    645: -1:word.lower():presente
    646: +1:word.lower():recurso
    647: word.lower():recurso
    648: word[-3:]:rso
    649: -1:word.lower():recurso
    650: +1:word.lower():extraordinário
    651: word.lower():extraordinário
    652: -1:word.lower():extraordinário
    653: +1:word.lower():lhe
    654: word.lower():lhe
    655: word[-3:]:lhe
    656: word[-2:]:he
    657: +1:word.lower():provimento
    658: word.lower():provimento
    659: -1:word.lower():provimento
    660: word[-3:]:Art
    661: +1:word.lower():1º
    662: word.lower():1º
    663: word[-3:]:1º
    664: word[-2:]:1º
    665: -1:word.lower():1º
    666: word[-3:]:É
    667: word[-2:]:É
    668: +1:word.lower():indulto
    669: word.lower():indulto
    670: word[-3:]:lto
    671: -1:word.lower():indulto
    672: +1:word.lower():coletivo
    673: word.lower():coletivo
    674: -1:word.lower():coletivo
    675: +1:word.lower():às
    676: word.lower():às
    677: word[-3:]:às
    678: word[-2:]:às
    679: -1:word.lower():às
    680: word[-3:]:ras
    681: word[-3:]:XII
    682: word[-2:]:II
    683: +1:word.lower():–
    684: word.lower():–
    685: word[-3:]:–
    686: word[-2:]:–
    687: -1:word.lower():–
    688: +1:word.lower():pena
    689: word.lower():pena
    690: word[-3:]:ena
    691: -1:word.lower():pena
    692: word[-3:]:iva
    693: word[-2:]:va
    694: +1:word.lower():desde
    695: word.lower():desde
    696: word[-3:]:sde
    697: -1:word.lower():desde
    698: word[-3:]:ída
    699: +1:word.lower():direitos
    700: word.lower():direitos
    701: -1:word.lower():direitos
    702: +1:word.lower():44
    703: word.lower():44
    704: word[-3:]:44
    705: word[-2:]:44
    706: -1:word.lower():44
    707: +1:word.lower():2.848
    708: word.lower():2.848
    709: word[-3:]:848
    710: word[-2:]:48
    711: -1:word.lower():2.848
    712: +1:word.lower():7
    713: word.lower():7
    714: word[-3:]:7
    715: word[-2:]:7
    716: -1:word.lower():7
    717: +1:word.lower():dezembro
    718: word.lower():dezembro
    719: word[-3:]:bro
    720: -1:word.lower():dezembro
    721: +1:word.lower():1940
    722: word.lower():1940
    723: word[-3:]:940
    724: word[-2:]:40
    725: -1:word.lower():1940
    726: +1:word.lower():ainda
    727: word.lower():ainda
    728: -1:word.lower():ainda
    729: +1:word.lower():suspensão
    730: word.lower():suspensão
    731: -1:word.lower():suspensão
    732: +1:word.lower():condicional
    733: +1:word.lower():até
    734: word.lower():até
    735: word[-3:]:até
    736: word[-2:]:té
    737: -1:word.lower():até
    738: +1:word.lower():25
    739: word.lower():25
    740: word[-3:]:25
    741: word[-2:]:25
    742: -1:word.lower():25
    743: +1:word.lower():2012
    744: word.lower():2012
    745: word[-3:]:012
    746: word[-2:]:12
    747: -1:word.lower():2012
    748: word[-3:]:rto
    749: word[-3:]:rço
    750: +1:word.lower():’
    751: word.lower():4.9.2007
    752: word[-3:]:007
    753: word[-2:]:07
    754: -1:word.lower():4.9.2007
    755: +1:word.lower():maria
    756: word.lower():maria
    757: -1:word.lower():maria
    758: +1:word.lower():lima
    759: word.lower():lima
    760: word[-3:]:ima
    761: -1:word.lower():lima
    762: +1:word.lower():joinville
    763: word.lower():joinville
    764: word[-3:]:lle
    765: word[-2:]:le
    766: -1:word.lower():joinville
    767: +1:word.lower():congonhas
    768: word.lower():congonhas
    769: word[-3:]:has
    770: -1:word.lower():congonhas
    771: word[-3:]:À
    772: word[-2:]:À
    773: +1:word.lower():luz
    774: word.lower():luz
    775: word[-3:]:luz
    776: word[-2:]:uz
    777: -1:word.lower():luz
    778: +1:word.lower():princípios
    779: word.lower():princípios
    780: -1:word.lower():princípios
    781: +1:word.lower():interpretação
    782: word.lower():interpretação
    783: -1:word.lower():interpretação
    784: +1:word.lower():nas
    785: word.lower():nas
    786: word[-3:]:nas
    787: -1:word.lower():nas
    788: -1:word.lower():congresso
    789: +1:word.lower():nacional
    790: word.lower():nacional
    791: -1:word.lower():nacional
    792: word.lower():advocacia
    793: +1:word.lower():geral
    794: word.lower():geral
    795: -1:word.lower():geral
    796: +1:word.lower():presidência
    797: word.lower():presidência
    798: -1:word.lower():presidência
    799: +1:word.lower():república
    800: word.lower():república
    801: -1:word.lower():república
    802: +1:word.lower():presunção
    803: word.lower():presunção
    804: -1:word.lower():presunção
    805: word[-2:]:ol
    806: +1:word.lower():pelos
    807: word.lower():pelos
    808: -1:word.lower():pelos
    809: +1:word.lower():ação
    810: word.lower():ação
    811: -1:word.lower():ação
    812: word[-3:]:tem
    813: word[-3:]:car
    814: +1:word.lower():legitimidade
    815: word.lower():legitimidade
    816: -1:word.lower():legitimidade
    817: +1:word.lower():defensoria
    818: word.lower():defensoria
    819: -1:word.lower():defensoria
    820: +1:word.lower():pública
    821: word.lower():pública
    822: -1:word.lower():pública
    823: word[-3:]:iar
    824: word[-3:]:des
    825: word[-3:]:ram
    826: +1:word.lower():como
    827: word.lower():como
    828: word[-3:]:omo
    829: -1:word.lower():como
    830: +1:word.lower():função
    831: word.lower():função
    832: word[-3:]:ial
    833: word[-2:]:a”
    834: word[-2:]:50
    835: word.lower():desse
    836: word[-3:]:sse
    837: -1:word.lower():desse
    838: +1:word.lower():modo
    839: word.lower():modo
    840: word[-3:]:odo
    841: +1:word.lower():grande
    842: word.lower():grande
    843: word[-3:]:nde
    844: -1:word.lower():grande
    845: word[-3:]:tão
    846: +1:word.lower():ministro
    847: word.lower():ministro
    848: -1:word.lower():ministro
    849: +1:word.lower():toffoli
    850: word.lower():toffoli
    851: word[-3:]:oli
    852: word[-2:]:li
    853: -1:word.lower():toffoli
    854: +1:word.lower():erigiu
    855: word[-2:]:iu
    856: word.lower():quer
    857: +1:word.lower():dizer
    858: word.lower():dizer
    859: word[-3:]:zer
    860: -1:word.lower():dizer
    861: +1:word.lower():saber
    862: word.lower():saber
    863: word[-3:]:ber
    864: -1:word.lower():saber
    865: word.lower():celulares
    866: -1:word.lower():celulares
    867: +1:word.lower():nos
    868: word.lower():nos
    869: word[-3:]:nos
    870: -1:word.lower():nos
    871: +1:word.lower():omissão
    872: word.lower():omissão
    873: -1:word.lower():omissão
    874: +1:word.lower():estado
    875: word.lower():estado
    876: -1:word.lower():estado
    877: +1:word.lower():sua
    878: word.lower():sua
    879: word[-3:]:sua
    880: word[-2:]:ua
    881: -1:word.lower():sua
    882: +1:word.lower():premissa
    883: word.lower():premissa
    884: -1:word.lower():premissa
    885: word[-3:]:sar
    886: +1:word.lower():responsabilidade
    887: word.lower():responsabilidade
    888: -1:word.lower():responsabilidade
    889: +1:word.lower():concessão
    890: word.lower():concessão
    891: -1:word.lower():concessão
    892: word[-3:]:nia
    893: word.lower():pleno
    894: word[-3:]:eno
    895: -1:word.lower():pleno
    896: +1:word.lower():dj
    897: word.lower():dj
    898: word[-3:]:DJ
    899: word[-2:]:DJ
    900: -1:word.lower():dj
    901: word[-3:]:09;
    902: word[-2:]:9;
    903: +1:word.lower():ai
    904: word.lower():ai
    905: word[-3:]:AI
    906: word[-2:]:AI
    907: -1:word.lower():ai
    908: word[-3:]:282
    909: word[-2:]:82
    910: +1:word.lower():agr
    911: word.lower():agr
    912: word[-3:]:AgR
    913: word[-2:]:gR
    914: -1:word.lower():agr
    915: +1:word.lower():sp
    916: word.lower():sp
    917: word[-3:]:SP
    918: word[-2:]:SP
    919: -1:word.lower():sp
    920: +1:word.lower():rel
    921: word.lower():rel
    922: word[-3:]:Rel
    923: word[-2:]:el
    924: -1:word.lower():rel
    925: +1:word.lower():min
    926: word.lower():min
    927: word[-3:]:Min
    928: word[-2:]:in
    929: -1:word.lower():min
    930: +1:word.lower():cezar
    931: word.lower():cezar
    932: word[-3:]:zar
    933: -1:word.lower():cezar
    934: +1:word.lower():peluso
    935: word.lower():peluso
    936: word[-3:]:uso
    937: -1:word.lower():peluso
    938: +1:word.lower():segunda
    939: word.lower():segunda
    940: -1:word.lower():segunda
    941: word.lower():bc
    942: word[-3:]:BC
    943: word[-2:]:BC
    944: -1:word.lower():bc
    945: +1:word.lower():102.085
    946: word.lower():102.085
    947: word[-3:]:085
    948: word[-2:]:85
    949: -1:word.lower():102.085
    950: +1:word.lower():rs
    951: word.lower():rs
    952: word[-3:]:RS
    953: word[-2:]:RS
    954: -1:word.lower():rs
    955: word.lower():conforme
    956: word[-3:]:rme
    957: -1:word.lower():conforme
    958: +1:word.lower():doutrina
    959: word.lower():doutrina
    960: word[-3:]:ina
    961: -1:word.lower():doutrina
    962: +1:word.lower():trata
    963: word.lower():trata
    964: word[-3:]:ata
    965: +1:word.lower():resultado
    966: word.lower():resultado
    967: -1:word.lower():resultado
    968: +1:word.lower():cuja
    969: word.lower():cuja
    970: word[-3:]:uja
    971: word[-2:]:ja
    972: +1:word.lower():dá
    973: word.lower():dá
    974: word[-3:]:dá
    975: word[-2:]:dá
    976: word[-3:]:ino
    977: +1:word.lower():havendo
    978: word[-3:]:ano
    979: +1:word.lower():parte
    980: word.lower():parte
    981: word[-3:]:rte
    982: -1:word.lower():parte
    983: +1:word.lower():final
    984: word.lower():final
    985: -1:word.lower():final
    986: +1:word.lower():preceito
    987: word.lower():preceito
    988: -1:word.lower():preceito
    989: +1:word.lower():183
    990: word.lower():183
    991: word[-3:]:183
    992: word[-2:]:83
    993: -1:word.lower():183
    994: +1:word.lower():9.472/1997
    995: word[-3:]:997
    996: word[-2:]:97
    997: -1:word.lower():9.472/1997
    998: +1:word.lower():estabelece
    999: word.lower():estabelece
   1000: word[-3:]:ece
   1001: -1:word.lower():estabelece
   1002: word[-3:]:Por
   1003: +1:word.lower():ser
   1004: word.lower():ser
   1005: word[-3:]:ser
   1006: -1:word.lower():ser
   1007: word[-3:]:tar
   1008: word[-2:]:po
   1009: +1:word.lower():desse
   1010: +1:word.lower():tem
   1011: word.lower():tem
   1012: -1:word.lower():tem
   1013: word[-3:]:sto
   1014: word[-3:]:vel
   1015: +1:word.lower():mas
   1016: word.lower():mas
   1017: -1:word.lower():mas
   1018: +1:word.lower():proteção
   1019: word.lower():proteção
   1020: -1:word.lower():proteção
   1021: +1:word.lower():bem
   1022: word.lower():bem
   1023: word[-3:]:bem
   1024: word[-3:]:sco
   1025: word[-3:]:ema
   1026: +1:word.lower():telecomunicações
   1027: word.lower():telecomunicações
   1028: -1:word.lower():telecomunicações
   1029: +1:word.lower():cf
   1030: word.lower():cf
   1031: word[-3:]:cf
   1032: word[-2:]:cf
   1033: -1:word.lower():cf
   1034: +1:word.lower():nucci
   1035: word.lower():nucci
   1036: word[-3:]:CCI
   1037: word[-2:]:CI
   1038: -1:word.lower():nucci
   1039: +1:word.lower():guilherme
   1040: word.lower():guilherme
   1041: -1:word.lower():guilherme
   1042: +1:word.lower():souza
   1043: word.lower():souza
   1044: word[-3:]:uza
   1045: -1:word.lower():souza
   1046: word.lower():leis
   1047: word[-3:]:eis
   1048: -1:word.lower():leis
   1049: +1:word.lower():penais
   1050: word.lower():penais
   1051: -1:word.lower():penais
   1052: +1:word.lower():2
   1053: word.lower():2
   1054: word[-3:]:2
   1055: word[-2:]:2
   1056: -1:word.lower():2
   1057: +1:word.lower():revista
   1058: word.lower():revista
   1059: -1:word.lower():revista
   1060: +1:word.lower():tribunais
   1061: word.lower():tribunais
   1062: -1:word.lower():tribunais
   1063: +1:word.lower():p
   1064: word.lower():p
   1065: word[-3:]:p
   1066: word[-2:]:p
   1067: -1:word.lower():p
   1068: word[-2:]:0;
   1069: +1:word.lower():baltazar
   1070: word.lower():baltazar
   1071: word[-3:]:ZAR
   1072: word[-2:]:AR
   1073: -1:word.lower():baltazar
   1074: word.lower():junior
   1075: word[-3:]:IOR
   1076: word[-2:]:OR
   1077: -1:word.lower():junior
   1078: +1:word.lower():josé
   1079: word.lower():josé
   1080: word[-3:]:osé
   1081: word[-2:]:sé
   1082: -1:word.lower():josé
   1083: +1:word.lower():paulo
   1084: word.lower():paulo
   1085: word[-3:]:ulo
   1086: -1:word.lower():paulo
   1087: word[-3:]:mes
   1088: +1:word.lower():federais
   1089: word.lower():federais
   1090: -1:word.lower():federais
   1091: +1:word.lower():livraria
   1092: word.lower():livraria
   1093: -1:word.lower():livraria
   1094: +1:word.lower():advogado
   1095: word.lower():advogado
   1096: -1:word.lower():advogado
   1097: +1:word.lower():8ª
   1098: word.lower():8ª
   1099: word[-3:]:8ª
   1100: word[-2:]:8ª
   1101: -1:word.lower():8ª
   1102: word[-2:]:08
   1103: -1:word.lower():704/708
   1104: word[-3:]:A
   1105: word[-2:]:A
   1106: +1:word.lower():senhora
   1107: word.lower():senhora
   1108: word[-3:]:ORA
   1109: word[-2:]:RA
   1110: -1:word.lower():senhora
   1111: +1:word.lower():ministra
   1112: word.lower():ministra
   1113: word[-3:]:TRA
   1114: -1:word.lower():ministra
   1115: +1:word.lower():cármen
   1116: word.lower():cármen
   1117: word[-3:]:MEN
   1118: word[-2:]:EN
   1119: -1:word.lower():cármen
   1120: +1:word.lower():lúcia
   1121: word.lower():lúcia
   1122: word[-3:]:CIA
   1123: word[-2:]:IA
   1124: -1:word.lower():lúcia
   1125: +1:word.lower():presidente
   1126: word.lower():presidente
   1127: word[-3:]:NTE
   1128: word[-2:]:TE
   1129: -1:word.lower():presidente
   1130: +1:word.lower():neste
   1131: +1:word.lower():caso
   1132: word.lower():caso
   1133: word[-3:]:aso
   1134: -1:word.lower():caso
   1135: +1:word.lower():este
   1136: word[-3:]:nha
   1137: word[-2:]:ha
   1138: word[-3:]:Mas
   1139: +1:word.lower():ele
   1140: word.lower():ele
   1141: word[-3:]:ele
   1142: -1:word.lower():ele
   1143: +1:word.lower():mesma
   1144: word.lower():mesma
   1145: word[-3:]:sma
   1146: -1:word.lower():mesma
   1147: word.lower():tese
   1148: -1:word.lower():tese
   1149: +1:word.lower():porque
   1150: word.lower():porque
   1151: +1:word.lower():meu
   1152: word[-2:]:eu
   1153: word.lower():voto
   1154: word[-3:]:oto
   1155: -1:word.lower():voto
   1156: +1:word.lower():direta
   1157: word.lower():direta
   1158: word[-3:]:eta
   1159: -1:word.lower():direta
   1160: +1:word.lower():senhor
   1161: word.lower():senhor
   1162: word[-3:]:HOR
   1163: -1:word.lower():senhor
   1164: word[-3:]:TRO
   1165: word[-2:]:RO
   1166: +1:word.lower():marco
   1167: word.lower():marco
   1168: word[-3:]:RCO
   1169: word[-2:]:CO
   1170: -1:word.lower():marco
   1171: +1:word.lower():aurélio
   1172: word.lower():aurélio
   1173: word[-3:]:LIO
   1174: -1:word.lower():aurélio
   1175: +1:word.lower():isso
   1176: word.lower():isso
   1177: word[-3:]:USO
   1178: word[-2:]:SO
   1179: word[-3:]:Na
   1180: word[-2:]:Na
   1181: word[-3:]:cou
   1182: word[-3:]:ide
   1183: word[-2:]:ve
   1184: word[-3:]:ver
   1185: word.lower():adi
   1186: word[-3:]:ADI
   1187: word[-2:]:DI
   1188: -1:word.lower():adi
   1189: word[-3:]:356
   1190: word[-2:]:56
   1191: -1:word.lower():5356
   1192: +1:word.lower():ms
   1193: word.lower():ms
   1194: word[-3:]:MS
   1195: word[-2:]:MS
   1196: -1:word.lower():ms
   1197: word.lower():anota
   1198: word[-3:]:ota
   1199: -1:word.lower():anota
   1200: +1:word.lower():propósito
   1201: word.lower():propósito
   1202: -1:word.lower():propósito
   1203: word[-3:]:osa
   1204: +1:word.lower():pois
   1205: word.lower():pois
   1206: word[-3:]:ois
   1207: -1:word.lower():pois
   1208: +1:word.lower():teria
   1209: word.lower():teria
   1210: -1:word.lower():teria
   1211: word[-3:]:uas
   1212: +1:word.lower():seus
   1213: word.lower():seus
   1214: word[-3:]:eus
   1215: word[-2:]:us
   1216: -1:word.lower():seus
   1217: word.lower():composição
   1218: -1:word.lower():composição
   1219: word.lower():empresa
   1220: word[-3:]:esa
   1221: -1:word.lower():empresa
   1222: +1:word.lower():vista
   1223: word.lower():vista
   1224: +1:word.lower():atos
   1225: word.lower():atos
   1226: -1:word.lower():atos
   1227: word[-3:]:gem
   1228: +1:word.lower():dentre
   1229: word[-3:]:tre
   1230: +1:word.lower():seu
   1231: word.lower():seu
   1232: word[-3:]:seu
   1233: -1:word.lower():seu
   1234: word.lower():irmão
   1235: word[-3:]:mão
   1236: -1:word.lower():irmão
   1237: +1:word.lower():josué
   1238: word.lower():josué
   1239: word[-3:]:sué
   1240: word[-2:]:ué
   1241: -1:word.lower():josué
   1242: word.lower():luiz
   1243: word[-3:]:uiz
   1244: -1:word.lower():luiz
   1245: +1:word.lower():tomimatsu
   1246: word.lower():tomimatsu
   1247: word[-3:]:tsu
   1248: word[-2:]:su
   1249: -1:word.lower():tomimatsu
   1250: word[-3:]:Em
   1251: word[-2:]:Em
   1252: +1:word.lower():seja
   1253: word[-3:]:eja
   1254: +1:word.lower():civil
   1255: word.lower():civil
   1256: word[-3:]:vil
   1257: word[-2:]:il
   1258: -1:word.lower():civil
   1259: +1:word.lower():sob
   1260: word.lower():sob
   1261: word[-3:]:sob
   1262: word[-2:]:ob
   1263: -1:word.lower():sob
   1264: word[-3:]:zes
   1265: word.lower():contrário
   1266: -1:word.lower():contrário
   1267: word[-3:]:tir
   1268: +1:word.lower():fundamento
   1269: word.lower():fundamento
   1270: -1:word.lower():fundamento
   1271: +1:word.lower():cujos
   1272: word.lower():cujos
   1273: word[-3:]:jos
   1274: +1:word.lower():efeitos
   1275: word.lower():efeitos
   1276: -1:word.lower():efeitos
   1277: +1:word.lower():administração
   1278: word.lower():administração
   1279: -1:word.lower():administração
   1280: +1:word.lower():brasileira
   1281: word.lower():brasileira
   1282: word[-3:]:ira
   1283: -1:word.lower():brasileira
   1284: +1:word.lower():são
   1285: word.lower():são
   1286: -1:word.lower():são
   1287: +1:word.lower():além
   1288: word.lower():além
   1289: word[-3:]:lém
   1290: +1:word.lower():jurídico
   1291: word.lower():jurídico
   1292: word[-3:]:E
   1293: word[-2:]:E
   1294: +1:word.lower():esse
   1295: word.lower():esse
   1296: -1:word.lower():esse
   1297: +1:word.lower():c
   1298: word.lower():c
   1299: word[-3:]:c
   1300: word[-2:]:c
   1301: -1:word.lower():c
   1302: word.lower():cnj
   1303: word[-3:]:CNJ
   1304: word[-2:]:NJ
   1305: -1:word.lower():cnj
   1306: +1:word.lower():esta
   1307: word.lower():esta
   1308: -1:word.lower():esta
   1309: +1:word.lower():corte
   1310: word.lower():corte
   1311: -1:word.lower():corte
   1312: word.lower():brasília
   1313: word[-3:]:lia
   1314: -1:word.lower():brasília
   1315: +1:word.lower():8
   1316: word.lower():8
   1317: word[-3:]:8
   1318: word[-2:]:8
   1319: -1:word.lower():8
   1320: -1:word.lower():fevereiro
   1321: word[-3:]:018
   1322: word[-2:]:18
   1323: +1:word.lower():desta
   1324: word.lower():desta
   1325: -1:word.lower():desta
   1326: +1:word.lower():suprema
   1327: word.lower():suprema
   1328: -1:word.lower():suprema
   1329: +1:word.lower():conforme
   1330: +1:word.lower():entendimento
   1331: word.lower():entendimento
   1332: -1:word.lower():entendimento
   1333: +1:word.lower():julgamento
   1334: word.lower():julgamento
   1335: -1:word.lower():julgamento
   1336: +1:word.lower():adi
   1337: word[-2:]:54
   1338: +1:word.lower():df
   1339: word.lower():df
   1340: word[-3:]:DF
   1341: word[-2:]:DF
   1342: -1:word.lower():df
   1343: +1:word.lower():mc
   1344: word.lower():mc
   1345: word[-3:]:MC
   1346: word[-2:]:MC
   1347: -1:word.lower():mc
   1348: +1:word.lower():moralidade
   1349: word.lower():moralidade
   1350: -1:word.lower():moralidade
   1351: +1:word.lower():único
   1352: word.lower():único
   1353: -1:word.lower():único
   1354: +1:word.lower():constitucionalidade
   1355: word.lower():constitucionalidade
   1356: -1:word.lower():constitucionalidade
   1357: +1:word.lower():ato
   1358: word.lower():ato
   1359: word[-3:]:ato
   1360: -1:word.lower():ato
   1361: +1:word.lower():normativo
   1362: word.lower():normativo
   1363: -1:word.lower():normativo
   1364: +1:word.lower():mesmo
   1365: word.lower():mesmo
   1366: word[-3:]:smo
   1367: -1:word.lower():mesmo
   1368: +1:word.lower():administrativo
   1369: word.lower():administrativo
   1370: -1:word.lower():administrativo
   1371: +1:word.lower():superior
   1372: word.lower():superior
   1373: word[-3:]:ior
   1374: -1:word.lower():superior
   1375: +1:word.lower():justiça
   1376: word.lower():justiça
   1377: word[-3:]:iça
   1378: word[-2:]:ça
   1379: -1:word.lower():justiça
   1380: +1:word.lower():julgado
   1381: word.lower():julgado
   1382: -1:word.lower():julgado
   1383: +1:word.lower():fls
   1384: word.lower():fls
   1385: word[-3:]:fls
   1386: word[-2:]:ls
   1387: -1:word.lower():fls
   1388: +1:word.lower():373
   1389: word.lower():373
   1390: word[-3:]:373
   1391: word[-2:]:73
   1392: -1:word.lower():373
   1393: +1:word.lower():negou
   1394: word[-3:]:gou
   1395: +1:word.lower():especial
   1396: word.lower():especial
   1397: -1:word.lower():especial
   1398: +1:word.lower():interposto
   1399: word.lower():interposto
   1400: word.lower():weber
   1401: -1:word.lower():weber
   1402: word[-3:]:tra
   1403: word[-3:]:men
   1404: word[-2:]:en
   1405: word[-3:]:016
   1406: word[-2:]:16
   1407: +1:word.lower():turma
   1408: word.lower():turma
   1409: -1:word.lower():turma
   1410: word[-3:]:ceu
   1411: +1:word.lower():declaração
   1412: word.lower():declaração
   1413: -1:word.lower():declaração
   1414: +1:word.lower():agravo
   1415: word.lower():agravo
   1416: word[-3:]:avo
   1417: -1:word.lower():agravo
   1418: +1:word.lower():qual
   1419: word.lower():qual
   1420: word[-3:]:ual
   1421: -1:word.lower():qual
   1422: +1:word.lower():termos
   1423: word.lower():termos
   1424: word[-3:]:mos
   1425: -1:word.lower():termos
   1426: +1:word.lower():relator
   1427: word.lower():relator
   1428: word[-3:]:tor
   1429: -1:word.lower():relator
   1430: +1:word.lower():2ª
   1431: word.lower():2ª
   1432: word[-3:]:2ª
   1433: word[-2:]:2ª
   1434: -1:word.lower():2ª
   1435: word[-3:]:var
   1436: word.lower():disposto
   1437: -1:word.lower():disposto
   1438: +1:word.lower():artigo
   1439: word.lower():artigo
   1440: -1:word.lower():artigo
   1441: +1:word.lower():32
   1442: word.lower():32
   1443: word[-3:]:32
   1444: word[-2:]:32
   1445: -1:word.lower():32
   1446: +1:word.lower():tributário
   1447: word.lower():tributário
   1448: -1:word.lower():tributário
   1449: +1:word.lower():quanto
   1450: word.lower():quanto
   1451: -1:word.lower():quanto
   1452: +1:word.lower():incidência
   1453: word.lower():incidência
   1454: -1:word.lower():incidência
   1455: word.lower():iptu
   1456: word[-3:]:PTU
   1457: word[-2:]:TU
   1458: -1:word.lower():iptu
   1459: +1:word.lower():relação
   1460: word.lower():relação
   1461: -1:word.lower():relação
   1462: word[-3:]:ita
   1463: +1:word.lower():34
   1464: word.lower():34
   1465: word[-3:]:34
   1466: word[-2:]:34
   1467: -1:word.lower():34
   1468: +1:word.lower():eis
   1469: word.lower():eis
   1470: word[-3:]:Eis
   1471: word.lower():preceitos
   1472: -1:word.lower():preceitos
   1473: word.lower():vistos
   1474: -1:word.lower():vistos
   1475: word.lower():relatados
   1476: -1:word.lower():relatados
   1477: word[-3:]:dam
   1478: +1:word.lower():ministros
   1479: word.lower():ministros
   1480: word[-3:]:ros
   1481: -1:word.lower():ministros
   1482: word[-3:]:deu
   1483: +1:word.lower():trabalho
   1484: word.lower():trabalho
   1485: word[-3:]:lho
   1486: word[-2:]:ho
   1487: -1:word.lower():trabalho
   1488: +1:word.lower():também
   1489: word.lower():também
   1490: word[-3:]:bém
   1491: -1:word.lower():também
   1492: +1:word.lower():espécie
   1493: word.lower():espécie
   1494: word[-3:]:cie
   1495: word[-2:]:ie
   1496: -1:word.lower():espécie
   1497: +1:word.lower():das
   1498: word.lower():das
   1499: -1:word.lower():das
   1500: +1:word.lower():dificuldades
   1501: word[-3:]:rar
   1502: +1:word.lower():culpa
   1503: word.lower():culpa
   1504: word[-2:]:pa
   1505: -1:word.lower():culpa
   1506: word[-3:]:rão
   1507: +1:word.lower():colegas
   1508: word.lower():colegas
   1509: word[-3:]:gas
   1510: word[-3:]:sos
   1511: word[-3:]:rda
   1512: word[-3:]:ego
   1513: -1:word.lower():trânsito
   1514: word[-3:]:vam
   1515: +1:word.lower():podendo
   1516: +1:word.lower():lo
   1517: word.lower():lo
   1518: word[-3:]:lo
   1519: -1:word.lower():lo
   1520: +1:word.lower():convênio
   1521: word.lower():convênio
   1522: word[-3:]:nio
   1523: -1:word.lower():convênio
   1524: +1:word.lower():operacional
   1525: word.lower():operacional
   1526: -1:word.lower():operacional
   1527: +1:word.lower():gerido
   1528: word[-2:]:EG
   1529: +1:word.lower():hoje
   1530: word.lower():hoje
   1531: word[-3:]:oje
   1532: word[-2:]:je
   1533: -1:word.lower():hoje
   1534: +1:word.lower():santos
   1535: word.lower():santos
   1536: word[-3:]:TOS
   1537: word[-2:]:OS
   1538: -1:word.lower():santos
   1539: +1:word.lower():ricardo
   1540: word.lower():ricardo
   1541: -1:word.lower():ricardo
   1542: +1:word.lower():bechara
   1543: word.lower():bechara
   1544: +1:word.lower():novo
   1545: word.lower():novo
   1546: word[-3:]:ovo
   1547: -1:word.lower():novo
   1548: +1:word.lower():legislação
   1549: word.lower():legislação
   1550: -1:word.lower():legislação
   1551: +1:word.lower():própria
   1552: word.lower():própria
   1553: -1:word.lower():própria
   1554: +1:word.lower():ed
   1555: word.lower():ed
   1556: word[-3:]:ed
   1557: word[-2:]:ed
   1558: -1:word.lower():ed
   1559: +1:word.lower():forense
   1560: word.lower():forense
   1561: word[-3:]:nse
   1562: -1:word.lower():forense
   1563: +1:word.lower():rio
   1564: word.lower():rio
   1565: word[-3:]:Rio
   1566: -1:word.lower():rio
   1567: +1:word.lower():janeiro
   1568: word.lower():janeiro
   1569: -1:word.lower():janeiro
   1570: +1:word.lower():2008
   1571: word.lower():2008
   1572: word[-3:]:008
   1573: -1:word.lower():2008
   1574: +1:word.lower():575
   1575: word.lower():575
   1576: word[-3:]:575
   1577: word[-2:]:75
   1578: -1:word.lower():575
   1579: +1:word.lower():sessão
   1580: word.lower():sessão
   1581: -1:word.lower():sessão
   1582: +1:word.lower():conformidade
   1583: word.lower():ata
   1584: -1:word.lower():ata
   1585: word[-3:]:cas
   1586: word[-3:]:gar
   1587: +1:word.lower():regimental
   1588: word.lower():regimental
   1589: word[-3:]:tal
   1590: -1:word.lower():regimental
   1591: +1:word.lower():votou
   1592: word[-3:]:tou
   1593: +1:word.lower():joaquim
   1594: word.lower():joaquim
   1595: word[-3:]:uim
   1596: -1:word.lower():joaquim
   1597: +1:word.lower():barbosa
   1598: word.lower():barbosa
   1599: -1:word.lower():barbosa
   1600: +1:word.lower():ausente
   1601: +1:word.lower():roberto
   1602: word.lower():roberto
   1603: -1:word.lower():roberto
   1604: +1:word.lower():barroso
   1605: word.lower():barroso
   1606: word[-3:]:oso
   1607: -1:word.lower():barroso
   1608: +1:word.lower():sem
   1609: word.lower():sem
   1610: word[-3:]:sem
   1611: -1:word.lower():sem
   1612: +1:word.lower():reconhecer
   1613: word[-3:]:cer
   1614: +1:word.lower():poder
   1615: word.lower():poder
   1616: word[-3:]:der
   1617: -1:word.lower():poder
   1618: +1:word.lower():alegação
   1619: word.lower():alegação
   1620: -1:word.lower():alegação
   1621: +1:word.lower():outros
   1622: word.lower():outros
   1623: -1:word.lower():outros
   1624: +1:word.lower():texto
   1625: word.lower():texto
   1626: word[-3:]:xto
   1627: -1:word.lower():texto
   1628: +1:word.lower():carta
   1629: word.lower():carta
   1630: word[-3:]:rta
   1631: -1:word.lower():carta
   1632: +1:word.lower():política
   1633: word.lower():política
   1634: -1:word.lower():política
   1635: +1:word.lower():previsto
   1636: word.lower():previsto
   1637: -1:word.lower():previsto
   1638: +1:word.lower():317
   1639: word.lower():317
   1640: word[-3:]:317
   1641: word[-2:]:17
   1642: -1:word.lower():317
   1643: +1:word.lower():nesse
   1644: word.lower():nesse
   1645: word[-3:]:rou
   1646: word[-3:]:ede
   1647: +1:word.lower():habeas
   1648: word.lower():habeas
   1649: word[-3:]:eas
   1650: -1:word.lower():habeas
   1651: +1:word.lower():corpus
   1652: word.lower():corpus
   1653: word[-3:]:pus
   1654: -1:word.lower():corpus
   1655: word[-3:]:mar
   1656: +1:word.lower():acórdão
   1657: word.lower():acórdão
   1658: word[-3:]:dão
   1659: -1:word.lower():acórdão
   1660: word[-3:]:rem
   1661: -1:word.lower():acusado
   1662: +1:word.lower():porquanto
   1663: word.lower():porquanto
   1664: +1:word.lower():tal
   1665: word.lower():tal
   1666: -1:word.lower():tal
   1667: +1:word.lower():implicaria
   1668: word.lower():probatório
   1669: -1:word.lower():probatório
   1670: +1:word.lower():aos
   1671: word.lower():aos
   1672: word[-3:]:aos
   1673: -1:word.lower():aos
   1674: +1:word.lower():dessa
   1675: word.lower():dessa
   1676: -1:word.lower():dessa
   1677: +1:word.lower():denúncia
   1678: word.lower():denúncia
   1679: -1:word.lower():denúncia
   1680: +1:word.lower():já
   1681: word.lower():já
   1682: word[-3:]:já
   1683: word[-2:]:já
   1684: -1:word.lower():já
   1685: +1:word.lower():ter
   1686: word.lower():ter
   1687: word[-3:]:ter
   1688: -1:word.lower():ter
   1689: +1:word.lower():sido
   1690: word.lower():sido
   1691: -1:word.lower():sido
   1692: +1:word.lower():defesa
   1693: word.lower():defesa
   1694: -1:word.lower():defesa
   1695: word[-3:]:bra
   1696: word.lower():réu
   1697: word[-3:]:réu
   1698: word[-2:]:éu
   1699: -1:word.lower():réu
   1700: word.lower():causa
   1701: -1:word.lower():causa
   1702: +1:word.lower():cujo
   1703: word.lower():cujo
   1704: word[-3:]:ujo
   1705: word[-2:]:jo
   1706: -1:word.lower():cujo
   1707: +1:word.lower():depende
   1708: word.lower():depende
   1709: -1:word.lower():depende
   1710: word[-3:]:do”
   1711: word[-2:]:o”
   1712: +1:word.lower():grifos
   1713: word.lower():grifos
   1714: word[-3:]:fos
   1715: -1:word.lower():grifos
   1716: +1:word.lower():nossos
   1717: word.lower():nossos
   1718: -1:word.lower():nossos
   1719: word[-3:]:014
   1720: word[-2:]:14
   1721: word[-3:]:NTO
   1722: word[-2:]:TO
   1723: word[-3:]:DO
   1724: word[-2:]:DO
   1725: word[-3:]:QUE
   1726: word[-2:]:UE
   1727: word[-2:]:OU
   1728: word[-3:]:COM
   1729: word[-2:]:OM
   1730: word[-3:]:VEL
   1731: word[-2:]:EL
   1732: word[-2:]:MA
   1733: +1:word.lower():posto
   1734: word[-3:]:STO
   1735: word[-3:]:ICO
   1736: word[-2:]:AS
   1737: word[-3:]:MAS
   1738: word[-3:]:AIS
   1739: word[-2:]:IS
   1740: word.lower():proferida
   1741: word[-3:]:IDA
   1742: word[-2:]:DA
   1743: -1:word.lower():proferida
   1744: word[-3:]:AO
   1745: word[-2:]:AO
   1746: word[-3:]:EMO
   1747: word[-2:]:MO
   1748: word[-3:]:NAL
   1749: word[-2:]:AL
   1750: word[-3:]:RAL
   1751: word[-3:]:ELO
   1752: word[-2:]:LO
   1753: +1:word.lower():relator"
   1754: word.lower():relator"
   1755: word[-3:]:OR"
   1756: word[-2:]:R"
   1757: word[-3:]:ED
   1758: word[-2:]:ED
   1759: +1:word.lower():celso
   1760: word.lower():celso
   1761: word[-3:]:lso
   1762: -1:word.lower():celso
   1763: +1:word.lower():mello
   1764: word.lower():mello
   1765: word[-3:]:llo
   1766: -1:word.lower():mello
   1767: +1:word.lower():pleno
   1768: word.lower():imposto
   1769: -1:word.lower():imposto
   1770: +1:word.lower():imóvel
   1771: word.lower():imóvel
   1772: +1:word.lower():titular
   1773: word.lower():titular
   1774: -1:word.lower():titular
   1775: +1:word.lower():domínio
   1776: word.lower():domínio
   1777: -1:word.lower():domínio
   1778: +1:word.lower():útil
   1779: -1:word.lower():título
   1780: +1:word.lower():ellen
   1781: word.lower():ellen
   1782: word[-3:]:len
   1783: -1:word.lower():ellen
   1784: +1:word.lower():gracie
   1785: word.lower():gracie
   1786: -1:word.lower():gracie
   1787: +1:word.lower():eros
   1788: word.lower():eros
   1789: -1:word.lower():eros
   1790: +1:word.lower():grau
   1791: word.lower():grau
   1792: word[-3:]:rau
   1793: word[-2:]:au
   1794: -1:word.lower():grau
   1795: +1:word.lower():licenciado
   1796: word.lower():licenciado
   1797: -1:word.lower():licenciado
   1798: +1:word.lower():menezes
   1799: word.lower():menezes
   1800: -1:word.lower():menezes
   1801: +1:word.lower():r
   1802: word.lower():r
   1803: -1:word.lower():r
   1804: +1:word.lower():•
   1805: word.lower():•
   1806: word[-3:]:•
   1807: word[-2:]:•
   1808: -1:word.lower():•
   1809: +1:word.lower():~~
   1810: word.lower():~~
   1811: word[-3:]:~~
   1812: word[-2:]:~~
   1813: -1:word.lower():~~
   1814: +1:word.lower():'
   1815: word.lower():'
   1816: word[-3:]:'
   1817: word[-2:]:'
   1818: -1:word.lower():'
   1819: word[-3:]:GOS
   1820: +1:word.lower():execução
   1821: word.lower():execução
   1822: word[-3:]:ÇÃO
   1823: word[-2:]:ÃO
   1824: -1:word.lower():execução
   1825: +1:word.lower():proferido
   1826: word.lower():proferido
   1827: -1:word.lower():proferido
   1828: word[-2:]:78
   1829: +1:word.lower():inciso
   1830: word.lower():inciso
   1831: word[-3:]:iso
   1832: -1:word.lower():inciso
   1833: +1:word.lower():iii
   1834: word.lower():iii
   1835: word[-3:]:III
   1836: -1:word.lower():iii
   1837: +1:word.lower():diploma
   1838: word.lower():diploma
   1839: -1:word.lower():diploma
   1840: +1:word.lower():disciplina
   1841: word.lower():disciplina
   1842: +1:word.lower():concurso
   1843: word.lower():concurso
   1844: -1:word.lower():concurso
   1845: word[-3:]:ará
   1846: word[-2:]:rá
   1847: +1:word.lower():maior
   1848: word.lower():maior
   1849: -1:word.lower():maior
   1850: word[-3:]:dio
   1851: word[-2:]:r;
   1852: word.lower():municípios
   1853: -1:word.lower():municípios
   1854: +1:word.lower():mediante
   1855: +1:word.lower():reclamante
   1856: word.lower():reclamante
   1857: +1:word.lower():s
   1858: word.lower():s
   1859: word[-3:]:S
   1860: word[-2:]:S
   1861: -1:word.lower():s
   1862: word[-3:]:ADO
   1863: +1:word.lower():24/11/2010
   1864: word.lower():24/11/2010
   1865: word[-3:]:010
   1866: -1:word.lower():24/11/2010
   1867: +1:word.lower():adc
   1868: word.lower():adc
   1869: word[-3:]:ADC
   1870: word[-2:]:DC
   1871: -1:word.lower():adc
   1872: +1:word.lower():16
   1873: word.lower():16
   1874: word[-3:]:16
   1875: -1:word.lower():16
   1876: +1:word.lower():declarou
   1877: +1:word.lower():§
   1878: word.lower():§
   1879: word[-3:]:§
   1880: word[-2:]:§
   1881: -1:word.lower():§
   1882: +1:word.lower():8.666/93
   1883: word.lower():8.666/93
   1884: word[-3:]:/93
   1885: -1:word.lower():8.666/93
   1886: +1:word.lower():tendo
   1887: word.lower():tendo
   1888: -1:word.lower():tendo
   1889: +1:word.lower():eventual
   1890: +1:word.lower():trabalhistas
   1891: word.lower():trabalhistas
   1892: -1:word.lower():trabalhistas
   1893: word.lower():decorre
   1894: -1:word.lower():decorre
   1895: word[-3:]:va;
   1896: word[-2:]:a;
   1897: word.lower():antes
   1898: -1:word.lower():antes
   1899: +1:word.lower():deve
   1900: word.lower():deve
   1901: word[-3:]:eve
   1902: -1:word.lower():deve
   1903: +1:word.lower():descumprimento
   1904: word.lower():descumprimento
   1905: +1:word.lower():contrato
   1906: word.lower():contrato
   1907: -1:word.lower():contrato
   1908: word.lower():concreto
   1909: -1:word.lower():concreto
   1910: word[-3:]:IME
   1911: word[-2:]:ME
   1912: word[-3:]:ADA
   1913: +1:word.lower():40
   1914: word.lower():40
   1915: word[-3:]:40
   1916: -1:word.lower():40
   1917: word[-3:]:RAS
   1918: word[-3:]:EM
   1919: word[-2:]:EM
   1920: +1:word.lower():fachin
   1921: word.lower():fachin
   1922: word[-3:]:hin
   1923: -1:word.lower():fachin
   1924: word[-3:]:ate
   1925: word.lower():me
   1926: -1:word.lower():me
   1927: word[-3:]:nho
   1928: +1:word.lower():está
   1929: word.lower():está
   1930: word[-3:]:stá
   1931: word[-2:]:tá
   1932: -1:word.lower():está
   1933: word[-3:]:Do
   1934: word[-2:]:Do
   1935: +1:word.lower():ponto
   1936: word.lower():ponto
   1937: -1:word.lower():ponto
   1938: +1:word.lower():material
   1939: word.lower():material
   1940: -1:word.lower():material
   1941: +1:word.lower():nós
   1942: word.lower():nós
   1943: word[-3:]:nós
   1944: word[-2:]:ós
   1945: +1:word.lower():estados
   1946: word.lower():estados
   1947: -1:word.lower():estados
   1948: +1:word.lower():têm
   1949: word.lower():têm
   1950: word[-3:]:têm
   1951: word[-2:]:êm
   1952: +1:word.lower():interesse
   1953: word.lower():interesse
   1954: -1:word.lower():interesse
   1955: +1:word.lower():ela
   1956: word.lower():ela
   1957: +1:word.lower():sendo
   1958: word[-2:]:a?
   1959: word[-3:]:Ela
   1960: word[-3:]:vas
   1961: -1:word.lower():ademais
   1962: +1:word.lower():parece
   1963: word.lower():parece
   1964: word.lower():serviço
   1965: -1:word.lower():serviço
   1966: +1:word.lower():20
   1967: word.lower():20
   1968: word[-3:]:20
   1969: word[-2:]:20
   1970: -1:word.lower():20
   1971: +1:word.lower():maio
   1972: word.lower():maio
   1973: word[-3:]:aio
   1974: -1:word.lower():maio
   1975: +1:word.lower():2009
   1976: word.lower():2009
   1977: word[-3:]:009
   1978: word[-2:]:09
   1979: -1:word.lower():2009
   1980: word[-3:]:No
   1981: word[-2:]:No
   1982: +1:word.lower():sentido
   1983: word.lower():sentido
   1984: -1:word.lower():sentido
   1985: word[-3:]:tam
   1986: +1:word.lower():segurança
   1987: word.lower():segurança
   1988: word[-3:]:nça
   1989: -1:word.lower():segurança
   1990: +1:word.lower():jurídica
   1991: word.lower():jurídica
   1992: -1:word.lower():jurídica
   1993: word[-3:]:boa
   1994: word[-2:]:oa
   1995: +1:word.lower():estadual
   1996: word.lower():estadual
   1997: -1:word.lower():estadual
   1998: +1:word.lower():prazo
   1999: word.lower():prazo
   2000: word[-3:]:azo
   2001: -1:word.lower():prazo
   2002: word[-3:]:nco
   2003: +1:word.lower():anos
   2004: word.lower():anos
   2005: word[-2:]:e;
   2006: word[-2:]:be
   2007: +1:word.lower():fim
   2008: word.lower():fim
   2009: -1:word.lower():fim
   2010: +1:word.lower():pode
   2011: word.lower():pode
   2012: word[-3:]:ode
   2013: +1:word.lower():estar
   2014: +1:word.lower():certo
   2015: word.lower():certo
   2016: word[-3:]:110
   2017: +1:word.lower():precisa
   2018: word[-3:]:isa
   2019: +1:word.lower():nem
   2020: word.lower():nem
   2021: word[-3:]:nem
   2022: +1:word.lower():n
   2023: word.lower():n
   2024: word[-3:]:n
   2025: word[-2:]:n
   2026: -1:word.lower():n
   2027: word[-2:]:ti
   2028: +1:word.lower():impossibilidade
   2029: word.lower():impossibilidade
   2030: +1:word.lower():recursos
   2031: word.lower():recursos
   2032: -1:word.lower():recursos
   2033: +1:word.lower():humanos
   2034: word.lower():humanos
   2035: -1:word.lower():humanos
   2036: +1:word.lower():dispõe
   2037: word.lower():dispõe
   2038: word[-3:]:põe
   2039: word[-2:]:õe
   2040: -1:word.lower():dispõe
   2041: word.lower():ensina
   2042: -1:word.lower():ensina
   2043: +1:word.lower():antônio
   2044: word.lower():antônio
   2045: -1:word.lower():antônio
   2046: +1:word.lower():bandeira
   2047: word.lower():bandeira
   2048: -1:word.lower():bandeira
   2049: +1:word.lower():metia
   2050: word.lower():metia
   2051: word[-3:]:tia
   2052: -1:word.lower():metia
   2053: word.lower():regime
   2054: -1:word.lower():regime
   2055: +1:word.lower():servidores
   2056: word.lower():servidores
   2057: -1:word.lower():servidores
   2058: word[-3:]:São
   2059: +1:word.lower():1991
   2060: word.lower():1991
   2061: word[-3:]:991
   2062: word[-2:]:91
   2063: -1:word.lower():1991
   2064: +1:word.lower():82
   2065: word.lower():82
   2066: word[-3:]:82
   2067: -1:word.lower():82
   2068: word[-3:]:pre
   2069: word[-2:]:l;
   2070: +1:word.lower():vale
   2071: word.lower():vale
   2072: word[-3:]:ale
   2073: -1:word.lower():vale
   2074: word[-2:]:i;
   2075: word[-2:]:ri
   2076: +1:word.lower():la
   2077: word.lower():la
   2078: word[-3:]:la
   2079: -1:word.lower():la
   2080: word[-2:]:"'
   2081: +1:word.lower():12
   2082: word.lower():12
   2083: word[-3:]:12
   2084: +1:word.lower():saraiva
   2085: word.lower():saraiva
   2086: -1:word.lower():saraiva
   2087: +1:word.lower():2007
   2088: word.lower():2007
   2089: -1:word.lower():2007
   2090: word.lower():161
   2091: word[-3:]:161
   2092: word[-2:]:61
   2093: +1:word.lower():alcance
   2094: word.lower():alcance
   2095: word[-3:]:nce
   2096: +1:word.lower():explica
   2097: word.lower():explica
   2098: -1:word.lower():explica
   2099: word[-3:]:ger
   2100: -1:word.lower():unger
   2101: word[-3:]:cos
   2102: +1:word.lower():procurando
   2103: +1:word.lower():entre
   2104: word.lower():entre
   2105: -1:word.lower():entre
   2106: +1:word.lower():condições
   2107: word.lower():condições
   2108: word.lower():leitura
   2109: word[-3:]:ura
   2110: word[-2:]:ER
   2111: +1:word.lower():futuro
   2112: word.lower():futuro
   2113: +1:word.lower():democracia
   2114: word.lower():democracia
   2115: -1:word.lower():democracia
   2116: word.lower():2004
   2117: word[-3:]:004
   2118: word[-2:]:04
   2119: -1:word.lower():2004
   2120: +1:word.lower():16-17
   2121: word.lower():16-17
   2122: word[-3:]:-17
   2123: -1:word.lower():16-17
   2124: +1:word.lower():1
   2125: word.lower():1
   2126: word[-3:]:1
   2127: word[-2:]:1
   2128: -1:word.lower():1
   2129: +1:word.lower():º
   2130: word.lower():º
   2131: word[-3:]:º
   2132: word[-2:]:º
   2133: -1:word.lower():º
   2134: word[-3:]:Os
   2135: word[-2:]:Os
   2136: +1:word.lower():serão
   2137: word.lower():plano
   2138: -1:word.lower():plano
   2139: +1:word.lower():carreira
   2140: word.lower():carreira
   2141: -1:word.lower():carreira
   2142: +1:word.lower():mérito
   2143: word.lower():mérito
   2144: -1:word.lower():mérito
   2145: +1:word.lower():aduz
   2146: word.lower():aduz
   2147: word[-3:]:duz
   2148: word.lower():autor
   2149: -1:word.lower():autor
   2150: +1:word.lower():pretende
   2151: word[-3:]:uir
   2152: +1:word.lower():regra
   2153: word.lower():regra
   2154: word[-3:]:gra
   2155: -1:word.lower():regra
   2156: +1:word.lower():valor
   2157: +1:word.lower():157
   2158: word.lower():157
   2159: word[-3:]:157
   2160: word[-2:]:57
   2161: -1:word.lower():157
   2162: +1:word.lower():i
   2163: word.lower():i
   2164: word[-3:]:I
   2165: word[-2:]:I
   2166: -1:word.lower():i
   2167: +1:word.lower():cf/88
   2168: word.lower():cf/88
   2169: word[-3:]:/88
   2170: -1:word.lower():cf/88
   2171: +1:word.lower():dispositivo
   2172: word.lower():dispositivo
   2173: -1:word.lower():dispositivo
   2174: +1:word.lower():controle
   2175: word.lower():controle
   2176: word[-3:]:ole
   2177: -1:word.lower():controle
   2178: +1:word.lower():seria
   2179: word.lower():seria
   2180: +1:word.lower():inviável
   2181: word.lower():inviável
   2182: +1:word.lower():ante
   2183: +1:word.lower():decidiu
   2184: word.lower():decidiu
   2185: word[-3:]:diu
   2186: +1:word.lower():contas
   2187: word.lower():contas
   2188: -1:word.lower():contas
   2189: +1:word.lower():1.084/2007
   2190: word.lower():1.084/2007
   2191: -1:word.lower():1.084/2007
   2192: +1:word.lower():impõe
   2193: word.lower():impõe
   2194: word.lower():prévio
   2195: word[-3:]:vio
   2196: -1:word.lower():prévio
   2197: +1:word.lower():natureza
   2198: word.lower():natureza
   2199: word[-3:]:eza
   2200: -1:word.lower():natureza
   2201: word[-3:]:ite
   2202: +1:word.lower():artigos
   2203: word.lower():artigos
   2204: -1:word.lower():artigos
   2205: +1:word.lower():2º
   2206: word.lower():2º
   2207: word[-3:]:2º
   2208: word[-2:]:2º
   2209: -1:word.lower():2º
   2210: +1:word.lower():ii
   2211: word.lower():ii
   2212: word[-3:]:II
   2213: -1:word.lower():ii
   2214: +1:word.lower():8.666/1993”
   2215: word.lower():8.666/1993”
   2216: word[-3:]:93”
   2217: word[-2:]:3”
   2218: -1:word.lower():8.666/1993”
   2219: +1:word.lower():recursal
   2220: word.lower():recursal
   2221: word[-3:]:sal
   2222: -1:word.lower():recursal
   2223: +1:word.lower():rtj
   2224: word.lower():rtj
   2225: word[-3:]:RTJ
   2226: word[-2:]:TJ
   2227: -1:word.lower():rtj
   2228: word[-3:]:792
   2229: word[-2:]:92
   2230: word[-3:]:275
   2231: word.lower():120/458
   2232: word[-3:]:458
   2233: word[-2:]:58
   2234: -1:word.lower():120/458
   2235: +1:word.lower():evidencia
   2236: -1:word.lower():132/1374
   2237: +1:word.lower():quando
   2238: word.lower():quando
   2239: -1:word.lower():quando
   2240: word[-3:]:erá
   2241: +1:word.lower():deste
   2242: word.lower():deste
   2243: -1:word.lower():deste
   2244: +1:word.lower():parágrafo
   2245: word.lower():parágrafo
   2246: word[-3:]:afo
   2247: word[-2:]:fo
   2248: -1:word.lower():parágrafo
   2249: +1:word.lower():cento
   2250: word.lower():cento
   2251: -1:word.lower():cento
   2252: +1:word.lower():perdas
   2253: word.lower():perdas
   2254: -1:word.lower():perdas
   2255: word[-3:]:dia
   2256: word.lower():alega
   2257: word[-3:]:ega
   2258: word[-2:]:ga
   2259: +1:word.lower():peça
   2260: word.lower():peça
   2261: word[-3:]:eça
   2262: -1:word.lower():peça
   2263: +1:word.lower():vestibular
   2264: word.lower():vestibular
   2265: -1:word.lower():vestibular
   2266: word[-2:]:nv
   2267: +1:word.lower():valores
   2268: word.lower():valores
   2269: -1:word.lower():valores
   2270: word[-3:]:Da
   2271: word[-2:]:Da
   2272: word.lower():id
   2273: word[-3:]:id
   2274: word[-2:]:id
   2275: -1:word.lower():id
   2276: word.lower():20170801_ms_28114_312286273
   2277: word[-3:]:273
   2278: -1:word.lower():20170801_ms_28114_312286273
   2279: word[-3:]:DE
   2280: word[-2:]:DE
   2281: word[-3:]:IÇA
   2282: word[-2:]:ÇA
   2283: word[-3:]:ENO
   2284: word[-2:]:NO
   2285: +1:word.lower():controvérsia
   2286: word.lower():controvérsia
   2287: -1:word.lower():controvérsia
   2288: +1:word.lower():processo
   2289: word.lower():processo
   2290: -1:word.lower():processo
   2291: +1:word.lower():5.133-1
   2292: word.lower():5.133-1
   2293: word[-3:]:3-1
   2294: word[-2:]:-1
   2295: -1:word.lower():5.133-1
   2296: +1:word.lower():minas
   2297: word.lower():minas
   2298: word[-3:]:NAS
   2299: -1:word.lower():minas
   2300: +1:word.lower():gerais
   2301: word.lower():gerais
   2302: -1:word.lower():gerais
   2303: +1:word.lower():maurício
   2304: word.lower():maurício
   2305: word[-3:]:CIO
   2306: -1:word.lower():maurício
   2307: +1:word.lower():corrêa
   2308: word.lower():corrêa
   2309: word[-3:]:RÊA
   2310: word[-2:]:ÊA
   2311: -1:word.lower():corrêa
   2312: word.lower():5
   2313: word[-3:]:5
   2314: word[-2:]:5
   2315: -1:word.lower():5
   2316: +1:word.lower():procurador
   2317: word.lower():procurador
   2318: -1:word.lower():procurador
   2319: +1:word.lower():manifestou
   2320: word[-3:]:138
   2321: word[-2:]:38
   2322: word.lower():prova
   2323: word[-3:]:ova
   2324: -1:word.lower():prova
   2325: word[-2:]:MP
   2326: word[-3:]:uar
   2327: +1:word.lower():nelson
   2328: word.lower():nelson
   2329: word[-3:]:son
   2330: word[-2:]:on
   2331: -1:word.lower():nelson
   2332: word[-2:]:ry
   2333: -1:word.lower():nery
   2334: +1:word.lower():júnior
   2335: word.lower():júnior
   2336: -1:word.lower():júnior
   2337: +1:word.lower():salienta
   2338: word.lower():"ementa
   2339: word[-3:]:NTA
   2340: word[-2:]:TA
   2341: word[-3:]:IVO
   2342: word[-2:]:VO
   2343: word[-3:]:DOR
   2344: word[-3:]:RIA
   2345: word[-3:]:CF
   2346: word[-2:]:CF
   2347: +1:word.lower():37
   2348: word.lower():37
   2349: word[-3:]:37
   2350: word[-2:]:37
   2351: -1:word.lower():37
   2352: +1:word.lower():ix
   2353: word.lower():ix
   2354: word[-3:]:IX
   2355: word[-2:]:IX
   2356: -1:word.lower():ix
   2357: word[-3:]:190
   2358: word[-2:]:90
   2359: -1:word.lower():9.198190
   2360: +1:word.lower():10.827194
   2361: word.lower():10.827194
   2362: word[-3:]:194
   2363: word[-2:]:94
   2364: -1:word.lower():10.827194
   2365: +1:word.lower():paraná
   2366: word.lower():paraná
   2367: word[-3:]:aná
   2368: word[-2:]:ná
   2369: -1:word.lower():paraná
   2370: word[-3:]:C
   2371: word[-2:]:C
   2372: +1:word.lower():f
   2373: word.lower():f
   2374: word[-3:]:F
   2375: word[-2:]:F
   2376: -1:word.lower():f
   2377: +1:word.lower():cargos
   2378: word.lower():cargos
   2379: -1:word.lower():cargos
   2380: +1:word.lower():110
   2381: word.lower():110
   2382: -1:word.lower():110
   2383: +1:word.lower():determinado
   2384: +1:word.lower():deverão
   2385: word.lower():deverão
   2386: word[-3:]:lei
   2387: word[-3:]:os;
   2388: word[-2:]:s;
   2389: +1:word.lower():b
   2390: word.lower():b
   2391: word[-3:]:b
   2392: word[-2:]:b
   2393: -1:word.lower():b
   2394: word[-3:]:do;
   2395: word[-2:]:o;
   2396: +1:word.lower():precedentes
   2397: word.lower():precedentes
   2398: -1:word.lower():precedentes
   2399: word[-3:]:500
   2400: word[-2:]:00
   2401: +1:word.lower():es
   2402: word.lower():es
   2403: word[-3:]:ES
   2404: word[-2:]:ES
   2405: -1:word.lower():es
   2406: word[-2:]:29
   2407: +1:word.lower():1.219
   2408: word.lower():1.219
   2409: word[-3:]:219
   2410: word[-2:]:19
   2411: -1:word.lower():1.219
   2412: +1:word.lower():pb
   2413: word.lower():pb
   2414: word[-3:]:PB
   2415: word[-2:]:PB
   2416: -1:word.lower():pb
   2417: +1:word.lower():carlos
   2418: word.lower():carlos
   2419: -1:word.lower():carlos
   2420: +1:word.lower():velloso;
   2421: word.lower():velloso;
   2422: word[-3:]:so;
   2423: -1:word.lower():velloso;
   2424: word[-3:]:125
   2425: -1:word.lower():890
   2426: +1:word.lower():corrêa;
   2427: word.lower():corrêa;
   2428: word[-3:]:êa;
   2429: -1:word.lower():corrêa;
   2430: +1:word.lower():2.380
   2431: word.lower():2.380
   2432: word[-3:]:380
   2433: word[-2:]:80
   2434: -1:word.lower():2.380
   2435: +1:word.lower():mcidf
   2436: word.lower():mcidf
   2437: word[-3:]:IDF
   2438: -1:word.lower():mcidf
   2439: +1:word.lower():moreira
   2440: word.lower():moreira
   2441: -1:word.lower():moreira
   2442: +1:word.lower():alves;
   2443: word.lower():alves;
   2444: word[-3:]:es;
   2445: -1:word.lower():alves;
   2446: +1:word.lower():2.987
   2447: word.lower():2.987
   2448: word[-3:]:987
   2449: word[-2:]:87
   2450: -1:word.lower():2.987
   2451: +1:word.lower():sc
   2452: word.lower():sc
   2453: word[-3:]:SC
   2454: word[-2:]:SC
   2455: -1:word.lower():sc
   2456: +1:word.lower():millistro
   2457: word.lower():millistro
   2458: -1:word.lower():millistro
   2459: +1:word.lower():sepúlveda
   2460: word.lower():sepúlveda
   2461: word[-3:]:eda
   2462: -1:word.lower():sepúlveda
   2463: +1:word.lower():pertence
   2464: word.lower():pertence
   2465: -1:word.lower():pertence
   2466: +1:word.lower():a_
   2467: word.lower():a_
   2468: word[-3:]:A_
   2469: word[-2:]:A_
   2470: +1:word.lower():·
   2471: word.lower():·
   2472: word[-3:]:·
   2473: word[-2:]:·
   2474: -1:word.lower():·
   2475: +1:word.lower():d_everá
   2476: word.lower():d_everá
   2477: word[-3:]:uem
   2478: +1:word.lower():chefe
   2479: word.lower():chefe
   2480: word[-3:]:efe
   2481: word[-2:]:fe
   2482: -1:word.lower():chefe
   2483: +1:word.lower():iv
   2484: word.lower():iv
   2485: word[-3:]:IV
   2486: word[-2:]:IV
   2487: -1:word.lower():iv
   2488: +1:word.lower():julgada
   2489: word.lower():julgada
   2490: -1:word.lower():julgada
   2491: word[-2:]:e"
   2492: word[-3:]:210
   2493: +1:word.lower():pr
   2494: word.lower():pr
   2495: word[-3:]:PR
   2496: word[-2:]:PR
   2497: -1:word.lower():pr
   2498: word.lower():rei
   2499: word[-3:]:Rei
   2500: +1:word.lower():velloso
   2501: word.lower():velloso
   2502: -1:word.lower():velloso
   2503: -1:word.lower():tema
   2504: word.lower():relevância
   2505: -1:word.lower():relevância
   2506: word[-2:]:ís
   2507: word.lower():informação
   2508: -1:word.lower():informação
   2509: +1:word.lower():foram
   2510: word[-3:]:rna
   2511: word.lower():orientação
   2512: -1:word.lower():orientação
   2513: +1:word.lower():rcl
   2514: word.lower():rcl
   2515: word[-3:]:Rcl
   2516: word[-2:]:cl
   2517: -1:word.lower():rcl
   2518: +1:word.lower():2.398
   2519: word.lower():2.398
   2520: word[-3:]:398
   2521: word[-2:]:98
   2522: -1:word.lower():2.398
   2523: +1:word.lower():to
   2524: word.lower():to
   2525: word[-3:]:TO
   2526: -1:word.lower():to
   2527: word.lower():“recurso
   2528: -1:word.lower():“recurso
   2529: +1:word.lower():inaplicabilidade
   2530: word.lower():inaplicabilidade
   2531: -1:word.lower():inaplicabilidade
   2532: +1:word.lower():343
   2533: word.lower():343
   2534: word[-3:]:343
   2535: word[-2:]:43
   2536: -1:word.lower():343
   2537: +1:word.lower():3
   2538: word.lower():3
   2539: word[-3:]:3
   2540: word[-2:]:3
   2541: -1:word.lower():3
   2542: word.lower():instâncias
   2543: +1:word.lower():revela
   2544: word.lower():revela
   2545: +1:word.lower():força
   2546: word.lower():força
   2547: word[-3:]:rça
   2548: -1:word.lower():força
   2549: +1:word.lower():normativa
   2550: word.lower():normativa
   2551: -1:word.lower():normativa
   2552: +1:word.lower():4
   2553: word.lower():4
   2554: word[-3:]:4
   2555: word[-2:]:4
   2556: -1:word.lower():4
   2557: +1:word.lower():5º
   2558: word.lower():5º
   2559: word[-3:]:5º
   2560: word[-2:]:5º
   2561: -1:word.lower():5º
   2562: +1:word.lower():xxxvi
   2563: word.lower():xxxvi
   2564: word[-3:]:XVI
   2565: word[-2:]:VI
   2566: -1:word.lower():xxxvi
   2567: +1:word.lower():diante
   2568: +1:word.lower():5
   2569: +1:word.lower():provido
   2570: word.lower():provido
   2571: -1:word.lower():provido
   2572: +1:word.lower():conhecido
   2573: +1:word.lower():re
   2574: word.lower():re
   2575: word[-3:]:RE
   2576: word[-2:]:RE
   2577: -1:word.lower():re
   2578: +1:word.lower():am
   2579: word.lower():am
   2580: word[-3:]:AM
   2581: word[-2:]:AM
   2582: -1:word.lower():am
   2583: +1:word.lower():gilmar
   2584: word.lower():gilmar
   2585: -1:word.lower():gilmar
   2586: +1:word.lower():mendes
   2587: word.lower():mendes
   2588: -1:word.lower():mendes
   2589: word[-3:]:/03
   2590: word[-2:]:03
   2591: word.lower():1974
   2592: word[-3:]:974
   2593: -1:word.lower():1974
   2594: +1:word.lower():passa
   2595: +1:word.lower():parágrafos
   2596: word.lower():parágrafos
   2597: -1:word.lower():parágrafos
   2598: word[-3:]:TOR
   2599: word[-2:]:CE
   2600: word[-3:]:ARA
   2601: +1:word.lower():origem
   2602: word.lower():origem
   2603: -1:word.lower():origem
   2604: +1:word.lower():inicial
   2605: word.lower():inicial
   2606: -1:word.lower():inicial
   2607: +1:word.lower():prisão
   2608: word.lower():prisão
   2609: -1:word.lower():prisão
   2610: +1:word.lower():cautelar
   2611: word.lower():cautelar
   2612: -1:word.lower():cautelar
   2613: +1:word.lower():stj
   2614: word.lower():stj
   2615: word[-3:]:STJ
   2616: -1:word.lower():stj
   2617: word[-2:]:05
   2618: word.lower():‘o
   2619: word[-3:]:‘O
   2620: word[-2:]:‘O
   2621: -1:word.lower():‘o
   2622: +1:word.lower():estão
   2623: word.lower():estão
   2624: +1:word.lower():fatos
   2625: word.lower():fatos
   2626: -1:word.lower():fatos
   2627: +1:word.lower():acima
   2628: word.lower():acima
   2629: +1:word.lower():organização
   2630: word.lower():organização
   2631: -1:word.lower():organização
   2632: word[-3:]:015
   2633: word[-2:]:15
   2634: +1:word.lower():municipal
   2635: word.lower():municipal
   2636: -1:word.lower():municipal
   2637: word.lower():r$
   2638: word[-3:]:R$
   2639: word[-2:]:R$
   2640: -1:word.lower():r$
   2641: word[-3:]:,00
   2642: +1:word.lower():denunciados
   2643: word[-3:]:ola
   2644: word.lower():jurídicas
   2645: -1:word.lower():jurídicas
   2646: +1:word.lower():movimentação
   2647: word.lower():movimentação
   2648: -1:word.lower():movimentação
   2649: +1:word.lower():documento
   2650: word.lower():documento
   2651: -1:word.lower():documento
   2652: +1:word.lower():acesso
   2653: word.lower():acesso
   2654: -1:word.lower():acesso
   2655: word[-3:]:SUÉ
   2656: word[-2:]:UÉ
   2657: +1:word.lower():ex
   2658: word.lower():ex
   2659: word[-3:]:ex
   2660: word[-2:]:ex
   2661: -1:word.lower():ex
   2662: word[-3:]:ixa
   2663: word[-2:]:xa
   2664: +1:word.lower():econômica
   2665: word.lower():econômica
   2666: -1:word.lower():econômica
   2667: word.lower():leonicio
   2668: -1:word.lower():leonicio
   2669: +1:word.lower():estrutura
   2670: word.lower():estrutura
   2671: -1:word.lower():estrutura
   2672: +1:word.lower():meio
   2673: word.lower():meio
   2674: word[-3:]:eio
   2675: -1:word.lower():meio
   2676: +1:word.lower():prefeito
   2677: word.lower():prefeito
   2678: -1:word.lower():prefeito
   2679: +1:word.lower():reinaldo
   2680: word.lower():reinaldo
   2681: word[-3:]:LDO
   2682: -1:word.lower():reinaldo
   2683: +1:word.lower():21
   2684: word.lower():21
   2685: word[-3:]:21
   2686: word[-2:]:21
   2687: -1:word.lower():21
   2688: +1:word.lower():ocultou
   2689: word.lower():patrimônio
   2690: word[-3:]:195
   2691: word[-2:]:95
   2692: +1:word.lower():rogério
   2693: word.lower():rogério
   2694: -1:word.lower():rogério
   2695: +1:word.lower():adma
   2696: word.lower():adma
   2697: word[-3:]:DMA
   2698: -1:word.lower():adma
   2699: +1:word.lower():camila
   2700: word.lower():camila
   2701: word[-3:]:ILA
   2702: word[-2:]:LA
   2703: -1:word.lower():camila
   2704: word[-3:]:ive
   2705: +1:word.lower():bens
   2706: word.lower():bens
   2707: word[-3:]:ens
   2708: word[-2:]:ns
   2709: -1:word.lower():bens
   2710: +1:word.lower():somente
   2711: word.lower():somente
   2712: -1:word.lower():somente
   2713: word[-2:]:az
   2714: +1:word.lower():assentou
   2715: +1:word.lower():tutela
   2716: word.lower():tutela
   2717: -1:word.lower():tutela
   2718: +1:word.lower():integrantes
   2719: +1:word.lower():hc
   2720: word.lower():hc
   2721: word[-3:]:HC
   2722: word[-2:]:HC
   2723: -1:word.lower():hc
   2724: +1:word.lower():n°
   2725: word.lower():n°
   2726: word[-3:]:n°
   2727: word[-2:]:n°
   2728: -1:word.lower():n°
   2729: +1:word.lower():primeira
   2730: word.lower():primeira
   2731: -1:word.lower():primeira
   2732: +1:word.lower():luiz
   2733: +1:word.lower():fux
   2734: word.lower():fux
   2735: word[-3:]:Fux
   2736: word[-2:]:ux
   2737: -1:word.lower():fux
   2738: +1:word.lower():dje
   2739: word.lower():dje
   2740: word[-3:]:DJe
   2741: word[-2:]:Je
   2742: -1:word.lower():dje
   2743: word[-3:]:/15
   2744: +1:word.lower():perfilhando
   2745: word.lower():perfilhando
   2746: -1:word.lower():perfilhando
   2747: word[-2:]:89
   2748: +1:word.lower():go
   2749: word.lower():go
   2750: word[-3:]:GO
   2751: word[-2:]:GO
   2752: -1:word.lower():go
   2753: +1:word.lower():rhc
   2754: word.lower():rhc
   2755: word[-3:]:RHC
   2756: -1:word.lower():rhc
   2757: +1:word.lower():relatora
   2758: word[-3:]:R
   2759: word[-2:]:R
   2760: word[-3:]:L
   2761: word[-2:]:L
   2762: +1:word.lower():ó
   2763: word.lower():ó
   2764: word[-3:]:Ó
   2765: word[-2:]:Ó
   2766: -1:word.lower():ó
   2767: +1:word.lower():edson
   2768: word.lower():edson
   2769: word[-3:]:SON
   2770: word[-2:]:ON
   2771: -1:word.lower():edson
   2772: word[-3:]:HIN
   2773: word[-2:]:IN
   2774: word.lower():adis
   2775: word[-3:]:DIs
   2776: word[-2:]:Is
   2777: -1:word.lower():adis
   2778: +1:word.lower():5.327
   2779: word.lower():5.327
   2780: word[-3:]:327
   2781: word[-2:]:27
   2782: -1:word.lower():5.327
   2783: +1:word.lower():5.253
   2784: word.lower():5.253
   2785: word[-3:]:253
   2786: word[-2:]:53
   2787: -1:word.lower():5.253
   2788: +1:word.lower():3.835
   2789: word.lower():3.835
   2790: word[-3:]:835
   2791: word[-2:]:35
   2792: -1:word.lower():3.835
   2793: +1:word.lower():4.861
   2794: word.lower():4.861
   2795: word[-3:]:861
   2796: -1:word.lower():4.861
   2797: word[-3:]:uco
   2798: +1:word.lower():aplica
   2799: word.lower():aplica
   2800: +1:word.lower():legal
   2801: word.lower():legal
   2802: word[-3:]:gal
   2803: -1:word.lower():legal
   2804: word[-3:]:oca
   2805: +1:word.lower():impugnação
   2806: word.lower():impugnação
   2807: -1:word.lower():impugnação
   2808: word[-2:]:s”
   2809: +1:word.lower():rocha
   2810: word.lower():rocha
   2811: word[-3:]:CHA
   2812: word[-2:]:HA
   2813: -1:word.lower():rocha
   2814: word[-3:]:nes
   2815: -1:word.lower():antunes
   2816: +1:word.lower():belo
   2817: word.lower():belo
   2818: -1:word.lower():belo
   2819: +1:word.lower():horizonte
   2820: word.lower():horizonte
   2821: -1:word.lower():horizonte
   2822: +1:word.lower():editora
   2823: word.lower():editora
   2824: -1:word.lower():editora
   2825: +1:word.lower():1994
   2826: word.lower():1994
   2827: word[-3:]:994
   2828: -1:word.lower():1994
   2829: +1:word.lower():121-123
   2830: word.lower():121-123
   2831: word[-3:]:123
   2832: -1:word.lower():121-123
   2833: +1:word.lower():ayres
   2834: word.lower():ayres
   2835: word[-3:]:RES
   2836: -1:word.lower():ayres
   2837: +1:word.lower():britto
   2838: word.lower():britto
   2839: word[-3:]:TTO
   2840: -1:word.lower():britto
   2841: word[-3:]:RDO
   2842: +1:word.lower():lewandowski
   2843: word.lower():lewandowski
   2844: word[-3:]:SKI
   2845: word[-2:]:KI
   2846: -1:word.lower():lewandowski
   2847: +1:word.lower():três
   2848: word.lower():três
   2849: word[-3:]:rês
   2850: word[-2:]:ês
   2851: -1:word.lower():três
   2852: +1:word.lower():apenas
   2853: +1:word.lower():fez
   2854: word.lower():fez
   2855: word[-3:]:fez
   2856: +1:word.lower():complementar
   2857: word.lower():complementar
   2858: -1:word.lower():complementar
   2859: word.lower():184
   2860: word[-3:]:184
   2861: word[-2:]:84
   2862: -1:word.lower():184
   2863: +1:word.lower():grifas
   2864: word.lower():grifas
   2865: word[-3:]:fas
   2866: -1:word.lower():grifas
   2867: word.lower():wladimir
   2868: word[-3:]:mir
   2869: -1:word.lower():wladimir
   2870: +1:word.lower():costa
   2871: word.lower():costa
   2872: -1:word.lower():costa
   2873: +1:word.lower():família
   2874: word.lower():família
   2875: -1:word.lower():família
   2876: +1:word.lower():barbalho
   2877: word.lower():barbalho
   2878: -1:word.lower():barbalho
   2879: +1:word.lower():elcione
   2880: word.lower():elcione
   2881: word[-3:]:one
   2882: -1:word.lower():elcione
   2883: +1:word.lower():helder
   2884: word.lower():helder
   2885: -1:word.lower():helder
   2886: +1:word.lower():jader
   2887: word.lower():jader
   2888: -1:word.lower():jader
   2889: +1:word.lower():vulgo
   2890: word.lower():vulgo
   2891: word[-3:]:lgo
   2892: -1:word.lower():vulgo
   2893: +1:word.lower():barbalhão
   2894: word.lower():barbalhão
   2895: word[-3:]:hão
   2896: -1:word.lower():barbalhão
   2897: +1:word.lower():filho
   2898: word.lower():filho
   2899: -1:word.lower():filho
   2900: +1:word.lower():eu
   2901: word.lower():eu
   2902: word[-3:]:eu
   2903: -1:word.lower():eu
   2904: word[-3:]:les
   2905: word[-3:]:RSO
   2906: +1:word.lower():ordinário
   2907: word.lower():ordinário
   2908: -1:word.lower():ordinário
   2909: word[-3:]:EAS
   2910: word[-3:]:PUS
   2911: word[-2:]:US
   2912: -1:word.lower():128.515
   2913: +1:word.lower():bahia
   2914: word.lower():bahia
   2915: word[-3:]:HIA
   2916: -1:word.lower():bahia
   2917: word[-3:]:MAR
   2918: word[-3:]:DES
   2919: word.lower():estava
   2920: word[-3:]:ava
   2921: word[-3:]:hou
   2922: +1:word.lower():vara
   2923: word.lower():vara
   2924: -1:word.lower():vara
   2925: word.lower():juizado
   2926: -1:word.lower():juizado
   2927: +1:word.lower():1ª
   2928: word[-2:]:1ª
   2929: -1:word.lower():1ª
   2930: +1:word.lower():região
   2931: word.lower():região
   2932: -1:word.lower():região
   2933: +1:word.lower():seção
   2934: word.lower():seção
   2935: -1:word.lower():seção
   2936: word.lower():judiciária
   2937: -1:word.lower():judiciária
   2938: +1:word.lower():2006.38.00.744462-0
   2939: word.lower():2006.38.00.744462-0
   2940: word[-3:]:2-0
   2941: word[-2:]:-0
   2942: -1:word.lower():2006.38.00.744462-0
   2943: +1:word.lower():arts
   2944: word.lower():arts
   2945: word[-3:]:rts
   2946: word[-2:]:ts
   2947: -1:word.lower():arts
   2948: +1:word.lower():17
   2949: word.lower():17
   2950: word[-3:]:17
   2951: -1:word.lower():17
   2952: +1:word.lower():inc
   2953: word.lower():inc
   2954: word[-3:]:inc
   2955: word[-2:]:nc
   2956: -1:word.lower():inc
   2957: +1:word.lower():v
   2958: +1:word.lower():18
   2959: word.lower():18
   2960: word[-3:]:18
   2961: -1:word.lower():18
   2962: +1:word.lower():condenou
   2963: word.lower():condenou
   2964: word[-3:]:nou
   2965: -1:word.lower():condenou
   2966: +1:word.lower():fernando
   2967: word.lower():fernando
   2968: -1:word.lower():fernando
   2969: +1:word.lower():augusto
   2970: word.lower():augusto
   2971: -1:word.lower():augusto
   2972: +1:word.lower():henrique
   2973: word.lower():henrique
   2974: -1:word.lower():henrique
   2975: +1:word.lower():fernandes
   2976: word.lower():fernandes
   2977: -1:word.lower():fernandes
   2978: +1:word.lower():contra
   2979: word.lower():contra
   2980: -1:word.lower():contra
   2981: +1:word.lower():militar
   2982: word.lower():militar
   2983: -1:word.lower():militar
   2984: +1:word.lower():mandado
   2985: word.lower():mandado
   2986: -1:word.lower():mandado
   2987: +1:word.lower():23.036
   2988: word.lower():23.036
   2989: word[-3:]:036
   2990: word[-2:]:36
   2991: -1:word.lower():23.036
   2992: +1:word.lower():15.342
   2993: word.lower():15.342
   2994: word[-3:]:342
   2995: word[-2:]:42
   2996: -1:word.lower():15.342
   2997: word[-3:]:ANÁ
   2998: word[-2:]:NÁ
   2999: word[-3:]:cho
   3000: +1:word.lower():ementa
   3001: word.lower():ementa
   3002: -1:word.lower():ementa
   3003: word.lower():mi
   3004: word[-3:]:MI
   3005: word[-2:]:MI
   3006: -1:word.lower():mi
   3007: +1:word.lower():284
   3008: word.lower():284
   3009: word[-3:]:284
   3010: -1:word.lower():284
   3011: +1:word.lower():22.11.1991
   3012: word.lower():22.11.1991
   3013: -1:word.lower():22.11.1991
   3014: +1:word.lower():‘
   3015: word.lower():‘
   3016: word[-3:]:‘
   3017: word[-2:]:‘
   3018: +1:word.lower():…
   3019: word.lower():…
   3020: word[-3:]:…
   3021: word[-2:]:…
   3022: -1:word.lower():…
   3023: +1:word.lower():brasil
   3024: word.lower():brasil
   3025: word[-3:]:sil
   3026: -1:word.lower():brasil
   3027: +1:word.lower():1964
   3028: word.lower():1964
   3029: word[-3:]:964
   3030: word[-2:]:64
   3031: -1:word.lower():1964
   3032: +1:word.lower():públicas
   3033: word.lower():públicas
   3034: -1:word.lower():públicas
   3035: word[-3:]:to'
   3036: word[-2:]:o'
   3037: +1:word.lower():pe
   3038: word.lower():pe
   3039: word[-3:]:Pe
   3040: word[-2:]:Pe
   3041: -1:word.lower():pe
   3042: +1:word.lower():joseph
   3043: word.lower():joseph
   3044: word[-3:]:EPH
   3045: word[-2:]:PH
   3046: word[-3:]:LIN
   3047: +1:word.lower():'a
   3048: word.lower():'a
   3049: word[-3:]:'A
   3050: word[-2:]:'A
   3051: -1:word.lower():'a
   3052: word[-3:]:gia
   3053: word[-2:]:a'
   3054: +1:word.lower():3ª
   3055: word.lower():3ª
   3056: word[-3:]:3ª
   3057: word[-2:]:3ª
   3058: -1:word.lower():3ª
   3059: word[-3:]:rad
   3060: word[-2:]:ad
   3061: -1:word.lower():civilização
   3062: word[-3:]:ilo
   3063: word[-2:]:s'
   3064: +1:word.lower():consoante
   3065: +1:word.lower():norberto
   3066: word.lower():norberto
   3067: word[-3:]:RTO
   3068: -1:word.lower():norberto
   3069: +1:word.lower():bobbio
   3070: word.lower():bobbio
   3071: word[-3:]:BIO
   3072: -1:word.lower():bobbio
   3073: +1:word.lower():'o
   3074: word.lower():'o
   3075: word[-3:]:'O
   3076: word[-2:]:'O
   3077: -1:word.lower():'o
   3078: word[-3:]:ia'
   3079: word[-2:]:86
   3080: +1:word.lower():terra
   3081: word.lower():terra
   3082: word[-3:]:rra
   3083: -1:word.lower():terra
   3084: word.lower():18/09/2014
   3085: +1:word.lower():saúde
   3086: word.lower():saúde
   3087: -1:word.lower():saúde
   3088: word.lower():sus
   3089: word[-3:]:SUS
   3090: -1:word.lower():sus
   3091: +1:word.lower():caráter
   3092: word.lower():caráter
   3093: -1:word.lower():caráter
   3094: +1:word.lower():privado
   3095: word.lower():privado
   3096: -1:word.lower():privado
   3097: +1:word.lower():nesses
   3098: word.lower():nesses
   3099: -1:word.lower():nesses
   3100: +1:word.lower():"
   3101: word.lower():"
   3102: word[-3:]:"
   3103: word[-2:]:"
   3104: -1:word.lower():"
   3105: word.lower():nr
   3106: word[-3:]:NR
   3107: word[-2:]:NR
   3108: -1:word.lower():nr
   3109: +1:word.lower():ceará
   3110: word.lower():ceará
   3111: -1:word.lower():ceará
   3112: +1:word.lower():quinta
   3113: word.lower():quinta
   3114: -1:word.lower():quinta
   3115: +1:word.lower():última
   3116: word.lower():última
   3117: -1:word.lower():última
   3118: +1:word.lower():foi
   3119: word.lower():foi
   3120: word[-3:]:foi
   3121: word[-2:]:oi
   3122: -1:word.lower():foi
   3123: +1:word.lower():desembargador
   3124: word.lower():desembargador
   3125: -1:word.lower():desembargador
   3126: word[-3:]:115
   3127: word[-3:]:eal
   3128: +1:word.lower():nova
   3129: word.lower():nova
   3130: -1:word.lower():nova
   3131: word[-2:]:55
   3132: word[-3:]:iou
   3133: +1:word.lower():procedência
   3134: word.lower():procedência
   3135: -1:word.lower():procedência
   3136: word[-3:]:mia
   3137: +1:word.lower():3º
   3138: word.lower():3º
   3139: word[-3:]:3º
   3140: word[-2:]:3º
   3141: -1:word.lower():3º
   3142: +1:word.lower():vício
   3143: word.lower():vício
   3144: -1:word.lower():vício
   3145: +1:word.lower():iniciativa
   3146: word.lower():iniciativa
   3147: -1:word.lower():iniciativa
   3148: +1:word.lower():tais
   3149: word.lower():tais
   3150: +1:word.lower():órgão
   3151: word.lower():órgão
   3152: word[-3:]:gão
   3153: -1:word.lower():órgão
   3154: +1:word.lower():petição
   3155: word.lower():petição
   3156: -1:word.lower():petição
   3157: +1:word.lower():conteúdo
   3158: word.lower():conteúdo
   3159: word[-3:]:údo
   3160: -1:word.lower():conteúdo
   3161: +1:word.lower():inocência
   3162: word.lower():inocência
   3163: -1:word.lower():inocência
   3164: word[-3:]:13;
   3165: word[-2:]:3;
   3166: -1:word.lower():22/10/2013;
   3167: +1:word.lower():08/06/2010;
   3168: word.lower():08/06/2010;
   3169: word[-3:]:10;
   3170: -1:word.lower():08/06/2010;
   3171: word[-2:]:59
   3172: word[-3:]:tto
   3173: -1:word.lower():17/11/2009
   3174: +1:word.lower():visando
   3175: word[-3:]:de'
   3176: word[-2:]:e'
   3177: +1:word.lower():terceira
   3178: word.lower():terceira
   3179: -1:word.lower():terceira
   3180: word[-2:]:t’
   3181: +1:word.lower():jorge
   3182: word.lower():jorge
   3183: word[-3:]:rge
   3184: -1:word.lower():jorge
   3185: +1:word.lower():mussi
   3186: word.lower():mussi
   3187: word[-3:]:ssi
   3188: word[-2:]:si
   3189: -1:word.lower():mussi
   3190: word[-3:]:14;
   3191: word[-2:]:4;
   3192: -1:word.lower():14.10.2014;
   3193: word[-2:]:66
   3194: -1:word.lower():13.01.2014;
   3195: +1:word.lower():rj
   3196: word.lower():rj
   3197: word[-3:]:RJ
   3198: word[-2:]:RJ
   3199: -1:word.lower():rj
   3200: word[-3:]:tti
   3201: +1:word.lower():cruz
   3202: word.lower():cruz
   3203: word[-3:]:ruz
   3204: -1:word.lower():cruz
   3205: -1:word.lower():15.09.2014;
   3206: +1:word.lower():assis
   3207: word.lower():assis
   3208: word[-3:]:sis
   3209: -1:word.lower():assis
   3210: +1:word.lower():03
   3211: word.lower():03
   3212: word[-3:]:03
   3213: word.lower():publique
   3214: word[-3:]:se”
   3215: word[-2:]:e”
   3216: +1:word.lower():anexo
   3217: word.lower():anexo
   3218: word[-3:]:exo
   3219: word[-2:]:xo
   3220: -1:word.lower():anexo
   3221: +1:word.lower():caput
   3222: word.lower():caput
   3223: word[-3:]:put
   3224: word[-2:]:ut
   3225: -1:word.lower():caput
   3226: +1:word.lower():lesões
   3227: word.lower():lesões
   3228: -1:word.lower():lesões
   3229: word[-3:]:jam
   3230: +1:word.lower():abaixo
   3231: word.lower():abaixo
   3232: word[-3:]:ixo
   3233: -1:word.lower():abaixo
   3234: +1:word.lower():refere
   3235: word[-3:]:ere
   3236: +1:word.lower():97
   3237: word.lower():97
   3238: word[-3:]:97
   3239: -1:word.lower():97
   3240: +1:word.lower():apontado
   3241: word[-3:]:ãos
   3242: +1:word.lower():objeto
   3243: word.lower():objeto
   3244: -1:word.lower():objeto
   3245: word.lower():súmulas
   3246: -1:word.lower():súmulas
   3247: +1:word.lower():nºs
   3248: word.lower():nºs
   3249: word[-3:]:nºs
   3250: word[-2:]:ºs
   3251: -1:word.lower():nºs
   3252: +1:word.lower():282
   3253: word.lower():282
   3254: -1:word.lower():282
   3255: +1:word.lower():356
   3256: word.lower():356
   3257: -1:word.lower():356
   3258: +1:word.lower():juízes
   3259: word.lower():juízes
   3260: -1:word.lower():juízes
   3261: +1:word.lower():interesses
   3262: word.lower():interesses
   3263: -1:word.lower():interesses
   3264: +1:word.lower():109
   3265: word.lower():109
   3266: word[-3:]:109
   3267: -1:word.lower():109
   3268: +1:word.lower():xi
   3269: word.lower():xi
   3270: word[-3:]:XI
   3271: word[-2:]:XI
   3272: -1:word.lower():xi
   3273: word[-3:]:ete
   3274: +1:word.lower():julgar
   3275: word.lower():cargo
   3276: word[-3:]:rgo
   3277: -1:word.lower():cargo
   3278: +1:word.lower():27
   3279: word.lower():27
   3280: word[-3:]:27
   3281: -1:word.lower():27
   3282: +1:word.lower():2014
   3283: word.lower():2014
   3284: -1:word.lower():2014
   3285: word.lower():ives
   3286: word[-3:]:VES
   3287: -1:word.lower():ives
   3288: +1:word.lower():gandra
   3289: word.lower():gandra
   3290: word[-3:]:DRA
   3291: -1:word.lower():gandra
   3292: word[-3:]:DA
   3293: +1:word.lower():silva
   3294: word.lower():silva
   3295: word[-3:]:LVA
   3296: word[-2:]:VA
   3297: -1:word.lower():silva
   3298: +1:word.lower():martins
   3299: word.lower():martins
   3300: word[-3:]:INS
   3301: word[-2:]:NS
   3302: -1:word.lower():martins
   3303: +1:word.lower():ferreira
   3304: word.lower():ferreira
   3305: word[-3:]:IRA
   3306: -1:word.lower():ferreira
   3307: +1:word.lower():junho
   3308: word.lower():junho
   3309: -1:word.lower():junho
   3310: +1:word.lower():2011
   3311: word.lower():2011
   3312: -1:word.lower():2011
   3313: word[-3:]:al”
   3314: word[-2:]:l”
   3315: +1:word.lower():reconheceu
   3316: word.lower():“§
   3317: word[-3:]:“§
   3318: word[-2:]:“§
   3319: -1:word.lower():“§
   3320: +1:word.lower():incisos
   3321: word.lower():incisos
   3322: -1:word.lower():incisos
   3323: +1:word.lower():”
   3324: word.lower():”
   3325: word[-3:]:”
   3326: word[-2:]:”
   3327: -1:word.lower():”
   3328: +1:word.lower():monocrática
   3329: word.lower():monocrática
   3330: -1:word.lower():monocrática
   3331: word[-3:]:08;
   3332: word[-2:]:8;
   3333: -1:word.lower():18.2.2008;
   3334: word[-3:]:RCL
   3335: word[-2:]:CL
   3336: word[-3:]:676
   3337: word[-2:]:76
   3338: +1:word.lower():12.322/2010
   3339: word.lower():12.322/2010
   3340: -1:word.lower():12.322/2010
   3341: +1:word.lower():veio
   3342: word.lower():veio
   3343: +1:word.lower():data
   3344: word.lower():data
   3345: -1:word.lower():data
   3346: +1:word.lower():proferida
   3347: +1:word.lower():judiciário
   3348: word.lower():judiciário
   3349: -1:word.lower():judiciário
   3350: word.lower():30/06/2015
   3351: -1:word.lower():30/06/2015
   3352: word[-3:]:RMA
   3353: word.lower():22.5.1998;
   3354: word[-3:]:98;
   3355: -1:word.lower():22.5.1998;
   3356: word[-2:]:65
   3357: +1:word.lower():7°
   3358: word.lower():7°
   3359: word[-3:]:7°
   3360: word[-2:]:7°
   3361: -1:word.lower():7°
   3362: +1:word.lower():vi
   3363: word.lower():vi
   3364: word[-3:]:VI
   3365: -1:word.lower():vi
   3366: +1:word.lower():1988
   3367: word.lower():1988
   3368: word[-3:]:988
   3369: -1:word.lower():1988
   3370: +1:word.lower():novembro
   3371: word.lower():novembro
   3372: -1:word.lower():novembro
   3373: word.lower():conselheiro
   3374: -1:word.lower():conselheiro
   3375: word.lower():hélio
   3376: word[-3:]:lio
   3377: -1:word.lower():hélio
   3378: +1:word.lower():chaves
   3379: word.lower():chaves
   3380: word[-3:]:ves
   3381: -1:word.lower():chaves
   3382: +1:word.lower():oliveira
   3383: word.lower():oliveira
   3384: -1:word.lower():oliveira
   3385: word.lower():7.2.2003;
   3386: word[-3:]:03;
   3387: -1:word.lower():7.2.2003;
   3388: +1:word.lower():ce
   3389: word.lower():ce
   3390: word[-3:]:CE
   3391: -1:word.lower():ce
   3392: word[-3:]:ADE
   3393: +1:word.lower():assistente
   3394: word.lower():barboza
   3395: word[-3:]:oza
   3396: -1:word.lower():barboza
   3397: +1:word.lower():moraes
   3398: word.lower():moraes
   3399: word[-3:]:aes
   3400: -1:word.lower():moraes
   3401: +1:word.lower():destacam
   3402: word[-3:]:cam
   3403: word.lower():‘ação
   3404: -1:word.lower():‘ação
   3405: +1:word.lower():originária
   3406: word.lower():originária
   3407: -1:word.lower():originária
   3408: word[-3:]:NÃO
   3409: word[-3:]:NDO
   3410: word[-3:]:NOS
   3411: word[-3:]:ULO
   3412: word[-3:]:SE
   3413: word[-2:]:SE
   3414: word.lower():réus
   3415: word[-3:]:ÉUS
   3416: -1:word.lower():réus
   3417: +1:word.lower():nan
   3418: word.lower():nan
   3419: word[-3:]:nan
   3420: word[-2:]:an
   3421: -1:word.lower():nan
   3422: word[-3:]:DAS
   3423: word[-2:]:NA
   3424: word[-3:]:DOS
   3425: +1:word.lower():walber
   3426: word.lower():walber
   3427: word[-3:]:BER
   3428: -1:word.lower():walber
   3429: +1:word.lower():luís
   3430: word.lower():luís
   3431: word[-3:]:UÍS
   3432: word[-2:]:ÍS
   3433: -1:word.lower():luís
   3434: +1:word.lower():nascimento
   3435: word.lower():nascimento
   3436: -1:word.lower():nascimento
   3437: word[-3:]:NIO
   3438: word[-3:]:LOS
   3439: word[-3:]:OSO
   3440: +1:word.lower():d
   3441: word.lower():d
   3442: word[-3:]:D
   3443: word[-2:]:D
   3444: -1:word.lower():d
   3445: +1:word.lower():raphael
   3446: word.lower():raphael
   3447: word[-3:]:AEL
   3448: -1:word.lower():raphael
   3449: +1:word.lower():wallace
   3450: word.lower():wallace
   3451: word[-3:]:ACE
   3452: -1:word.lower():wallace
   3453: word[-3:]:IVA
   3454: word[-3:]:UZA
   3455: word[-2:]:ZA
   3456: +1:word.lower():felipe
   3457: word.lower():felipe
   3458: word[-3:]:IPE
   3459: word[-2:]:PE
   3460: -1:word.lower():felipe
   3461: +1:word.lower():arce
   3462: word.lower():arce
   3463: word[-3:]:RCE
   3464: -1:word.lower():arce
   3465: +1:word.lower():branco
   3466: word.lower():branco
   3467: word[-3:]:NCO
   3468: -1:word.lower():branco
   3469: word[-3:]:NO
   3470: word[-3:]:IGO
   3471: word[-3:]:ICA
   3472: word[-2:]:CA
   3473: +1:word.lower():farto
   3474: word.lower():farto
   3475: -1:word.lower():farto
   3476: +1:word.lower():ambos
   3477: word.lower():ambos
   3478: -1:word.lower():ambos
   3479: word[-3:]:RDA
   3480: word[-3:]:RGO
   3481: +1:word.lower():promotor
   3482: word.lower():promotor
   3483: -1:word.lower():promotor
   3484: word[-3:]:PÕE
   3485: word[-2:]:ÕE
   3486: +1:word.lower():finalidade
   3487: word[-3:]:uís
   3488: word[-3:]:lva
   3489: +1:word.lower():flávio
   3490: word.lower():flávio
   3491: -1:word.lower():flávio
   3492: +1:word.lower():coelho
   3493: word.lower():coelho
   3494: -1:word.lower():coelho
   3495: word[-2:]:vê
   3496: +1:word.lower():los
   3497: word.lower():los
   3498: -1:word.lower():los
   3499: +1:word.lower():quais
   3500: +1:word.lower():disposição
   3501: word.lower():disposição
   3502: -1:word.lower():disposição
   3503: +1:word.lower():333
   3504: word.lower():333
   3505: word[-3:]:333
   3506: word[-2:]:33
   3507: -1:word.lower():333
   3508: +1:word.lower():;
   3509: word.lower():;
   3510: word[-3:]:;
   3511: word[-2:]:;
   3512: -1:word.lower():;
   3513: +1:word.lower():livre
   3514: word.lower():livre
   3515: word[-3:]:vre
   3516: -1:word.lower():livre
   3517: word[-2:]:r'
   3518: +1:word.lower():dever
   3519: word.lower():dever
   3520: -1:word.lower():dever
   3521: +1:word.lower():fiscal
   3522: word.lower():fiscal
   3523: word[-3:]:cal
   3524: -1:word.lower():fiscal
   3525: +1:word.lower():faz
   3526: word.lower():faz
   3527: word[-3:]:faz
   3528: -1:word.lower():faz
   3529: +1:word.lower():inadmissível
   3530: word.lower():inadmissível
   3531: -1:word.lower():inadmissível
   3532: +1:word.lower():permaneça
   3533: word.lower():permaneça
   3534: -1:word.lower():amazonas
   3535: +1:word.lower():92
   3536: word.lower():92
   3537: word[-3:]:92
   3538: -1:word.lower():92
   3539: +1:word.lower():alínea
   3540: word.lower():alínea
   3541: word[-3:]:nea
   3542: word[-2:]:ea
   3543: -1:word.lower():alínea
   3544: +1:word.lower():c⁄c
   3545: word.lower():c⁄c
   3546: word[-3:]:c⁄c
   3547: word[-2:]:⁄c
   3548: -1:word.lower():c⁄c
   3549: +1:word.lower():135
   3550: word.lower():135
